digraph Tree {
node [shape=box] ;
0 [label="X[0] <= 40.5\ngini = 0.451\nsamples = 3011\nvalue = [98, 206, 2197, 124, 255, 130, 1]"] ;
1 [label="X[5] <= 49.0\ngini = 0.337\nsamples = 1722\nvalue = [42, 95, 1393, 32, 93, 67, 0]"] ;
0 -> 1 [labeldistance=2.5, labelangle=45, headlabel="True"] ;
2 [label="X[2] <= 11.5\ngini = 0.301\nsamples = 1418\nvalue = [32, 76, 1180, 15, 55, 60, 0]"] ;
1 -> 2 ;
3 [label="X[4] <= 2090.0\ngini = 0.258\nsamples = 1072\nvalue = [17, 48, 920, 8, 40, 39, 0]"] ;
2 -> 3 ;
4 [label="X[0] <= 30.5\ngini = 0.254\nsamples = 1069\nvalue = [17, 48, 920, 7, 38, 39, 0]"] ;
3 -> 4 ;
5 [label="X[5] <= 4.0\ngini = 0.202\nsamples = 646\nvalue = [8, 23, 576, 2, 16, 21, 0]"] ;
4 -> 5 ;
6 [label="gini = 0.0\nsamples = 1\nvalue = [0, 0, 0, 0, 1, 0, 0]"] ;
5 -> 6 ;
7 [label="X[7] <= 0.5\ngini = 0.199\nsamples = 645\nvalue = [8, 23, 576, 2, 15, 21, 0]"] ;
5 -> 7 ;
8 [label="X[17] <= 0.5\ngini = 0.176\nsamples = 512\nvalue = [7, 15, 464, 1, 7, 18, 0]"] ;
7 -> 8 ;
9 [label="X[3] <= 57171.5\ngini = 0.173\nsamples = 511\nvalue = [6, 15, 464, 1, 7, 18, 0]"] ;
8 -> 9 ;
10 [label="X[2] <= 9.5\ngini = 0.17\nsamples = 510\nvalue = [6, 15, 464, 1, 6, 18, 0]"] ;
9 -> 10 ;
11 [label="X[4] <= 1847.5\ngini = 0.127\nsamples = 287\nvalue = [4, 6, 268, 0, 4, 5, 0]"] ;
10 -> 11 ;
12 [label="X[1] <= 386906.5\ngini = 0.121\nsamples = 285\nvalue = [3, 6, 267, 0, 4, 5, 0]"] ;
11 -> 12 ;
13 [label="X[1] <= 207992.0\ngini = 0.11\nsamples = 264\nvalue = [3, 4, 249, 0, 4, 4, 0]"] ;
12 -> 13 ;
14 [label="X[1] <= 207021.5\ngini = 0.149\nsamples = 166\nvalue = [3, 3, 153, 0, 3, 4, 0]"] ;
13 -> 14 ;
15 [label="X[5] <= 9.0\ngini = 0.139\nsamples = 165\nvalue = [2, 3, 153, 0, 3, 4, 0]"] ;
14 -> 15 ;
16 [label="X[0] <= 21.5\ngini = 0.375\nsamples = 4\nvalue = [1, 0, 3, 0, 0, 0, 0]"] ;
15 -> 16 ;
17 [label="gini = 0.0\nsamples = 3\nvalue = [0, 0, 3, 0, 0, 0, 0]"] ;
16 -> 17 ;
18 [label="gini = 0.0\nsamples = 1\nvalue = [1, 0, 0, 0, 0, 0, 0]"] ;
16 -> 18 ;
19 [label="X[5] <= 41.5\ngini = 0.131\nsamples = 161\nvalue = [1, 3, 150, 0, 3, 4, 0]"] ;
15 -> 19 ;
20 [label="X[1] <= 142759.5\ngini = 0.114\nsamples = 151\nvalue = [0, 3, 142, 0, 3, 3, 0]"] ;
19 -> 20 ;
21 [label="X[1] <= 38277.0\ngini = 0.029\nsamples = 67\nvalue = [0, 0, 66, 0, 0, 1, 0]"] ;
20 -> 21 ;
22 [label="X[1] <= 37107.0\ngini = 0.18\nsamples = 10\nvalue = [0, 0, 9, 0, 0, 1, 0]"] ;
21 -> 22 ;
23 [label="gini = 0.0\nsamples = 9\nvalue = [0, 0, 9, 0, 0, 0, 0]"] ;
22 -> 23 ;
24 [label="gini = 0.0\nsamples = 1\nvalue = [0, 0, 0, 0, 0, 1, 0]"] ;
22 -> 24 ;
25 [label="gini = 0.0\nsamples = 57\nvalue = [0, 0, 57, 0, 0, 0, 0]"] ;
21 -> 25 ;
26 [label="X[1] <= 143791.5\ngini = 0.178\nsamples = 84\nvalue = [0, 3, 76, 0, 3, 2, 0]"] ;
20 -> 26 ;
27 [label="gini = 0.0\nsamples = 1\nvalue = [0, 0, 0, 0, 1, 0, 0]"] ;
26 -> 27 ;
28 [label="X[0] <= 18.5\ngini = 0.159\nsamples = 83\nvalue = [0, 3, 76, 0, 2, 2, 0]"] ;
26 -> 28 ;
29 [label="X[1] <= 153901.5\ngini = 0.277\nsamples = 19\nvalue = [0, 2, 16, 0, 0, 1, 0]"] ;
28 -> 29 ;
30 [label="gini = 0.0\nsamples = 1\nvalue = [0, 1, 0, 0, 0, 0, 0]"] ;
29 -> 30 ;
31 [label="X[5] <= 18.0\ngini = 0.204\nsamples = 18\nvalue = [0, 1, 16, 0, 0, 1, 0]"] ;
29 -> 31 ;
32 [label="gini = 0.0\nsamples = 9\nvalue = [0, 0, 9, 0, 0, 0, 0]"] ;
31 -> 32 ;
33 [label="X[1] <= 191585.0\ngini = 0.37\nsamples = 9\nvalue = [0, 1, 7, 0, 0, 1, 0]"] ;
31 -> 33 ;
34 [label="X[2] <= 6.5\ngini = 0.245\nsamples = 7\nvalue = [0, 0, 6, 0, 0, 1, 0]"] ;
33 -> 34 ;
35 [label="X[1] <= 180738.5\ngini = 0.444\nsamples = 3\nvalue = [0, 0, 2, 0, 0, 1, 0]"] ;
34 -> 35 ;
36 [label="gini = 0.0\nsamples = 1\nvalue = [0, 0, 0, 0, 0, 1, 0]"] ;
35 -> 36 ;
37 [label="gini = 0.0\nsamples = 2\nvalue = [0, 0, 2, 0, 0, 0, 0]"] ;
35 -> 37 ;
38 [label="gini = 0.0\nsamples = 4\nvalue = [0, 0, 4, 0, 0, 0, 0]"] ;
34 -> 38 ;
39 [label="X[2] <= 6.0\ngini = 0.5\nsamples = 2\nvalue = [0, 1, 1, 0, 0, 0, 0]"] ;
33 -> 39 ;
40 [label="gini = 0.0\nsamples = 1\nvalue = [0, 0, 1, 0, 0, 0, 0]"] ;
39 -> 40 ;
41 [label="gini = 0.0\nsamples = 1\nvalue = [0, 1, 0, 0, 0, 0, 0]"] ;
39 -> 41 ;
42 [label="X[6] <= 0.5\ngini = 0.12\nsamples = 64\nvalue = [0, 1, 60, 0, 2, 1, 0]"] ;
28 -> 42 ;
43 [label="X[0] <= 22.5\ngini = 0.1\nsamples = 58\nvalue = [0, 1, 55, 0, 1, 1, 0]"] ;
42 -> 43 ;
44 [label="gini = 0.0\nsamples = 29\nvalue = [0, 0, 29, 0, 0, 0, 0]"] ;
43 -> 44 ;
45 [label="X[0] <= 25.5\ngini = 0.193\nsamples = 29\nvalue = [0, 1, 26, 0, 1, 1, 0]"] ;
43 -> 45 ;
46 [label="X[1] <= 160924.0\ngini = 0.367\nsamples = 14\nvalue = [0, 1, 11, 0, 1, 1, 0]"] ;
45 -> 46 ;
47 [label="X[1] <= 154878.5\ngini = 0.5\nsamples = 2\nvalue = [0, 0, 1, 0, 0, 1, 0]"] ;
46 -> 47 ;
48 [label="gini = 0.0\nsamples = 1\nvalue = [0, 0, 1, 0, 0, 0, 0]"] ;
47 -> 48 ;
49 [label="gini = 0.0\nsamples = 1\nvalue = [0, 0, 0, 0, 0, 1, 0]"] ;
47 -> 49 ;
50 [label="X[1] <= 179479.0\ngini = 0.292\nsamples = 12\nvalue = [0, 1, 10, 0, 1, 0, 0]"] ;
46 -> 50 ;
51 [label="X[1] <= 176226.5\ngini = 0.444\nsamples = 3\nvalue = [0, 1, 2, 0, 0, 0, 0]"] ;
50 -> 51 ;
52 [label="gini = 0.0\nsamples = 2\nvalue = [0, 0, 2, 0, 0, 0, 0]"] ;
51 -> 52 ;
53 [label="gini = 0.0\nsamples = 1\nvalue = [0, 1, 0, 0, 0, 0, 0]"] ;
51 -> 53 ;
54 [label="X[15] <= 0.5\ngini = 0.198\nsamples = 9\nvalue = [0, 0, 8, 0, 1, 0, 0]"] ;
50 -> 54 ;
55 [label="gini = 0.0\nsamples = 4\nvalue = [0, 0, 4, 0, 0, 0, 0]"] ;
54 -> 55 ;
56 [label="X[23] <= 0.5\ngini = 0.32\nsamples = 5\nvalue = [0, 0, 4, 0, 1, 0, 0]"] ;
54 -> 56 ;
57 [label="X[1] <= 188194.5\ngini = 0.444\nsamples = 3\nvalue = [0, 0, 2, 0, 1, 0, 0]"] ;
56 -> 57 ;
58 [label="gini = 0.0\nsamples = 2\nvalue = [0, 0, 2, 0, 0, 0, 0]"] ;
57 -> 58 ;
59 [label="gini = 0.0\nsamples = 1\nvalue = [0, 0, 0, 0, 1, 0, 0]"] ;
57 -> 59 ;
60 [label="gini = 0.0\nsamples = 2\nvalue = [0, 0, 2, 0, 0, 0, 0]"] ;
56 -> 60 ;
61 [label="gini = 0.0\nsamples = 15\nvalue = [0, 0, 15, 0, 0, 0, 0]"] ;
45 -> 61 ;
62 [label="X[16] <= 0.5\ngini = 0.278\nsamples = 6\nvalue = [0, 0, 5, 0, 1, 0, 0]"] ;
42 -> 62 ;
63 [label="gini = 0.0\nsamples = 1\nvalue = [0, 0, 0, 0, 1, 0, 0]"] ;
62 -> 63 ;
64 [label="gini = 0.0\nsamples = 5\nvalue = [0, 0, 5, 0, 0, 0, 0]"] ;
62 -> 64 ;
65 [label="X[0] <= 23.5\ngini = 0.34\nsamples = 10\nvalue = [1, 0, 8, 0, 0, 1, 0]"] ;
19 -> 65 ;
66 [label="X[1] <= 105645.5\ngini = 0.5\nsamples = 2\nvalue = [1, 0, 0, 0, 0, 1, 0]"] ;
65 -> 66 ;
67 [label="gini = 0.0\nsamples = 1\nvalue = [1, 0, 0, 0, 0, 0, 0]"] ;
66 -> 67 ;
68 [label="gini = 0.0\nsamples = 1\nvalue = [0, 0, 0, 0, 0, 1, 0]"] ;
66 -> 68 ;
69 [label="gini = 0.0\nsamples = 8\nvalue = [0, 0, 8, 0, 0, 0, 0]"] ;
65 -> 69 ;
70 [label="gini = 0.0\nsamples = 1\nvalue = [1, 0, 0, 0, 0, 0, 0]"] ;
14 -> 70 ;
71 [label="X[0] <= 17.5\ngini = 0.04\nsamples = 98\nvalue = [0, 1, 96, 0, 1, 0, 0]"] ;
13 -> 71 ;
72 [label="X[5] <= 20.0\ngini = 0.245\nsamples = 7\nvalue = [0, 0, 6, 0, 1, 0, 0]"] ;
71 -> 72 ;
73 [label="gini = 0.0\nsamples = 4\nvalue = [0, 0, 4, 0, 0, 0, 0]"] ;
72 -> 73 ;
74 [label="X[24] <= 0.5\ngini = 0.444\nsamples = 3\nvalue = [0, 0, 2, 0, 1, 0, 0]"] ;
72 -> 74 ;
75 [label="gini = 0.0\nsamples = 1\nvalue = [0, 0, 0, 0, 1, 0, 0]"] ;
74 -> 75 ;
76 [label="gini = 0.0\nsamples = 2\nvalue = [0, 0, 2, 0, 0, 0, 0]"] ;
74 -> 76 ;
77 [label="X[1] <= 304126.5\ngini = 0.022\nsamples = 91\nvalue = [0, 1, 90, 0, 0, 0, 0]"] ;
71 -> 77 ;
78 [label="gini = 0.0\nsamples = 62\nvalue = [0, 0, 62, 0, 0, 0, 0]"] ;
77 -> 78 ;
79 [label="X[1] <= 305250.0\ngini = 0.067\nsamples = 29\nvalue = [0, 1, 28, 0, 0, 0, 0]"] ;
77 -> 79 ;
80 [label="gini = 0.0\nsamples = 1\nvalue = [0, 1, 0, 0, 0, 0, 0]"] ;
79 -> 80 ;
81 [label="gini = 0.0\nsamples = 28\nvalue = [0, 0, 28, 0, 0, 0, 0]"] ;
79 -> 81 ;
82 [label="X[1] <= 404822.5\ngini = 0.254\nsamples = 21\nvalue = [0, 2, 18, 0, 0, 1, 0]"] ;
12 -> 82 ;
83 [label="X[22] <= 0.5\ngini = 0.444\nsamples = 3\nvalue = [0, 2, 0, 0, 0, 1, 0]"] ;
82 -> 83 ;
84 [label="gini = 0.0\nsamples = 1\nvalue = [0, 0, 0, 0, 0, 1, 0]"] ;
83 -> 84 ;
85 [label="gini = 0.0\nsamples = 2\nvalue = [0, 2, 0, 0, 0, 0, 0]"] ;
83 -> 85 ;
86 [label="gini = 0.0\nsamples = 18\nvalue = [0, 0, 18, 0, 0, 0, 0]"] ;
82 -> 86 ;
87 [label="X[23] <= 0.5\ngini = 0.5\nsamples = 2\nvalue = [1, 0, 1, 0, 0, 0, 0]"] ;
11 -> 87 ;
88 [label="gini = 0.0\nsamples = 1\nvalue = [0, 0, 1, 0, 0, 0, 0]"] ;
87 -> 88 ;
89 [label="gini = 0.0\nsamples = 1\nvalue = [1, 0, 0, 0, 0, 0, 0]"] ;
87 -> 89 ;
90 [label="X[5] <= 7.0\ngini = 0.222\nsamples = 223\nvalue = [2, 9, 196, 1, 2, 13, 0]"] ;
10 -> 90 ;
91 [label="gini = 0.0\nsamples = 1\nvalue = [0, 0, 0, 0, 0, 1, 0]"] ;
90 -> 91 ;
92 [label="X[5] <= 17.0\ngini = 0.216\nsamples = 222\nvalue = [2, 9, 196, 1, 2, 12, 0]"] ;
90 -> 92 ;
93 [label="X[0] <= 25.5\ngini = 0.429\nsamples = 26\nvalue = [0, 3, 19, 0, 0, 4, 0]"] ;
92 -> 93 ;
94 [label="X[1] <= 148989.5\ngini = 0.344\nsamples = 24\nvalue = [0, 1, 19, 0, 0, 4, 0]"] ;
93 -> 94 ;
95 [label="X[1] <= 50981.5\ngini = 0.469\nsamples = 8\nvalue = [0, 0, 5, 0, 0, 3, 0]"] ;
94 -> 95 ;
96 [label="gini = 0.0\nsamples = 3\nvalue = [0, 0, 3, 0, 0, 0, 0]"] ;
95 -> 96 ;
97 [label="X[5] <= 12.0\ngini = 0.48\nsamples = 5\nvalue = [0, 0, 2, 0, 0, 3, 0]"] ;
95 -> 97 ;
98 [label="gini = 0.0\nsamples = 2\nvalue = [0, 0, 0, 0, 0, 2, 0]"] ;
97 -> 98 ;
99 [label="X[0] <= 20.0\ngini = 0.444\nsamples = 3\nvalue = [0, 0, 2, 0, 0, 1, 0]"] ;
97 -> 99 ;
100 [label="gini = 0.0\nsamples = 1\nvalue = [0, 0, 0, 0, 0, 1, 0]"] ;
99 -> 100 ;
101 [label="gini = 0.0\nsamples = 2\nvalue = [0, 0, 2, 0, 0, 0, 0]"] ;
99 -> 101 ;
102 [label="X[0] <= 22.5\ngini = 0.227\nsamples = 16\nvalue = [0, 1, 14, 0, 0, 1, 0]"] ;
94 -> 102 ;
103 [label="X[5] <= 15.5\ngini = 0.133\nsamples = 14\nvalue = [0, 1, 13, 0, 0, 0, 0]"] ;
102 -> 103 ;
104 [label="gini = 0.0\nsamples = 12\nvalue = [0, 0, 12, 0, 0, 0, 0]"] ;
103 -> 104 ;
105 [label="X[1] <= 228271.0\ngini = 0.5\nsamples = 2\nvalue = [0, 1, 1, 0, 0, 0, 0]"] ;
103 -> 105 ;
106 [label="gini = 0.0\nsamples = 1\nvalue = [0, 0, 1, 0, 0, 0, 0]"] ;
105 -> 106 ;
107 [label="gini = 0.0\nsamples = 1\nvalue = [0, 1, 0, 0, 0, 0, 0]"] ;
105 -> 107 ;
108 [label="X[1] <= 262249.0\ngini = 0.5\nsamples = 2\nvalue = [0, 0, 1, 0, 0, 1, 0]"] ;
102 -> 108 ;
109 [label="gini = 0.0\nsamples = 1\nvalue = [0, 0, 0, 0, 0, 1, 0]"] ;
108 -> 109 ;
110 [label="gini = 0.0\nsamples = 1\nvalue = [0, 0, 1, 0, 0, 0, 0]"] ;
108 -> 110 ;
111 [label="gini = 0.0\nsamples = 2\nvalue = [0, 2, 0, 0, 0, 0, 0]"] ;
93 -> 111 ;
112 [label="X[13] <= 0.5\ngini = 0.182\nsamples = 196\nvalue = [2, 6, 177, 1, 2, 8, 0]"] ;
92 -> 112 ;
113 [label="X[19] <= 0.5\ngini = 0.141\nsamples = 135\nvalue = [1, 4, 125, 1, 1, 3, 0]"] ;
112 -> 113 ;
114 [label="X[5] <= 38.5\ngini = 0.122\nsamples = 126\nvalue = [1, 3, 118, 0, 1, 3, 0]"] ;
113 -> 114 ;
115 [label="X[0] <= 20.5\ngini = 0.058\nsamples = 67\nvalue = [0, 0, 65, 0, 1, 1, 0]"] ;
114 -> 115 ;
116 [label="X[24] <= 0.5\ngini = 0.14\nsamples = 27\nvalue = [0, 0, 25, 0, 1, 1, 0]"] ;
115 -> 116 ;
117 [label="X[1] <= 299212.0\ngini = 0.34\nsamples = 10\nvalue = [0, 0, 8, 0, 1, 1, 0]"] ;
116 -> 117 ;
118 [label="X[1] <= 185098.0\ngini = 0.198\nsamples = 9\nvalue = [0, 0, 8, 0, 0, 1, 0]"] ;
117 -> 118 ;
119 [label="X[1] <= 170496.0\ngini = 0.375\nsamples = 4\nvalue = [0, 0, 3, 0, 0, 1, 0]"] ;
118 -> 119 ;
120 [label="gini = 0.0\nsamples = 3\nvalue = [0, 0, 3, 0, 0, 0, 0]"] ;
119 -> 120 ;
121 [label="gini = 0.0\nsamples = 1\nvalue = [0, 0, 0, 0, 0, 1, 0]"] ;
119 -> 121 ;
122 [label="gini = 0.0\nsamples = 5\nvalue = [0, 0, 5, 0, 0, 0, 0]"] ;
118 -> 122 ;
123 [label="gini = 0.0\nsamples = 1\nvalue = [0, 0, 0, 0, 1, 0, 0]"] ;
117 -> 123 ;
124 [label="gini = 0.0\nsamples = 17\nvalue = [0, 0, 17, 0, 0, 0, 0]"] ;
116 -> 124 ;
125 [label="gini = 0.0\nsamples = 40\nvalue = [0, 0, 40, 0, 0, 0, 0]"] ;
115 -> 125 ;
126 [label="X[1] <= 52956.0\ngini = 0.189\nsamples = 59\nvalue = [1, 3, 53, 0, 0, 2, 0]"] ;
114 -> 126 ;
127 [label="gini = 0.0\nsamples = 1\nvalue = [0, 1, 0, 0, 0, 0, 0]"] ;
126 -> 127 ;
128 [label="X[0] <= 24.5\ngini = 0.162\nsamples = 58\nvalue = [1, 2, 53, 0, 0, 2, 0]"] ;
126 -> 128 ;
129 [label="X[0] <= 21.5\ngini = 0.279\nsamples = 32\nvalue = [1, 2, 27, 0, 0, 2, 0]"] ;
128 -> 129 ;
130 [label="gini = 0.0\nsamples = 18\nvalue = [0, 0, 18, 0, 0, 0, 0]"] ;
129 -> 130 ;
131 [label="X[1] <= 330854.0\ngini = 0.541\nsamples = 14\nvalue = [1, 2, 9, 0, 0, 2, 0]"] ;
129 -> 131 ;
132 [label="X[1] <= 227243.5\ngini = 0.628\nsamples = 11\nvalue = [1, 2, 6, 0, 0, 2, 0]"] ;
131 -> 132 ;
133 [label="X[0] <= 23.5\ngini = 0.406\nsamples = 8\nvalue = [0, 1, 6, 0, 0, 1, 0]"] ;
132 -> 133 ;
134 [label="X[1] <= 129221.5\ngini = 0.278\nsamples = 6\nvalue = [0, 0, 5, 0, 0, 1, 0]"] ;
133 -> 134 ;
135 [label="X[2] <= 10.5\ngini = 0.5\nsamples = 2\nvalue = [0, 0, 1, 0, 0, 1, 0]"] ;
134 -> 135 ;
136 [label="gini = 0.0\nsamples = 1\nvalue = [0, 0, 0, 0, 0, 1, 0]"] ;
135 -> 136 ;
137 [label="gini = 0.0\nsamples = 1\nvalue = [0, 0, 1, 0, 0, 0, 0]"] ;
135 -> 137 ;
138 [label="gini = 0.0\nsamples = 4\nvalue = [0, 0, 4, 0, 0, 0, 0]"] ;
134 -> 138 ;
139 [label="X[16] <= 0.5\ngini = 0.5\nsamples = 2\nvalue = [0, 1, 1, 0, 0, 0, 0]"] ;
133 -> 139 ;
140 [label="gini = 0.0\nsamples = 1\nvalue = [0, 1, 0, 0, 0, 0, 0]"] ;
139 -> 140 ;
141 [label="gini = 0.0\nsamples = 1\nvalue = [0, 0, 1, 0, 0, 0, 0]"] ;
139 -> 141 ;
142 [label="X[24] <= 0.5\ngini = 0.667\nsamples = 3\nvalue = [1, 1, 0, 0, 0, 1, 0]"] ;
132 -> 142 ;
143 [label="gini = 0.0\nsamples = 1\nvalue = [0, 0, 0, 0, 0, 1, 0]"] ;
142 -> 143 ;
144 [label="X[1] <= 275424.0\ngini = 0.5\nsamples = 2\nvalue = [1, 1, 0, 0, 0, 0, 0]"] ;
142 -> 144 ;
145 [label="gini = 0.0\nsamples = 1\nvalue = [0, 1, 0, 0, 0, 0, 0]"] ;
144 -> 145 ;
146 [label="gini = 0.0\nsamples = 1\nvalue = [1, 0, 0, 0, 0, 0, 0]"] ;
144 -> 146 ;
147 [label="gini = 0.0\nsamples = 3\nvalue = [0, 0, 3, 0, 0, 0, 0]"] ;
131 -> 147 ;
148 [label="gini = 0.0\nsamples = 26\nvalue = [0, 0, 26, 0, 0, 0, 0]"] ;
128 -> 148 ;
149 [label="X[0] <= 19.5\ngini = 0.37\nsamples = 9\nvalue = [0, 1, 7, 1, 0, 0, 0]"] ;
113 -> 149 ;
150 [label="gini = 0.0\nsamples = 1\nvalue = [0, 0, 0, 1, 0, 0, 0]"] ;
149 -> 150 ;
151 [label="X[15] <= 0.5\ngini = 0.219\nsamples = 8\nvalue = [0, 1, 7, 0, 0, 0, 0]"] ;
149 -> 151 ;
152 [label="gini = 0.0\nsamples = 6\nvalue = [0, 0, 6, 0, 0, 0, 0]"] ;
151 -> 152 ;
153 [label="X[24] <= 0.5\ngini = 0.5\nsamples = 2\nvalue = [0, 1, 1, 0, 0, 0, 0]"] ;
151 -> 153 ;
154 [label="gini = 0.0\nsamples = 1\nvalue = [0, 1, 0, 0, 0, 0, 0]"] ;
153 -> 154 ;
155 [label="gini = 0.0\nsamples = 1\nvalue = [0, 0, 1, 0, 0, 0, 0]"] ;
153 -> 155 ;
156 [label="X[0] <= 18.5\ngini = 0.265\nsamples = 61\nvalue = [1, 2, 52, 0, 1, 5, 0]"] ;
112 -> 156 ;
157 [label="gini = 0.0\nsamples = 1\nvalue = [0, 0, 0, 0, 0, 1, 0]"] ;
156 -> 157 ;
158 [label="X[1] <= 111470.5\ngini = 0.243\nsamples = 60\nvalue = [1, 2, 52, 0, 1, 4, 0]"] ;
156 -> 158 ;
159 [label="X[5] <= 36.5\ngini = 0.091\nsamples = 21\nvalue = [1, 0, 20, 0, 0, 0, 0]"] ;
158 -> 159 ;
160 [label="X[24] <= 0.5\ngini = 0.245\nsamples = 7\nvalue = [1, 0, 6, 0, 0, 0, 0]"] ;
159 -> 160 ;
161 [label="X[0] <= 22.5\ngini = 0.5\nsamples = 2\nvalue = [1, 0, 1, 0, 0, 0, 0]"] ;
160 -> 161 ;
162 [label="gini = 0.0\nsamples = 1\nvalue = [0, 0, 1, 0, 0, 0, 0]"] ;
161 -> 162 ;
163 [label="gini = 0.0\nsamples = 1\nvalue = [1, 0, 0, 0, 0, 0, 0]"] ;
161 -> 163 ;
164 [label="gini = 0.0\nsamples = 5\nvalue = [0, 0, 5, 0, 0, 0, 0]"] ;
160 -> 164 ;
165 [label="gini = 0.0\nsamples = 14\nvalue = [0, 0, 14, 0, 0, 0, 0]"] ;
159 -> 165 ;
166 [label="X[1] <= 129556.0\ngini = 0.313\nsamples = 39\nvalue = [0, 2, 32, 0, 1, 4, 0]"] ;
158 -> 166 ;
167 [label="gini = 0.0\nsamples = 3\nvalue = [0, 0, 0, 0, 0, 3, 0]"] ;
166 -> 167 ;
168 [label="X[2] <= 10.5\ngini = 0.205\nsamples = 36\nvalue = [0, 2, 32, 0, 1, 1, 0]"] ;
166 -> 168 ;
169 [label="X[0] <= 25.5\ngini = 0.169\nsamples = 33\nvalue = [0, 2, 30, 0, 0, 1, 0]"] ;
168 -> 169 ;
170 [label="X[0] <= 24.5\ngini = 0.29\nsamples = 18\nvalue = [0, 2, 15, 0, 0, 1, 0]"] ;
169 -> 170 ;
171 [label="X[23] <= 0.5\ngini = 0.219\nsamples = 16\nvalue = [0, 2, 14, 0, 0, 0, 0]"] ;
170 -> 171 ;
172 [label="X[0] <= 23.5\ngini = 0.375\nsamples = 8\nvalue = [0, 2, 6, 0, 0, 0, 0]"] ;
171 -> 172 ;
173 [label="X[5] <= 25.0\ngini = 0.444\nsamples = 6\nvalue = [0, 2, 4, 0, 0, 0, 0]"] ;
172 -> 173 ;
174 [label="gini = 0.0\nsamples = 1\nvalue = [0, 0, 1, 0, 0, 0, 0]"] ;
173 -> 174 ;
175 [label="X[1] <= 307273.0\ngini = 0.48\nsamples = 5\nvalue = [0, 2, 3, 0, 0, 0, 0]"] ;
173 -> 175 ;
176 [label="X[1] <= 210202.5\ngini = 0.375\nsamples = 4\nvalue = [0, 1, 3, 0, 0, 0, 0]"] ;
175 -> 176 ;
177 [label="X[1] <= 176418.0\ngini = 0.5\nsamples = 2\nvalue = [0, 1, 1, 0, 0, 0, 0]"] ;
176 -> 177 ;
178 [label="gini = 0.0\nsamples = 1\nvalue = [0, 0, 1, 0, 0, 0, 0]"] ;
177 -> 178 ;
179 [label="gini = 0.0\nsamples = 1\nvalue = [0, 1, 0, 0, 0, 0, 0]"] ;
177 -> 179 ;
180 [label="gini = 0.0\nsamples = 2\nvalue = [0, 0, 2, 0, 0, 0, 0]"] ;
176 -> 180 ;
181 [label="gini = 0.0\nsamples = 1\nvalue = [0, 1, 0, 0, 0, 0, 0]"] ;
175 -> 181 ;
182 [label="gini = 0.0\nsamples = 2\nvalue = [0, 0, 2, 0, 0, 0, 0]"] ;
172 -> 182 ;
183 [label="gini = 0.0\nsamples = 8\nvalue = [0, 0, 8, 0, 0, 0, 0]"] ;
171 -> 183 ;
184 [label="X[1] <= 239069.5\ngini = 0.5\nsamples = 2\nvalue = [0, 0, 1, 0, 0, 1, 0]"] ;
170 -> 184 ;
185 [label="gini = 0.0\nsamples = 1\nvalue = [0, 0, 1, 0, 0, 0, 0]"] ;
184 -> 185 ;
186 [label="gini = 0.0\nsamples = 1\nvalue = [0, 0, 0, 0, 0, 1, 0]"] ;
184 -> 186 ;
187 [label="gini = 0.0\nsamples = 15\nvalue = [0, 0, 15, 0, 0, 0, 0]"] ;
169 -> 187 ;
188 [label="X[0] <= 27.0\ngini = 0.444\nsamples = 3\nvalue = [0, 0, 2, 0, 1, 0, 0]"] ;
168 -> 188 ;
189 [label="gini = 0.0\nsamples = 1\nvalue = [0, 0, 0, 0, 1, 0, 0]"] ;
188 -> 189 ;
190 [label="gini = 0.0\nsamples = 2\nvalue = [0, 0, 2, 0, 0, 0, 0]"] ;
188 -> 190 ;
191 [label="gini = 0.0\nsamples = 1\nvalue = [0, 0, 0, 0, 1, 0, 0]"] ;
9 -> 191 ;
192 [label="gini = 0.0\nsamples = 1\nvalue = [1, 0, 0, 0, 0, 0, 0]"] ;
8 -> 192 ;
193 [label="X[5] <= 31.0\ngini = 0.283\nsamples = 133\nvalue = [1, 8, 112, 1, 8, 3, 0]"] ;
7 -> 193 ;
194 [label="X[5] <= 27.0\ngini = 0.54\nsamples = 10\nvalue = [0, 0, 6, 0, 3, 1, 0]"] ;
193 -> 194 ;
195 [label="X[0] <= 25.5\ngini = 0.278\nsamples = 6\nvalue = [0, 0, 5, 0, 0, 1, 0]"] ;
194 -> 195 ;
196 [label="X[5] <= 17.5\ngini = 0.5\nsamples = 2\nvalue = [0, 0, 1, 0, 0, 1, 0]"] ;
195 -> 196 ;
197 [label="gini = 0.0\nsamples = 1\nvalue = [0, 0, 1, 0, 0, 0, 0]"] ;
196 -> 197 ;
198 [label="gini = 0.0\nsamples = 1\nvalue = [0, 0, 0, 0, 0, 1, 0]"] ;
196 -> 198 ;
199 [label="gini = 0.0\nsamples = 4\nvalue = [0, 0, 4, 0, 0, 0, 0]"] ;
195 -> 199 ;
200 [label="X[15] <= 0.5\ngini = 0.375\nsamples = 4\nvalue = [0, 0, 1, 0, 3, 0, 0]"] ;
194 -> 200 ;
201 [label="gini = 0.0\nsamples = 3\nvalue = [0, 0, 0, 0, 3, 0, 0]"] ;
200 -> 201 ;
202 [label="gini = 0.0\nsamples = 1\nvalue = [0, 0, 1, 0, 0, 0, 0]"] ;
200 -> 202 ;
203 [label="X[21] <= 0.5\ngini = 0.251\nsamples = 123\nvalue = [1, 8, 106, 1, 5, 2, 0]"] ;
193 -> 203 ;
204 [label="X[1] <= 309778.0\ngini = 0.241\nsamples = 121\nvalue = [0, 8, 105, 1, 5, 2, 0]"] ;
203 -> 204 ;
205 [label="X[2] <= 6.5\ngini = 0.21\nsamples = 106\nvalue = [0, 5, 94, 1, 4, 2, 0]"] ;
204 -> 205 ;
206 [label="X[0] <= 29.5\ngini = 0.625\nsamples = 4\nvalue = [0, 1, 2, 0, 1, 0, 0]"] ;
205 -> 206 ;
207 [label="X[1] <= 226818.0\ngini = 0.444\nsamples = 3\nvalue = [0, 0, 2, 0, 1, 0, 0]"] ;
206 -> 207 ;
208 [label="gini = 0.0\nsamples = 2\nvalue = [0, 0, 2, 0, 0, 0, 0]"] ;
207 -> 208 ;
209 [label="gini = 0.0\nsamples = 1\nvalue = [0, 0, 0, 0, 1, 0, 0]"] ;
207 -> 209 ;
210 [label="gini = 0.0\nsamples = 1\nvalue = [0, 1, 0, 0, 0, 0, 0]"] ;
206 -> 210 ;
211 [label="X[1] <= 160370.0\ngini = 0.184\nsamples = 102\nvalue = [0, 4, 92, 1, 3, 2, 0]"] ;
205 -> 211 ;
212 [label="X[1] <= 146646.0\ngini = 0.286\nsamples = 50\nvalue = [0, 3, 42, 1, 3, 1, 0]"] ;
211 -> 212 ;
213 [label="X[5] <= 37.5\ngini = 0.234\nsamples = 47\nvalue = [0, 1, 41, 1, 3, 1, 0]"] ;
212 -> 213 ;
214 [label="X[3] <= 1890.5\ngini = 0.5\nsamples = 2\nvalue = [0, 0, 1, 0, 1, 0, 0]"] ;
213 -> 214 ;
215 [label="gini = 0.0\nsamples = 1\nvalue = [0, 0, 0, 0, 1, 0, 0]"] ;
214 -> 215 ;
216 [label="gini = 0.0\nsamples = 1\nvalue = [0, 0, 1, 0, 0, 0, 0]"] ;
214 -> 216 ;
217 [label="X[4] <= 1659.5\ngini = 0.206\nsamples = 45\nvalue = [0, 1, 40, 1, 2, 1, 0]"] ;
213 -> 217 ;
218 [label="X[1] <= 116243.0\ngini = 0.178\nsamples = 42\nvalue = [0, 1, 38, 0, 2, 1, 0]"] ;
217 -> 218 ;
219 [label="X[1] <= 52647.0\ngini = 0.062\nsamples = 31\nvalue = [0, 0, 30, 0, 1, 0, 0]"] ;
218 -> 219 ;
220 [label="X[1] <= 50878.0\ngini = 0.165\nsamples = 11\nvalue = [0, 0, 10, 0, 1, 0, 0]"] ;
219 -> 220 ;
221 [label="gini = 0.0\nsamples = 10\nvalue = [0, 0, 10, 0, 0, 0, 0]"] ;
220 -> 221 ;
222 [label="gini = 0.0\nsamples = 1\nvalue = [0, 0, 0, 0, 1, 0, 0]"] ;
220 -> 222 ;
223 [label="gini = 0.0\nsamples = 20\nvalue = [0, 0, 20, 0, 0, 0, 0]"] ;
219 -> 223 ;
224 [label="X[1] <= 120182.0\ngini = 0.446\nsamples = 11\nvalue = [0, 1, 8, 0, 1, 1, 0]"] ;
218 -> 224 ;
225 [label="X[2] <= 9.5\ngini = 0.5\nsamples = 2\nvalue = [0, 1, 0, 0, 1, 0, 0]"] ;
224 -> 225 ;
226 [label="gini = 0.0\nsamples = 1\nvalue = [0, 1, 0, 0, 0, 0, 0]"] ;
225 -> 226 ;
227 [label="gini = 0.0\nsamples = 1\nvalue = [0, 0, 0, 0, 1, 0, 0]"] ;
225 -> 227 ;
228 [label="X[0] <= 24.0\ngini = 0.198\nsamples = 9\nvalue = [0, 0, 8, 0, 0, 1, 0]"] ;
224 -> 228 ;
229 [label="gini = 0.0\nsamples = 1\nvalue = [0, 0, 0, 0, 0, 1, 0]"] ;
228 -> 229 ;
230 [label="gini = 0.0\nsamples = 8\nvalue = [0, 0, 8, 0, 0, 0, 0]"] ;
228 -> 230 ;
231 [label="X[1] <= 90048.0\ngini = 0.444\nsamples = 3\nvalue = [0, 0, 2, 1, 0, 0, 0]"] ;
217 -> 231 ;
232 [label="gini = 0.0\nsamples = 1\nvalue = [0, 0, 0, 1, 0, 0, 0]"] ;
231 -> 232 ;
233 [label="gini = 0.0\nsamples = 2\nvalue = [0, 0, 2, 0, 0, 0, 0]"] ;
231 -> 233 ;
234 [label="X[22] <= 0.5\ngini = 0.444\nsamples = 3\nvalue = [0, 2, 1, 0, 0, 0, 0]"] ;
212 -> 234 ;
235 [label="gini = 0.0\nsamples = 1\nvalue = [0, 0, 1, 0, 0, 0, 0]"] ;
234 -> 235 ;
236 [label="gini = 0.0\nsamples = 2\nvalue = [0, 2, 0, 0, 0, 0, 0]"] ;
234 -> 236 ;
237 [label="X[2] <= 10.5\ngini = 0.075\nsamples = 52\nvalue = [0, 1, 50, 0, 0, 1, 0]"] ;
211 -> 237 ;
238 [label="X[0] <= 27.5\ngini = 0.039\nsamples = 50\nvalue = [0, 1, 49, 0, 0, 0, 0]"] ;
237 -> 238 ;
239 [label="gini = 0.0\nsamples = 26\nvalue = [0, 0, 26, 0, 0, 0, 0]"] ;
238 -> 239 ;
240 [label="X[1] <= 208628.5\ngini = 0.08\nsamples = 24\nvalue = [0, 1, 23, 0, 0, 0, 0]"] ;
238 -> 240 ;
241 [label="gini = 0.0\nsamples = 13\nvalue = [0, 0, 13, 0, 0, 0, 0]"] ;
240 -> 241 ;
242 [label="X[1] <= 213712.0\ngini = 0.165\nsamples = 11\nvalue = [0, 1, 10, 0, 0, 0, 0]"] ;
240 -> 242 ;
243 [label="gini = 0.0\nsamples = 1\nvalue = [0, 1, 0, 0, 0, 0, 0]"] ;
242 -> 243 ;
244 [label="gini = 0.0\nsamples = 10\nvalue = [0, 0, 10, 0, 0, 0, 0]"] ;
242 -> 244 ;
245 [label="X[26] <= 0.5\ngini = 0.5\nsamples = 2\nvalue = [0, 0, 1, 0, 0, 1, 0]"] ;
237 -> 245 ;
246 [label="gini = 0.0\nsamples = 1\nvalue = [0, 0, 1, 0, 0, 0, 0]"] ;
245 -> 246 ;
247 [label="gini = 0.0\nsamples = 1\nvalue = [0, 0, 0, 0, 0, 1, 0]"] ;
245 -> 247 ;
248 [label="X[26] <= 0.5\ngini = 0.418\nsamples = 15\nvalue = [0, 3, 11, 0, 1, 0, 0]"] ;
204 -> 248 ;
249 [label="X[3] <= 3244.0\ngini = 0.292\nsamples = 12\nvalue = [0, 1, 10, 0, 1, 0, 0]"] ;
248 -> 249 ;
250 [label="X[1] <= 415202.5\ngini = 0.165\nsamples = 11\nvalue = [0, 0, 10, 0, 1, 0, 0]"] ;
249 -> 250 ;
251 [label="gini = 0.0\nsamples = 8\nvalue = [0, 0, 8, 0, 0, 0, 0]"] ;
250 -> 251 ;
252 [label="X[1] <= 445464.5\ngini = 0.444\nsamples = 3\nvalue = [0, 0, 2, 0, 1, 0, 0]"] ;
250 -> 252 ;
253 [label="gini = 0.0\nsamples = 1\nvalue = [0, 0, 0, 0, 1, 0, 0]"] ;
252 -> 253 ;
254 [label="gini = 0.0\nsamples = 2\nvalue = [0, 0, 2, 0, 0, 0, 0]"] ;
252 -> 254 ;
255 [label="gini = 0.0\nsamples = 1\nvalue = [0, 1, 0, 0, 0, 0, 0]"] ;
249 -> 255 ;
256 [label="X[1] <= 484267.5\ngini = 0.444\nsamples = 3\nvalue = [0, 2, 1, 0, 0, 0, 0]"] ;
248 -> 256 ;
257 [label="gini = 0.0\nsamples = 2\nvalue = [0, 2, 0, 0, 0, 0, 0]"] ;
256 -> 257 ;
258 [label="gini = 0.0\nsamples = 1\nvalue = [0, 0, 1, 0, 0, 0, 0]"] ;
256 -> 258 ;
259 [label="X[12] <= 0.5\ngini = 0.5\nsamples = 2\nvalue = [1, 0, 1, 0, 0, 0, 0]"] ;
203 -> 259 ;
260 [label="gini = 0.0\nsamples = 1\nvalue = [0, 0, 1, 0, 0, 0, 0]"] ;
259 -> 260 ;
261 [label="gini = 0.0\nsamples = 1\nvalue = [1, 0, 0, 0, 0, 0, 0]"] ;
259 -> 261 ;
262 [label="X[5] <= 22.0\ngini = 0.33\nsamples = 423\nvalue = [9, 25, 344, 5, 22, 18, 0]"] ;
4 -> 262 ;
263 [label="X[17] <= 0.5\ngini = 0.598\nsamples = 19\nvalue = [0, 2, 11, 0, 4, 2, 0]"] ;
262 -> 263 ;
264 [label="X[0] <= 37.5\ngini = 0.54\nsamples = 17\nvalue = [0, 2, 11, 0, 2, 2, 0]"] ;
263 -> 264 ;
265 [label="X[15] <= 0.5\ngini = 0.292\nsamples = 12\nvalue = [0, 0, 10, 0, 1, 1, 0]"] ;
264 -> 265 ;
266 [label="X[8] <= 0.5\ngini = 0.18\nsamples = 10\nvalue = [0, 0, 9, 0, 0, 1, 0]"] ;
265 -> 266 ;
267 [label="gini = 0.0\nsamples = 7\nvalue = [0, 0, 7, 0, 0, 0, 0]"] ;
266 -> 267 ;
268 [label="X[0] <= 36.0\ngini = 0.444\nsamples = 3\nvalue = [0, 0, 2, 0, 0, 1, 0]"] ;
266 -> 268 ;
269 [label="gini = 0.0\nsamples = 2\nvalue = [0, 0, 2, 0, 0, 0, 0]"] ;
268 -> 269 ;
270 [label="gini = 0.0\nsamples = 1\nvalue = [0, 0, 0, 0, 0, 1, 0]"] ;
268 -> 270 ;
271 [label="X[2] <= 10.0\ngini = 0.5\nsamples = 2\nvalue = [0, 0, 1, 0, 1, 0, 0]"] ;
265 -> 271 ;
272 [label="gini = 0.0\nsamples = 1\nvalue = [0, 0, 1, 0, 0, 0, 0]"] ;
271 -> 272 ;
273 [label="gini = 0.0\nsamples = 1\nvalue = [0, 0, 0, 0, 1, 0, 0]"] ;
271 -> 273 ;
274 [label="X[23] <= 0.5\ngini = 0.72\nsamples = 5\nvalue = [0, 2, 1, 0, 1, 1, 0]"] ;
264 -> 274 ;
275 [label="X[0] <= 38.5\ngini = 0.444\nsamples = 3\nvalue = [0, 2, 0, 0, 1, 0, 0]"] ;
274 -> 275 ;
276 [label="gini = 0.0\nsamples = 2\nvalue = [0, 2, 0, 0, 0, 0, 0]"] ;
275 -> 276 ;
277 [label="gini = 0.0\nsamples = 1\nvalue = [0, 0, 0, 0, 1, 0, 0]"] ;
275 -> 277 ;
278 [label="X[2] <= 9.5\ngini = 0.5\nsamples = 2\nvalue = [0, 0, 1, 0, 0, 1, 0]"] ;
274 -> 278 ;
279 [label="gini = 0.0\nsamples = 1\nvalue = [0, 0, 0, 0, 0, 1, 0]"] ;
278 -> 279 ;
280 [label="gini = 0.0\nsamples = 1\nvalue = [0, 0, 1, 0, 0, 0, 0]"] ;
278 -> 280 ;
281 [label="gini = 0.0\nsamples = 2\nvalue = [0, 0, 0, 0, 2, 0, 0]"] ;
263 -> 281 ;
282 [label="X[3] <= 14684.0\ngini = 0.313\nsamples = 404\nvalue = [9, 23, 333, 5, 18, 16, 0]"] ;
262 -> 282 ;
283 [label="X[1] <= 55537.0\ngini = 0.31\nsamples = 403\nvalue = [9, 22, 333, 5, 18, 16, 0]"] ;
282 -> 283 ;
284 [label="X[6] <= 0.5\ngini = 0.514\nsamples = 24\nvalue = [0, 2, 16, 2, 4, 0, 0]"] ;
283 -> 284 ;
285 [label="X[3] <= 3844.0\ngini = 0.345\nsamples = 20\nvalue = [0, 1, 16, 1, 2, 0, 0]"] ;
284 -> 285 ;
286 [label="X[1] <= 52438.0\ngini = 0.283\nsamples = 19\nvalue = [0, 1, 16, 1, 1, 0, 0]"] ;
285 -> 286 ;
287 [label="X[18] <= 0.5\ngini = 0.215\nsamples = 17\nvalue = [0, 1, 15, 0, 1, 0, 0]"] ;
286 -> 287 ;
288 [label="X[0] <= 36.5\ngini = 0.124\nsamples = 15\nvalue = [0, 0, 14, 0, 1, 0, 0]"] ;
287 -> 288 ;
289 [label="gini = 0.0\nsamples = 9\nvalue = [0, 0, 9, 0, 0, 0, 0]"] ;
288 -> 289 ;
290 [label="X[1] <= 32576.5\ngini = 0.278\nsamples = 6\nvalue = [0, 0, 5, 0, 1, 0, 0]"] ;
288 -> 290 ;
291 [label="X[1] <= 30393.5\ngini = 0.5\nsamples = 2\nvalue = [0, 0, 1, 0, 1, 0, 0]"] ;
290 -> 291 ;
292 [label="gini = 0.0\nsamples = 1\nvalue = [0, 0, 1, 0, 0, 0, 0]"] ;
291 -> 292 ;
293 [label="gini = 0.0\nsamples = 1\nvalue = [0, 0, 0, 0, 1, 0, 0]"] ;
291 -> 293 ;
294 [label="gini = 0.0\nsamples = 4\nvalue = [0, 0, 4, 0, 0, 0, 0]"] ;
290 -> 294 ;
295 [label="X[1] <= 26911.5\ngini = 0.5\nsamples = 2\nvalue = [0, 1, 1, 0, 0, 0, 0]"] ;
287 -> 295 ;
296 [label="gini = 0.0\nsamples = 1\nvalue = [0, 0, 1, 0, 0, 0, 0]"] ;
295 -> 296 ;
297 [label="gini = 0.0\nsamples = 1\nvalue = [0, 1, 0, 0, 0, 0, 0]"] ;
295 -> 297 ;
298 [label="X[5] <= 39.0\ngini = 0.5\nsamples = 2\nvalue = [0, 0, 1, 1, 0, 0, 0]"] ;
286 -> 298 ;
299 [label="gini = 0.0\nsamples = 1\nvalue = [0, 0, 0, 1, 0, 0, 0]"] ;
298 -> 299 ;
300 [label="gini = 0.0\nsamples = 1\nvalue = [0, 0, 1, 0, 0, 0, 0]"] ;
298 -> 300 ;
301 [label="gini = 0.0\nsamples = 1\nvalue = [0, 0, 0, 0, 1, 0, 0]"] ;
285 -> 301 ;
302 [label="X[5] <= 37.5\ngini = 0.625\nsamples = 4\nvalue = [0, 1, 0, 1, 2, 0, 0]"] ;
284 -> 302 ;
303 [label="gini = 0.0\nsamples = 2\nvalue = [0, 0, 0, 0, 2, 0, 0]"] ;
302 -> 303 ;
304 [label="X[1] <= 40204.0\ngini = 0.5\nsamples = 2\nvalue = [0, 1, 0, 1, 0, 0, 0]"] ;
302 -> 304 ;
305 [label="gini = 0.0\nsamples = 1\nvalue = [0, 0, 0, 1, 0, 0, 0]"] ;
304 -> 305 ;
306 [label="gini = 0.0\nsamples = 1\nvalue = [0, 1, 0, 0, 0, 0, 0]"] ;
304 -> 306 ;
307 [label="X[1] <= 261773.0\ngini = 0.294\nsamples = 379\nvalue = [9, 20, 317, 3, 14, 16, 0]"] ;
283 -> 307 ;
308 [label="X[2] <= 9.5\ngini = 0.256\nsamples = 299\nvalue = [6, 15, 257, 3, 7, 11, 0]"] ;
307 -> 308 ;
309 [label="X[10] <= 0.5\ngini = 0.199\nsamples = 197\nvalue = [3, 7, 176, 1, 5, 5, 0]"] ;
308 -> 309 ;
310 [label="X[1] <= 190288.0\ngini = 0.175\nsamples = 183\nvalue = [2, 7, 166, 1, 3, 4, 0]"] ;
309 -> 310 ;
311 [label="X[1] <= 189801.0\ngini = 0.218\nsamples = 127\nvalue = [2, 7, 112, 1, 2, 3, 0]"] ;
310 -> 311 ;
312 [label="X[12] <= 0.5\ngini = 0.194\nsamples = 125\nvalue = [2, 5, 112, 1, 2, 3, 0]"] ;
311 -> 312 ;
313 [label="X[15] <= 0.5\ngini = 0.103\nsamples = 75\nvalue = [1, 2, 71, 0, 0, 1, 0]"] ;
312 -> 313 ;
314 [label="X[1] <= 62434.0\ngini = 0.033\nsamples = 59\nvalue = [0, 0, 58, 0, 0, 1, 0]"] ;
313 -> 314 ;
315 [label="X[1] <= 61369.5\ngini = 0.375\nsamples = 4\nvalue = [0, 0, 3, 0, 0, 1, 0]"] ;
314 -> 315 ;
316 [label="gini = 0.0\nsamples = 3\nvalue = [0, 0, 3, 0, 0, 0, 0]"] ;
315 -> 316 ;
317 [label="gini = 0.0\nsamples = 1\nvalue = [0, 0, 0, 0, 0, 1, 0]"] ;
315 -> 317 ;
318 [label="gini = 0.0\nsamples = 55\nvalue = [0, 0, 55, 0, 0, 0, 0]"] ;
314 -> 318 ;
319 [label="X[0] <= 31.5\ngini = 0.32\nsamples = 16\nvalue = [1, 2, 13, 0, 0, 0, 0]"] ;
313 -> 319 ;
320 [label="gini = 0.0\nsamples = 1\nvalue = [1, 0, 0, 0, 0, 0, 0]"] ;
319 -> 320 ;
321 [label="X[0] <= 39.5\ngini = 0.231\nsamples = 15\nvalue = [0, 2, 13, 0, 0, 0, 0]"] ;
319 -> 321 ;
322 [label="X[1] <= 166628.0\ngini = 0.133\nsamples = 14\nvalue = [0, 1, 13, 0, 0, 0, 0]"] ;
321 -> 322 ;
323 [label="gini = 0.0\nsamples = 10\nvalue = [0, 0, 10, 0, 0, 0, 0]"] ;
322 -> 323 ;
324 [label="X[1] <= 169203.5\ngini = 0.375\nsamples = 4\nvalue = [0, 1, 3, 0, 0, 0, 0]"] ;
322 -> 324 ;
325 [label="gini = 0.0\nsamples = 1\nvalue = [0, 1, 0, 0, 0, 0, 0]"] ;
324 -> 325 ;
326 [label="gini = 0.0\nsamples = 3\nvalue = [0, 0, 3, 0, 0, 0, 0]"] ;
324 -> 326 ;
327 [label="gini = 0.0\nsamples = 1\nvalue = [0, 1, 0, 0, 0, 0, 0]"] ;
321 -> 327 ;
328 [label="X[2] <= 8.0\ngini = 0.32\nsamples = 50\nvalue = [1, 3, 41, 1, 2, 2, 0]"] ;
312 -> 328 ;
329 [label="X[22] <= 0.5\ngini = 0.133\nsamples = 14\nvalue = [1, 0, 13, 0, 0, 0, 0]"] ;
328 -> 329 ;
330 [label="X[0] <= 33.5\ngini = 0.5\nsamples = 2\nvalue = [1, 0, 1, 0, 0, 0, 0]"] ;
329 -> 330 ;
331 [label="gini = 0.0\nsamples = 1\nvalue = [0, 0, 1, 0, 0, 0, 0]"] ;
330 -> 331 ;
332 [label="gini = 0.0\nsamples = 1\nvalue = [1, 0, 0, 0, 0, 0, 0]"] ;
330 -> 332 ;
333 [label="gini = 0.0\nsamples = 12\nvalue = [0, 0, 12, 0, 0, 0, 0]"] ;
329 -> 333 ;
334 [label="X[1] <= 175708.5\ngini = 0.381\nsamples = 36\nvalue = [0, 3, 28, 1, 2, 2, 0]"] ;
328 -> 334 ;
335 [label="X[1] <= 106068.0\ngini = 0.296\nsamples = 30\nvalue = [0, 2, 25, 1, 0, 2, 0]"] ;
334 -> 335 ;
336 [label="gini = 0.0\nsamples = 10\nvalue = [0, 0, 10, 0, 0, 0, 0]"] ;
335 -> 336 ;
337 [label="X[1] <= 110376.0\ngini = 0.415\nsamples = 20\nvalue = [0, 2, 15, 1, 0, 2, 0]"] ;
335 -> 337 ;
338 [label="gini = 0.0\nsamples = 1\nvalue = [0, 1, 0, 0, 0, 0, 0]"] ;
337 -> 338 ;
339 [label="X[1] <= 145928.5\ngini = 0.36\nsamples = 19\nvalue = [0, 1, 15, 1, 0, 2, 0]"] ;
337 -> 339 ;
340 [label="X[1] <= 140058.0\ngini = 0.494\nsamples = 9\nvalue = [0, 1, 6, 0, 0, 2, 0]"] ;
339 -> 340 ;
341 [label="X[0] <= 31.5\ngini = 0.245\nsamples = 7\nvalue = [0, 0, 6, 0, 0, 1, 0]"] ;
340 -> 341 ;
342 [label="gini = 0.0\nsamples = 1\nvalue = [0, 0, 0, 0, 0, 1, 0]"] ;
341 -> 342 ;
343 [label="gini = 0.0\nsamples = 6\nvalue = [0, 0, 6, 0, 0, 0, 0]"] ;
341 -> 343 ;
344 [label="X[1] <= 142850.5\ngini = 0.5\nsamples = 2\nvalue = [0, 1, 0, 0, 0, 1, 0]"] ;
340 -> 344 ;
345 [label="gini = 0.0\nsamples = 1\nvalue = [0, 0, 0, 0, 0, 1, 0]"] ;
344 -> 345 ;
346 [label="gini = 0.0\nsamples = 1\nvalue = [0, 1, 0, 0, 0, 0, 0]"] ;
344 -> 346 ;
347 [label="X[0] <= 36.5\ngini = 0.18\nsamples = 10\nvalue = [0, 0, 9, 1, 0, 0, 0]"] ;
339 -> 347 ;
348 [label="gini = 0.0\nsamples = 7\nvalue = [0, 0, 7, 0, 0, 0, 0]"] ;
347 -> 348 ;
349 [label="X[26] <= 0.5\ngini = 0.444\nsamples = 3\nvalue = [0, 0, 2, 1, 0, 0, 0]"] ;
347 -> 349 ;
350 [label="gini = 0.0\nsamples = 1\nvalue = [0, 0, 0, 1, 0, 0, 0]"] ;
349 -> 350 ;
351 [label="gini = 0.0\nsamples = 2\nvalue = [0, 0, 2, 0, 0, 0, 0]"] ;
349 -> 351 ;
352 [label="X[0] <= 38.5\ngini = 0.611\nsamples = 6\nvalue = [0, 1, 3, 0, 2, 0, 0]"] ;
334 -> 352 ;
353 [label="X[1] <= 176683.0\ngini = 0.48\nsamples = 5\nvalue = [0, 0, 3, 0, 2, 0, 0]"] ;
352 -> 353 ;
354 [label="gini = 0.0\nsamples = 1\nvalue = [0, 0, 0, 0, 1, 0, 0]"] ;
353 -> 354 ;
355 [label="X[0] <= 37.5\ngini = 0.375\nsamples = 4\nvalue = [0, 0, 3, 0, 1, 0, 0]"] ;
353 -> 355 ;
356 [label="gini = 0.0\nsamples = 3\nvalue = [0, 0, 3, 0, 0, 0, 0]"] ;
355 -> 356 ;
357 [label="gini = 0.0\nsamples = 1\nvalue = [0, 0, 0, 0, 1, 0, 0]"] ;
355 -> 357 ;
358 [label="gini = 0.0\nsamples = 1\nvalue = [0, 1, 0, 0, 0, 0, 0]"] ;
352 -> 358 ;
359 [label="gini = 0.0\nsamples = 2\nvalue = [0, 2, 0, 0, 0, 0, 0]"] ;
311 -> 359 ;
360 [label="X[16] <= 0.5\ngini = 0.07\nsamples = 56\nvalue = [0, 0, 54, 0, 1, 1, 0]"] ;
310 -> 360 ;
361 [label="X[0] <= 31.5\ngini = 0.04\nsamples = 49\nvalue = [0, 0, 48, 0, 1, 0, 0]"] ;
360 -> 361 ;
362 [label="X[25] <= 0.5\ngini = 0.18\nsamples = 10\nvalue = [0, 0, 9, 0, 1, 0, 0]"] ;
361 -> 362 ;
363 [label="gini = 0.0\nsamples = 1\nvalue = [0, 0, 0, 0, 1, 0, 0]"] ;
362 -> 363 ;
364 [label="gini = 0.0\nsamples = 9\nvalue = [0, 0, 9, 0, 0, 0, 0]"] ;
362 -> 364 ;
365 [label="gini = 0.0\nsamples = 39\nvalue = [0, 0, 39, 0, 0, 0, 0]"] ;
361 -> 365 ;
366 [label="X[20] <= 0.5\ngini = 0.245\nsamples = 7\nvalue = [0, 0, 6, 0, 0, 1, 0]"] ;
360 -> 366 ;
367 [label="X[0] <= 37.0\ngini = 0.444\nsamples = 3\nvalue = [0, 0, 2, 0, 0, 1, 0]"] ;
366 -> 367 ;
368 [label="gini = 0.0\nsamples = 1\nvalue = [0, 0, 0, 0, 0, 1, 0]"] ;
367 -> 368 ;
369 [label="gini = 0.0\nsamples = 2\nvalue = [0, 0, 2, 0, 0, 0, 0]"] ;
367 -> 369 ;
370 [label="gini = 0.0\nsamples = 4\nvalue = [0, 0, 4, 0, 0, 0, 0]"] ;
366 -> 370 ;
371 [label="X[1] <= 131530.0\ngini = 0.459\nsamples = 14\nvalue = [1, 0, 10, 0, 2, 1, 0]"] ;
309 -> 371 ;
372 [label="gini = 0.0\nsamples = 6\nvalue = [0, 0, 6, 0, 0, 0, 0]"] ;
371 -> 372 ;
373 [label="X[1] <= 145715.0\ngini = 0.656\nsamples = 8\nvalue = [1, 0, 4, 0, 2, 1, 0]"] ;
371 -> 373 ;
374 [label="gini = 0.0\nsamples = 1\nvalue = [0, 0, 0, 0, 0, 1, 0]"] ;
373 -> 374 ;
375 [label="X[1] <= 165167.5\ngini = 0.571\nsamples = 7\nvalue = [1, 0, 4, 0, 2, 0, 0]"] ;
373 -> 375 ;
376 [label="gini = 0.0\nsamples = 1\nvalue = [0, 0, 0, 0, 1, 0, 0]"] ;
375 -> 376 ;
377 [label="X[24] <= 0.5\ngini = 0.5\nsamples = 6\nvalue = [1, 0, 4, 0, 1, 0, 0]"] ;
375 -> 377 ;
378 [label="X[1] <= 222248.5\ngini = 0.667\nsamples = 3\nvalue = [1, 0, 1, 0, 1, 0, 0]"] ;
377 -> 378 ;
379 [label="gini = 0.0\nsamples = 1\nvalue = [1, 0, 0, 0, 0, 0, 0]"] ;
378 -> 379 ;
380 [label="X[1] <= 238142.0\ngini = 0.5\nsamples = 2\nvalue = [0, 0, 1, 0, 1, 0, 0]"] ;
378 -> 380 ;
381 [label="gini = 0.0\nsamples = 1\nvalue = [0, 0, 0, 0, 1, 0, 0]"] ;
380 -> 381 ;
382 [label="gini = 0.0\nsamples = 1\nvalue = [0, 0, 1, 0, 0, 0, 0]"] ;
380 -> 382 ;
383 [label="gini = 0.0\nsamples = 3\nvalue = [0, 0, 3, 0, 0, 0, 0]"] ;
377 -> 383 ;
384 [label="X[8] <= 0.5\ngini = 0.358\nsamples = 102\nvalue = [3, 8, 81, 2, 2, 6, 0]"] ;
308 -> 384 ;
385 [label="X[1] <= 185957.0\ngini = 0.347\nsamples = 101\nvalue = [3, 7, 81, 2, 2, 6, 0]"] ;
384 -> 385 ;
386 [label="X[17] <= 0.5\ngini = 0.439\nsamples = 68\nvalue = [2, 7, 50, 1, 2, 6, 0]"] ;
385 -> 386 ;
387 [label="X[1] <= 185648.5\ngini = 0.405\nsamples = 66\nvalue = [1, 7, 50, 0, 2, 6, 0]"] ;
386 -> 387 ;
388 [label="X[5] <= 37.5\ngini = 0.39\nsamples = 65\nvalue = [1, 6, 50, 0, 2, 6, 0]"] ;
387 -> 388 ;
389 [label="X[1] <= 99076.0\ngini = 0.594\nsamples = 8\nvalue = [0, 1, 4, 0, 0, 3, 0]"] ;
388 -> 389 ;
390 [label="gini = 0.0\nsamples = 3\nvalue = [0, 0, 3, 0, 0, 0, 0]"] ;
389 -> 390 ;
391 [label="X[1] <= 119469.0\ngini = 0.56\nsamples = 5\nvalue = [0, 1, 1, 0, 0, 3, 0]"] ;
389 -> 391 ;
392 [label="gini = 0.0\nsamples = 1\nvalue = [0, 1, 0, 0, 0, 0, 0]"] ;
391 -> 392 ;
393 [label="X[15] <= 0.5\ngini = 0.375\nsamples = 4\nvalue = [0, 0, 1, 0, 0, 3, 0]"] ;
391 -> 393 ;
394 [label="gini = 0.0\nsamples = 3\nvalue = [0, 0, 0, 0, 0, 3, 0]"] ;
393 -> 394 ;
395 [label="gini = 0.0\nsamples = 1\nvalue = [0, 0, 1, 0, 0, 0, 0]"] ;
393 -> 395 ;
396 [label="X[15] <= 0.5\ngini = 0.337\nsamples = 57\nvalue = [1, 5, 46, 0, 2, 3, 0]"] ;
388 -> 396 ;
397 [label="X[0] <= 32.5\ngini = 0.259\nsamples = 49\nvalue = [1, 3, 42, 0, 1, 2, 0]"] ;
396 -> 397 ;
398 [label="X[23] <= 0.5\ngini = 0.444\nsamples = 6\nvalue = [0, 0, 4, 0, 0, 2, 0]"] ;
397 -> 398 ;
399 [label="gini = 0.0\nsamples = 4\nvalue = [0, 0, 4, 0, 0, 0, 0]"] ;
398 -> 399 ;
400 [label="gini = 0.0\nsamples = 2\nvalue = [0, 0, 0, 0, 0, 2, 0]"] ;
398 -> 400 ;
401 [label="X[14] <= 0.5\ngini = 0.213\nsamples = 43\nvalue = [1, 3, 38, 0, 1, 0, 0]"] ;
397 -> 401 ;
402 [label="X[18] <= 0.5\ngini = 0.18\nsamples = 41\nvalue = [0, 3, 37, 0, 1, 0, 0]"] ;
401 -> 402 ;
403 [label="X[1] <= 180087.5\ngini = 0.145\nsamples = 39\nvalue = [0, 2, 36, 0, 1, 0, 0]"] ;
402 -> 403 ;
404 [label="X[12] <= 0.5\ngini = 0.105\nsamples = 36\nvalue = [0, 2, 34, 0, 0, 0, 0]"] ;
403 -> 404 ;
405 [label="gini = 0.0\nsamples = 17\nvalue = [0, 0, 17, 0, 0, 0, 0]"] ;
404 -> 405 ;
406 [label="X[1] <= 113078.5\ngini = 0.188\nsamples = 19\nvalue = [0, 2, 17, 0, 0, 0, 0]"] ;
404 -> 406 ;
407 [label="gini = 0.0\nsamples = 10\nvalue = [0, 0, 10, 0, 0, 0, 0]"] ;
406 -> 407 ;
408 [label="X[1] <= 116217.5\ngini = 0.346\nsamples = 9\nvalue = [0, 2, 7, 0, 0, 0, 0]"] ;
406 -> 408 ;
409 [label="gini = 0.0\nsamples = 1\nvalue = [0, 1, 0, 0, 0, 0, 0]"] ;
408 -> 409 ;
410 [label="X[1] <= 147731.0\ngini = 0.219\nsamples = 8\nvalue = [0, 1, 7, 0, 0, 0, 0]"] ;
408 -> 410 ;
411 [label="X[1] <= 134432.5\ngini = 0.444\nsamples = 3\nvalue = [0, 1, 2, 0, 0, 0, 0]"] ;
410 -> 411 ;
412 [label="gini = 0.0\nsamples = 2\nvalue = [0, 0, 2, 0, 0, 0, 0]"] ;
411 -> 412 ;
413 [label="gini = 0.0\nsamples = 1\nvalue = [0, 1, 0, 0, 0, 0, 0]"] ;
411 -> 413 ;
414 [label="gini = 0.0\nsamples = 5\nvalue = [0, 0, 5, 0, 0, 0, 0]"] ;
410 -> 414 ;
415 [label="X[1] <= 181089.0\ngini = 0.444\nsamples = 3\nvalue = [0, 0, 2, 0, 1, 0, 0]"] ;
403 -> 415 ;
416 [label="gini = 0.0\nsamples = 1\nvalue = [0, 0, 0, 0, 1, 0, 0]"] ;
415 -> 416 ;
417 [label="gini = 0.0\nsamples = 2\nvalue = [0, 0, 2, 0, 0, 0, 0]"] ;
415 -> 417 ;
418 [label="X[1] <= 124373.5\ngini = 0.5\nsamples = 2\nvalue = [0, 1, 1, 0, 0, 0, 0]"] ;
402 -> 418 ;
419 [label="gini = 0.0\nsamples = 1\nvalue = [0, 1, 0, 0, 0, 0, 0]"] ;
418 -> 419 ;
420 [label="gini = 0.0\nsamples = 1\nvalue = [0, 0, 1, 0, 0, 0, 0]"] ;
418 -> 420 ;
421 [label="X[1] <= 108020.0\ngini = 0.5\nsamples = 2\nvalue = [1, 0, 1, 0, 0, 0, 0]"] ;
401 -> 421 ;
422 [label="gini = 0.0\nsamples = 1\nvalue = [0, 0, 1, 0, 0, 0, 0]"] ;
421 -> 422 ;
423 [label="gini = 0.0\nsamples = 1\nvalue = [1, 0, 0, 0, 0, 0, 0]"] ;
421 -> 423 ;
424 [label="X[0] <= 33.5\ngini = 0.656\nsamples = 8\nvalue = [0, 2, 4, 0, 1, 1, 0]"] ;
396 -> 424 ;
425 [label="gini = 0.0\nsamples = 4\nvalue = [0, 0, 4, 0, 0, 0, 0]"] ;
424 -> 425 ;
426 [label="X[1] <= 151979.0\ngini = 0.625\nsamples = 4\nvalue = [0, 2, 0, 0, 1, 1, 0]"] ;
424 -> 426 ;
427 [label="X[10] <= 0.5\ngini = 0.444\nsamples = 3\nvalue = [0, 2, 0, 0, 0, 1, 0]"] ;
426 -> 427 ;
428 [label="gini = 0.0\nsamples = 2\nvalue = [0, 2, 0, 0, 0, 0, 0]"] ;
427 -> 428 ;
429 [label="gini = 0.0\nsamples = 1\nvalue = [0, 0, 0, 0, 0, 1, 0]"] ;
427 -> 429 ;
430 [label="gini = 0.0\nsamples = 1\nvalue = [0, 0, 0, 0, 1, 0, 0]"] ;
426 -> 430 ;
431 [label="gini = 0.0\nsamples = 1\nvalue = [0, 1, 0, 0, 0, 0, 0]"] ;
387 -> 431 ;
432 [label="X[1] <= 114017.0\ngini = 0.5\nsamples = 2\nvalue = [1, 0, 0, 1, 0, 0, 0]"] ;
386 -> 432 ;
433 [label="gini = 0.0\nsamples = 1\nvalue = [0, 0, 0, 1, 0, 0, 0]"] ;
432 -> 433 ;
434 [label="gini = 0.0\nsamples = 1\nvalue = [1, 0, 0, 0, 0, 0, 0]"] ;
432 -> 434 ;
435 [label="X[5] <= 44.5\ngini = 0.116\nsamples = 33\nvalue = [1, 0, 31, 1, 0, 0, 0]"] ;
385 -> 435 ;
436 [label="X[0] <= 38.5\ngini = 0.067\nsamples = 29\nvalue = [1, 0, 28, 0, 0, 0, 0]"] ;
435 -> 436 ;
437 [label="gini = 0.0\nsamples = 24\nvalue = [0, 0, 24, 0, 0, 0, 0]"] ;
436 -> 437 ;
438 [label="X[25] <= 0.5\ngini = 0.32\nsamples = 5\nvalue = [1, 0, 4, 0, 0, 0, 0]"] ;
436 -> 438 ;
439 [label="gini = 0.0\nsamples = 1\nvalue = [1, 0, 0, 0, 0, 0, 0]"] ;
438 -> 439 ;
440 [label="gini = 0.0\nsamples = 4\nvalue = [0, 0, 4, 0, 0, 0, 0]"] ;
438 -> 440 ;
441 [label="X[17] <= 0.5\ngini = 0.375\nsamples = 4\nvalue = [0, 0, 3, 1, 0, 0, 0]"] ;
435 -> 441 ;
442 [label="gini = 0.0\nsamples = 3\nvalue = [0, 0, 3, 0, 0, 0, 0]"] ;
441 -> 442 ;
443 [label="gini = 0.0\nsamples = 1\nvalue = [0, 0, 0, 1, 0, 0, 0]"] ;
441 -> 443 ;
444 [label="gini = 0.0\nsamples = 1\nvalue = [0, 1, 0, 0, 0, 0, 0]"] ;
384 -> 444 ;
445 [label="X[0] <= 34.5\ngini = 0.421\nsamples = 80\nvalue = [3, 5, 60, 0, 7, 5, 0]"] ;
307 -> 445 ;
446 [label="X[5] <= 43.5\ngini = 0.602\nsamples = 32\nvalue = [2, 3, 19, 0, 5, 3, 0]"] ;
445 -> 446 ;
447 [label="X[15] <= 0.5\ngini = 0.564\nsamples = 30\nvalue = [2, 3, 19, 0, 3, 3, 0]"] ;
446 -> 447 ;
448 [label="X[5] <= 33.5\ngini = 0.494\nsamples = 26\nvalue = [2, 1, 18, 0, 3, 2, 0]"] ;
447 -> 448 ;
449 [label="gini = 0.0\nsamples = 1\nvalue = [0, 0, 0, 0, 1, 0, 0]"] ;
448 -> 449 ;
450 [label="X[2] <= 6.5\ngini = 0.461\nsamples = 25\nvalue = [2, 1, 18, 0, 2, 2, 0]"] ;
448 -> 450 ;
451 [label="X[12] <= 0.5\ngini = 0.667\nsamples = 3\nvalue = [0, 0, 1, 0, 1, 1, 0]"] ;
450 -> 451 ;
452 [label="gini = 0.0\nsamples = 1\nvalue = [0, 0, 1, 0, 0, 0, 0]"] ;
451 -> 452 ;
453 [label="X[2] <= 5.5\ngini = 0.5\nsamples = 2\nvalue = [0, 0, 0, 0, 1, 1, 0]"] ;
451 -> 453 ;
454 [label="gini = 0.0\nsamples = 1\nvalue = [0, 0, 0, 0, 1, 0, 0]"] ;
453 -> 454 ;
455 [label="gini = 0.0\nsamples = 1\nvalue = [0, 0, 0, 0, 0, 1, 0]"] ;
453 -> 455 ;
456 [label="X[17] <= 0.5\ngini = 0.388\nsamples = 22\nvalue = [2, 1, 17, 0, 1, 1, 0]"] ;
450 -> 456 ;
457 [label="X[1] <= 325632.5\ngini = 0.296\nsamples = 18\nvalue = [0, 1, 15, 0, 1, 1, 0]"] ;
456 -> 457 ;
458 [label="gini = 0.0\nsamples = 8\nvalue = [0, 0, 8, 0, 0, 0, 0]"] ;
457 -> 458 ;
459 [label="X[1] <= 335930.5\ngini = 0.48\nsamples = 10\nvalue = [0, 1, 7, 0, 1, 1, 0]"] ;
457 -> 459 ;
460 [label="gini = 0.0\nsamples = 1\nvalue = [0, 0, 0, 0, 0, 1, 0]"] ;
459 -> 460 ;
461 [label="X[13] <= 0.5\ngini = 0.37\nsamples = 9\nvalue = [0, 1, 7, 0, 1, 0, 0]"] ;
459 -> 461 ;
462 [label="X[2] <= 9.5\ngini = 0.219\nsamples = 8\nvalue = [0, 1, 7, 0, 0, 0, 0]"] ;
461 -> 462 ;
463 [label="gini = 0.0\nsamples = 6\nvalue = [0, 0, 6, 0, 0, 0, 0]"] ;
462 -> 463 ;
464 [label="X[26] <= 0.5\ngini = 0.5\nsamples = 2\nvalue = [0, 1, 1, 0, 0, 0, 0]"] ;
462 -> 464 ;
465 [label="gini = 0.0\nsamples = 1\nvalue = [0, 1, 0, 0, 0, 0, 0]"] ;
464 -> 465 ;
466 [label="gini = 0.0\nsamples = 1\nvalue = [0, 0, 1, 0, 0, 0, 0]"] ;
464 -> 466 ;
467 [label="gini = 0.0\nsamples = 1\nvalue = [0, 0, 0, 0, 1, 0, 0]"] ;
461 -> 467 ;
468 [label="X[3] <= 2032.0\ngini = 0.5\nsamples = 4\nvalue = [2, 0, 2, 0, 0, 0, 0]"] ;
456 -> 468 ;
469 [label="X[7] <= 0.5\ngini = 0.444\nsamples = 3\nvalue = [1, 0, 2, 0, 0, 0, 0]"] ;
468 -> 469 ;
470 [label="gini = 0.0\nsamples = 1\nvalue = [1, 0, 0, 0, 0, 0, 0]"] ;
469 -> 470 ;
471 [label="gini = 0.0\nsamples = 2\nvalue = [0, 0, 2, 0, 0, 0, 0]"] ;
469 -> 471 ;
472 [label="gini = 0.0\nsamples = 1\nvalue = [1, 0, 0, 0, 0, 0, 0]"] ;
468 -> 472 ;
473 [label="X[20] <= 0.5\ngini = 0.625\nsamples = 4\nvalue = [0, 2, 1, 0, 0, 1, 0]"] ;
447 -> 473 ;
474 [label="gini = 0.0\nsamples = 2\nvalue = [0, 2, 0, 0, 0, 0, 0]"] ;
473 -> 474 ;
475 [label="X[5] <= 37.5\ngini = 0.5\nsamples = 2\nvalue = [0, 0, 1, 0, 0, 1, 0]"] ;
473 -> 475 ;
476 [label="gini = 0.0\nsamples = 1\nvalue = [0, 0, 0, 0, 0, 1, 0]"] ;
475 -> 476 ;
477 [label="gini = 0.0\nsamples = 1\nvalue = [0, 0, 1, 0, 0, 0, 0]"] ;
475 -> 477 ;
478 [label="gini = 0.0\nsamples = 2\nvalue = [0, 0, 0, 0, 2, 0, 0]"] ;
446 -> 478 ;
479 [label="X[7] <= 0.5\ngini = 0.265\nsamples = 48\nvalue = [1, 2, 41, 0, 2, 2, 0]"] ;
445 -> 479 ;
480 [label="X[10] <= 0.5\ngini = 0.14\nsamples = 27\nvalue = [1, 1, 25, 0, 0, 0, 0]"] ;
479 -> 480 ;
481 [label="X[1] <= 406499.0\ngini = 0.083\nsamples = 23\nvalue = [1, 0, 22, 0, 0, 0, 0]"] ;
480 -> 481 ;
482 [label="gini = 0.0\nsamples = 20\nvalue = [0, 0, 20, 0, 0, 0, 0]"] ;
481 -> 482 ;
483 [label="X[1] <= 440195.0\ngini = 0.444\nsamples = 3\nvalue = [1, 0, 2, 0, 0, 0, 0]"] ;
481 -> 483 ;
484 [label="gini = 0.0\nsamples = 1\nvalue = [1, 0, 0, 0, 0, 0, 0]"] ;
483 -> 484 ;
485 [label="gini = 0.0\nsamples = 2\nvalue = [0, 0, 2, 0, 0, 0, 0]"] ;
483 -> 485 ;
486 [label="X[22] <= 0.5\ngini = 0.375\nsamples = 4\nvalue = [0, 1, 3, 0, 0, 0, 0]"] ;
480 -> 486 ;
487 [label="gini = 0.0\nsamples = 3\nvalue = [0, 0, 3, 0, 0, 0, 0]"] ;
486 -> 487 ;
488 [label="gini = 0.0\nsamples = 1\nvalue = [0, 1, 0, 0, 0, 0, 0]"] ;
486 -> 488 ;
489 [label="X[0] <= 38.5\ngini = 0.399\nsamples = 21\nvalue = [0, 1, 16, 0, 2, 2, 0]"] ;
479 -> 489 ;
490 [label="X[2] <= 5.0\ngini = 0.541\nsamples = 14\nvalue = [0, 1, 9, 0, 2, 2, 0]"] ;
489 -> 490 ;
491 [label="gini = 0.0\nsamples = 1\nvalue = [0, 0, 0, 0, 1, 0, 0]"] ;
490 -> 491 ;
492 [label="X[0] <= 36.5\ngini = 0.485\nsamples = 13\nvalue = [0, 1, 9, 0, 1, 2, 0]"] ;
490 -> 492 ;
493 [label="X[3] <= 1442.5\ngini = 0.625\nsamples = 4\nvalue = [0, 1, 2, 0, 1, 0, 0]"] ;
492 -> 493 ;
494 [label="X[5] <= 41.0\ngini = 0.444\nsamples = 3\nvalue = [0, 1, 2, 0, 0, 0, 0]"] ;
493 -> 494 ;
495 [label="gini = 0.0\nsamples = 2\nvalue = [0, 0, 2, 0, 0, 0, 0]"] ;
494 -> 495 ;
496 [label="gini = 0.0\nsamples = 1\nvalue = [0, 1, 0, 0, 0, 0, 0]"] ;
494 -> 496 ;
497 [label="gini = 0.0\nsamples = 1\nvalue = [0, 0, 0, 0, 1, 0, 0]"] ;
493 -> 497 ;
498 [label="X[1] <= 335264.0\ngini = 0.346\nsamples = 9\nvalue = [0, 0, 7, 0, 0, 2, 0]"] ;
492 -> 498 ;
499 [label="gini = 0.0\nsamples = 4\nvalue = [0, 0, 4, 0, 0, 0, 0]"] ;
498 -> 499 ;
500 [label="X[3] <= 1971.0\ngini = 0.48\nsamples = 5\nvalue = [0, 0, 3, 0, 0, 2, 0]"] ;
498 -> 500 ;
501 [label="X[5] <= 41.0\ngini = 0.444\nsamples = 3\nvalue = [0, 0, 1, 0, 0, 2, 0]"] ;
500 -> 501 ;
502 [label="gini = 0.0\nsamples = 2\nvalue = [0, 0, 0, 0, 0, 2, 0]"] ;
501 -> 502 ;
503 [label="gini = 0.0\nsamples = 1\nvalue = [0, 0, 1, 0, 0, 0, 0]"] ;
501 -> 503 ;
504 [label="gini = 0.0\nsamples = 2\nvalue = [0, 0, 2, 0, 0, 0, 0]"] ;
500 -> 504 ;
505 [label="gini = 0.0\nsamples = 7\nvalue = [0, 0, 7, 0, 0, 0, 0]"] ;
489 -> 505 ;
506 [label="gini = 0.0\nsamples = 1\nvalue = [0, 1, 0, 0, 0, 0, 0]"] ;
282 -> 506 ;
507 [label="X[25] <= 0.5\ngini = 0.444\nsamples = 3\nvalue = [0, 0, 0, 1, 2, 0, 0]"] ;
3 -> 507 ;
508 [label="gini = 0.0\nsamples = 1\nvalue = [0, 0, 0, 1, 0, 0, 0]"] ;
507 -> 508 ;
509 [label="gini = 0.0\nsamples = 2\nvalue = [0, 0, 0, 0, 2, 0, 0]"] ;
507 -> 509 ;
510 [label="X[1] <= 57425.0\ngini = 0.421\nsamples = 346\nvalue = [15, 28, 260, 7, 15, 21, 0]"] ;
2 -> 510 ;
511 [label="X[0] <= 39.5\ngini = 0.661\nsamples = 27\nvalue = [2, 6, 14, 1, 1, 3, 0]"] ;
510 -> 511 ;
512 [label="X[0] <= 24.5\ngini = 0.587\nsamples = 24\nvalue = [2, 6, 14, 0, 1, 1, 0]"] ;
511 -> 512 ;
513 [label="X[1] <= 38860.5\ngini = 0.667\nsamples = 6\nvalue = [1, 3, 1, 0, 0, 1, 0]"] ;
512 -> 513 ;
514 [label="gini = 0.0\nsamples = 2\nvalue = [0, 2, 0, 0, 0, 0, 0]"] ;
513 -> 514 ;
515 [label="X[24] <= 0.5\ngini = 0.75\nsamples = 4\nvalue = [1, 1, 1, 0, 0, 1, 0]"] ;
513 -> 515 ;
516 [label="X[1] <= 53115.5\ngini = 0.5\nsamples = 2\nvalue = [0, 1, 1, 0, 0, 0, 0]"] ;
515 -> 516 ;
517 [label="gini = 0.0\nsamples = 1\nvalue = [0, 0, 1, 0, 0, 0, 0]"] ;
516 -> 517 ;
518 [label="gini = 0.0\nsamples = 1\nvalue = [0, 1, 0, 0, 0, 0, 0]"] ;
516 -> 518 ;
519 [label="X[0] <= 23.5\ngini = 0.5\nsamples = 2\nvalue = [1, 0, 0, 0, 0, 1, 0]"] ;
515 -> 519 ;
520 [label="gini = 0.0\nsamples = 1\nvalue = [1, 0, 0, 0, 0, 0, 0]"] ;
519 -> 520 ;
521 [label="gini = 0.0\nsamples = 1\nvalue = [0, 0, 0, 0, 0, 1, 0]"] ;
519 -> 521 ;
522 [label="X[1] <= 41499.5\ngini = 0.444\nsamples = 18\nvalue = [1, 3, 13, 0, 1, 0, 0]"] ;
512 -> 522 ;
523 [label="gini = 0.0\nsamples = 10\nvalue = [0, 0, 10, 0, 0, 0, 0]"] ;
522 -> 523 ;
524 [label="X[5] <= 39.0\ngini = 0.688\nsamples = 8\nvalue = [1, 3, 3, 0, 1, 0, 0]"] ;
522 -> 524 ;
525 [label="X[0] <= 29.0\ngini = 0.444\nsamples = 3\nvalue = [1, 2, 0, 0, 0, 0, 0]"] ;
524 -> 525 ;
526 [label="gini = 0.0\nsamples = 1\nvalue = [1, 0, 0, 0, 0, 0, 0]"] ;
525 -> 526 ;
527 [label="gini = 0.0\nsamples = 2\nvalue = [0, 2, 0, 0, 0, 0, 0]"] ;
525 -> 527 ;
528 [label="X[24] <= 0.5\ngini = 0.56\nsamples = 5\nvalue = [0, 1, 3, 0, 1, 0, 0]"] ;
524 -> 528 ;
529 [label="gini = 0.0\nsamples = 1\nvalue = [0, 1, 0, 0, 0, 0, 0]"] ;
528 -> 529 ;
530 [label="X[2] <= 12.5\ngini = 0.375\nsamples = 4\nvalue = [0, 0, 3, 0, 1, 0, 0]"] ;
528 -> 530 ;
531 [label="gini = 0.0\nsamples = 1\nvalue = [0, 0, 0, 0, 1, 0, 0]"] ;
530 -> 531 ;
532 [label="gini = 0.0\nsamples = 3\nvalue = [0, 0, 3, 0, 0, 0, 0]"] ;
530 -> 532 ;
533 [label="X[3] <= 753.0\ngini = 0.444\nsamples = 3\nvalue = [0, 0, 0, 1, 0, 2, 0]"] ;
511 -> 533 ;
534 [label="gini = 0.0\nsamples = 2\nvalue = [0, 0, 0, 0, 0, 2, 0]"] ;
533 -> 534 ;
535 [label="gini = 0.0\nsamples = 1\nvalue = [0, 0, 0, 1, 0, 0, 0]"] ;
533 -> 535 ;
536 [label="X[2] <= 13.5\ngini = 0.393\nsamples = 319\nvalue = [13, 22, 246, 6, 14, 18, 0]"] ;
510 -> 536 ;
537 [label="X[5] <= 29.0\ngini = 0.353\nsamples = 268\nvalue = [11, 16, 214, 3, 13, 11, 0]"] ;
536 -> 537 ;
538 [label="X[20] <= 0.5\ngini = 0.593\nsamples = 30\nvalue = [1, 3, 18, 0, 4, 4, 0]"] ;
537 -> 538 ;
539 [label="X[5] <= 26.5\ngini = 0.548\nsamples = 28\nvalue = [1, 3, 18, 0, 2, 4, 0]"] ;
538 -> 539 ;
540 [label="X[1] <= 129428.0\ngini = 0.488\nsamples = 26\nvalue = [1, 2, 18, 0, 1, 4, 0]"] ;
539 -> 540 ;
541 [label="X[1] <= 115369.0\ngini = 0.48\nsamples = 5\nvalue = [0, 2, 3, 0, 0, 0, 0]"] ;
540 -> 541 ;
542 [label="gini = 0.0\nsamples = 3\nvalue = [0, 0, 3, 0, 0, 0, 0]"] ;
541 -> 542 ;
543 [label="gini = 0.0\nsamples = 2\nvalue = [0, 2, 0, 0, 0, 0, 0]"] ;
541 -> 543 ;
544 [label="X[2] <= 12.5\ngini = 0.449\nsamples = 21\nvalue = [1, 0, 15, 0, 1, 4, 0]"] ;
540 -> 544 ;
545 [label="X[24] <= 0.5\ngini = 0.245\nsamples = 7\nvalue = [1, 0, 6, 0, 0, 0, 0]"] ;
544 -> 545 ;
546 [label="gini = 0.0\nsamples = 6\nvalue = [0, 0, 6, 0, 0, 0, 0]"] ;
545 -> 546 ;
547 [label="gini = 0.0\nsamples = 1\nvalue = [1, 0, 0, 0, 0, 0, 0]"] ;
545 -> 547 ;
548 [label="X[5] <= 12.5\ngini = 0.5\nsamples = 14\nvalue = [0, 0, 9, 0, 1, 4, 0]"] ;
544 -> 548 ;
549 [label="gini = 0.0\nsamples = 1\nvalue = [0, 0, 0, 0, 0, 1, 0]"] ;
548 -> 549 ;
550 [label="X[5] <= 22.5\ngini = 0.462\nsamples = 13\nvalue = [0, 0, 9, 0, 1, 3, 0]"] ;
548 -> 550 ;
551 [label="X[1] <= 350265.5\ngini = 0.403\nsamples = 12\nvalue = [0, 0, 9, 0, 1, 2, 0]"] ;
550 -> 551 ;
552 [label="X[1] <= 206841.5\ngini = 0.32\nsamples = 10\nvalue = [0, 0, 8, 0, 0, 2, 0]"] ;
551 -> 552 ;
553 [label="X[24] <= 0.5\ngini = 0.444\nsamples = 6\nvalue = [0, 0, 4, 0, 0, 2, 0]"] ;
552 -> 553 ;
554 [label="X[1] <= 200736.0\ngini = 0.32\nsamples = 5\nvalue = [0, 0, 4, 0, 0, 1, 0]"] ;
553 -> 554 ;
555 [label="gini = 0.0\nsamples = 4\nvalue = [0, 0, 4, 0, 0, 0, 0]"] ;
554 -> 555 ;
556 [label="gini = 0.0\nsamples = 1\nvalue = [0, 0, 0, 0, 0, 1, 0]"] ;
554 -> 556 ;
557 [label="gini = 0.0\nsamples = 1\nvalue = [0, 0, 0, 0, 0, 1, 0]"] ;
553 -> 557 ;
558 [label="gini = 0.0\nsamples = 4\nvalue = [0, 0, 4, 0, 0, 0, 0]"] ;
552 -> 558 ;
559 [label="X[13] <= 0.5\ngini = 0.5\nsamples = 2\nvalue = [0, 0, 1, 0, 1, 0, 0]"] ;
551 -> 559 ;
560 [label="gini = 0.0\nsamples = 1\nvalue = [0, 0, 1, 0, 0, 0, 0]"] ;
559 -> 560 ;
561 [label="gini = 0.0\nsamples = 1\nvalue = [0, 0, 0, 0, 1, 0, 0]"] ;
559 -> 561 ;
562 [label="gini = 0.0\nsamples = 1\nvalue = [0, 0, 0, 0, 0, 1, 0]"] ;
550 -> 562 ;
563 [label="X[23] <= 0.5\ngini = 0.5\nsamples = 2\nvalue = [0, 1, 0, 0, 1, 0, 0]"] ;
539 -> 563 ;
564 [label="gini = 0.0\nsamples = 1\nvalue = [0, 1, 0, 0, 0, 0, 0]"] ;
563 -> 564 ;
565 [label="gini = 0.0\nsamples = 1\nvalue = [0, 0, 0, 0, 1, 0, 0]"] ;
563 -> 565 ;
566 [label="gini = 0.0\nsamples = 2\nvalue = [0, 0, 0, 0, 2, 0, 0]"] ;
538 -> 566 ;
567 [label="X[18] <= 0.5\ngini = 0.315\nsamples = 238\nvalue = [10, 13, 196, 3, 9, 7, 0]"] ;
537 -> 567 ;
568 [label="X[6] <= 0.5\ngini = 0.309\nsamples = 237\nvalue = [10, 12, 196, 3, 9, 7, 0]"] ;
567 -> 568 ;
569 [label="X[0] <= 25.5\ngini = 0.285\nsamples = 222\nvalue = [8, 10, 187, 3, 7, 7, 0]"] ;
568 -> 569 ;
570 [label="X[1] <= 458172.0\ngini = 0.117\nsamples = 49\nvalue = [0, 0, 46, 2, 0, 1, 0]"] ;
569 -> 570 ;
571 [label="X[25] <= 0.5\ngini = 0.08\nsamples = 48\nvalue = [0, 0, 46, 2, 0, 0, 0]"] ;
570 -> 571 ;
572 [label="X[0] <= 24.5\ngini = 0.5\nsamples = 2\nvalue = [0, 0, 1, 1, 0, 0, 0]"] ;
571 -> 572 ;
573 [label="gini = 0.0\nsamples = 1\nvalue = [0, 0, 0, 1, 0, 0, 0]"] ;
572 -> 573 ;
574 [label="gini = 0.0\nsamples = 1\nvalue = [0, 0, 1, 0, 0, 0, 0]"] ;
572 -> 574 ;
575 [label="X[1] <= 336476.5\ngini = 0.043\nsamples = 46\nvalue = [0, 0, 45, 1, 0, 0, 0]"] ;
571 -> 575 ;
576 [label="gini = 0.0\nsamples = 41\nvalue = [0, 0, 41, 0, 0, 0, 0]"] ;
575 -> 576 ;
577 [label="X[0] <= 23.0\ngini = 0.32\nsamples = 5\nvalue = [0, 0, 4, 1, 0, 0, 0]"] ;
575 -> 577 ;
578 [label="gini = 0.0\nsamples = 1\nvalue = [0, 0, 0, 1, 0, 0, 0]"] ;
577 -> 578 ;
579 [label="gini = 0.0\nsamples = 4\nvalue = [0, 0, 4, 0, 0, 0, 0]"] ;
577 -> 579 ;
580 [label="gini = 0.0\nsamples = 1\nvalue = [0, 0, 0, 0, 0, 1, 0]"] ;
570 -> 580 ;
581 [label="X[0] <= 26.5\ngini = 0.327\nsamples = 173\nvalue = [8, 10, 141, 1, 7, 6, 0]"] ;
569 -> 581 ;
582 [label="X[20] <= 0.5\ngini = 0.5\nsamples = 14\nvalue = [0, 4, 9, 0, 0, 1, 0]"] ;
581 -> 582 ;
583 [label="X[15] <= 0.5\ngini = 0.375\nsamples = 12\nvalue = [0, 3, 9, 0, 0, 0, 0]"] ;
582 -> 583 ;
584 [label="X[1] <= 265774.5\ngini = 0.219\nsamples = 8\nvalue = [0, 1, 7, 0, 0, 0, 0]"] ;
583 -> 584 ;
585 [label="gini = 0.0\nsamples = 5\nvalue = [0, 0, 5, 0, 0, 0, 0]"] ;
584 -> 585 ;
586 [label="X[1] <= 306817.5\ngini = 0.444\nsamples = 3\nvalue = [0, 1, 2, 0, 0, 0, 0]"] ;
584 -> 586 ;
587 [label="gini = 0.0\nsamples = 1\nvalue = [0, 1, 0, 0, 0, 0, 0]"] ;
586 -> 587 ;
588 [label="gini = 0.0\nsamples = 2\nvalue = [0, 0, 2, 0, 0, 0, 0]"] ;
586 -> 588 ;
589 [label="X[1] <= 207543.0\ngini = 0.5\nsamples = 4\nvalue = [0, 2, 2, 0, 0, 0, 0]"] ;
583 -> 589 ;
590 [label="gini = 0.0\nsamples = 2\nvalue = [0, 2, 0, 0, 0, 0, 0]"] ;
589 -> 590 ;
591 [label="gini = 0.0\nsamples = 2\nvalue = [0, 0, 2, 0, 0, 0, 0]"] ;
589 -> 591 ;
592 [label="X[1] <= 158338.5\ngini = 0.5\nsamples = 2\nvalue = [0, 1, 0, 0, 0, 1, 0]"] ;
582 -> 592 ;
593 [label="gini = 0.0\nsamples = 1\nvalue = [0, 0, 0, 0, 0, 1, 0]"] ;
592 -> 593 ;
594 [label="gini = 0.0\nsamples = 1\nvalue = [0, 1, 0, 0, 0, 0, 0]"] ;
592 -> 594 ;
595 [label="X[5] <= 47.5\ngini = 0.304\nsamples = 159\nvalue = [8, 6, 132, 1, 7, 5, 0]"] ;
581 -> 595 ;
596 [label="X[1] <= 203669.0\ngini = 0.282\nsamples = 154\nvalue = [7, 6, 130, 1, 6, 4, 0]"] ;
595 -> 596 ;
597 [label="X[1] <= 199733.5\ngini = 0.36\nsamples = 87\nvalue = [3, 5, 69, 0, 6, 4, 0]"] ;
596 -> 597 ;
598 [label="X[1] <= 126778.5\ngini = 0.305\nsamples = 82\nvalue = [3, 3, 68, 0, 5, 3, 0]"] ;
597 -> 598 ;
599 [label="X[20] <= 0.5\ngini = 0.106\nsamples = 36\nvalue = [1, 0, 34, 0, 0, 1, 0]"] ;
598 -> 599 ;
600 [label="X[0] <= 38.5\ngini = 0.059\nsamples = 33\nvalue = [1, 0, 32, 0, 0, 0, 0]"] ;
599 -> 600 ;
601 [label="gini = 0.0\nsamples = 28\nvalue = [0, 0, 28, 0, 0, 0, 0]"] ;
600 -> 601 ;
602 [label="X[5] <= 42.5\ngini = 0.32\nsamples = 5\nvalue = [1, 0, 4, 0, 0, 0, 0]"] ;
600 -> 602 ;
603 [label="gini = 0.0\nsamples = 4\nvalue = [0, 0, 4, 0, 0, 0, 0]"] ;
602 -> 603 ;
604 [label="gini = 0.0\nsamples = 1\nvalue = [1, 0, 0, 0, 0, 0, 0]"] ;
602 -> 604 ;
605 [label="X[1] <= 87139.5\ngini = 0.444\nsamples = 3\nvalue = [0, 0, 2, 0, 0, 1, 0]"] ;
599 -> 605 ;
606 [label="gini = 0.0\nsamples = 1\nvalue = [0, 0, 1, 0, 0, 0, 0]"] ;
605 -> 606 ;
607 [label="X[1] <= 108022.5\ngini = 0.5\nsamples = 2\nvalue = [0, 0, 1, 0, 0, 1, 0]"] ;
605 -> 607 ;
608 [label="gini = 0.0\nsamples = 1\nvalue = [0, 0, 0, 0, 0, 1, 0]"] ;
607 -> 608 ;
609 [label="gini = 0.0\nsamples = 1\nvalue = [0, 0, 1, 0, 0, 0, 0]"] ;
607 -> 609 ;
610 [label="X[1] <= 129820.0\ngini = 0.434\nsamples = 46\nvalue = [2, 3, 34, 0, 5, 2, 0]"] ;
598 -> 610 ;
611 [label="gini = 0.0\nsamples = 1\nvalue = [1, 0, 0, 0, 0, 0, 0]"] ;
610 -> 611 ;
612 [label="X[15] <= 0.5\ngini = 0.41\nsamples = 45\nvalue = [1, 3, 34, 0, 5, 2, 0]"] ;
610 -> 612 ;
613 [label="X[5] <= 43.5\ngini = 0.377\nsamples = 41\nvalue = [1, 3, 32, 0, 3, 2, 0]"] ;
612 -> 613 ;
614 [label="X[5] <= 41.0\ngini = 0.461\nsamples = 32\nvalue = [1, 3, 23, 0, 3, 2, 0]"] ;
613 -> 614 ;
615 [label="X[0] <= 29.5\ngini = 0.429\nsamples = 31\nvalue = [1, 3, 23, 0, 3, 1, 0]"] ;
614 -> 615 ;
616 [label="X[0] <= 27.5\ngini = 0.24\nsamples = 15\nvalue = [0, 1, 13, 0, 0, 1, 0]"] ;
615 -> 616 ;
617 [label="X[1] <= 181590.5\ngini = 0.406\nsamples = 8\nvalue = [0, 1, 6, 0, 0, 1, 0]"] ;
616 -> 617 ;
618 [label="X[1] <= 175573.0\ngini = 0.56\nsamples = 5\nvalue = [0, 1, 3, 0, 0, 1, 0]"] ;
617 -> 618 ;
619 [label="X[1] <= 167555.5\ngini = 0.375\nsamples = 4\nvalue = [0, 1, 3, 0, 0, 0, 0]"] ;
618 -> 619 ;
620 [label="gini = 0.0\nsamples = 2\nvalue = [0, 0, 2, 0, 0, 0, 0]"] ;
619 -> 620 ;
621 [label="X[1] <= 172461.5\ngini = 0.5\nsamples = 2\nvalue = [0, 1, 1, 0, 0, 0, 0]"] ;
619 -> 621 ;
622 [label="gini = 0.0\nsamples = 1\nvalue = [0, 1, 0, 0, 0, 0, 0]"] ;
621 -> 622 ;
623 [label="gini = 0.0\nsamples = 1\nvalue = [0, 0, 1, 0, 0, 0, 0]"] ;
621 -> 623 ;
624 [label="gini = 0.0\nsamples = 1\nvalue = [0, 0, 0, 0, 0, 1, 0]"] ;
618 -> 624 ;
625 [label="gini = 0.0\nsamples = 3\nvalue = [0, 0, 3, 0, 0, 0, 0]"] ;
617 -> 625 ;
626 [label="gini = 0.0\nsamples = 7\nvalue = [0, 0, 7, 0, 0, 0, 0]"] ;
616 -> 626 ;
627 [label="X[0] <= 33.5\ngini = 0.555\nsamples = 16\nvalue = [1, 2, 10, 0, 3, 0, 0]"] ;
615 -> 627 ;
628 [label="X[26] <= 0.5\ngini = 0.667\nsamples = 6\nvalue = [0, 2, 2, 0, 2, 0, 0]"] ;
627 -> 628 ;
629 [label="X[1] <= 185024.0\ngini = 0.444\nsamples = 3\nvalue = [0, 2, 0, 0, 1, 0, 0]"] ;
628 -> 629 ;
630 [label="gini = 0.0\nsamples = 2\nvalue = [0, 2, 0, 0, 0, 0, 0]"] ;
629 -> 630 ;
631 [label="gini = 0.0\nsamples = 1\nvalue = [0, 0, 0, 0, 1, 0, 0]"] ;
629 -> 631 ;
632 [label="X[23] <= 0.5\ngini = 0.444\nsamples = 3\nvalue = [0, 0, 2, 0, 1, 0, 0]"] ;
628 -> 632 ;
633 [label="gini = 0.0\nsamples = 2\nvalue = [0, 0, 2, 0, 0, 0, 0]"] ;
632 -> 633 ;
634 [label="gini = 0.0\nsamples = 1\nvalue = [0, 0, 0, 0, 1, 0, 0]"] ;
632 -> 634 ;
635 [label="X[1] <= 138092.5\ngini = 0.34\nsamples = 10\nvalue = [1, 0, 8, 0, 1, 0, 0]"] ;
627 -> 635 ;
636 [label="gini = 0.0\nsamples = 1\nvalue = [0, 0, 0, 0, 1, 0, 0]"] ;
635 -> 636 ;
637 [label="X[1] <= 150716.5\ngini = 0.198\nsamples = 9\nvalue = [1, 0, 8, 0, 0, 0, 0]"] ;
635 -> 637 ;
638 [label="X[1] <= 143216.5\ngini = 0.5\nsamples = 2\nvalue = [1, 0, 1, 0, 0, 0, 0]"] ;
637 -> 638 ;
639 [label="gini = 0.0\nsamples = 1\nvalue = [0, 0, 1, 0, 0, 0, 0]"] ;
638 -> 639 ;
640 [label="gini = 0.0\nsamples = 1\nvalue = [1, 0, 0, 0, 0, 0, 0]"] ;
638 -> 640 ;
641 [label="gini = 0.0\nsamples = 7\nvalue = [0, 0, 7, 0, 0, 0, 0]"] ;
637 -> 641 ;
642 [label="gini = 0.0\nsamples = 1\nvalue = [0, 0, 0, 0, 0, 1, 0]"] ;
614 -> 642 ;
643 [label="gini = 0.0\nsamples = 9\nvalue = [0, 0, 9, 0, 0, 0, 0]"] ;
613 -> 643 ;
644 [label="X[0] <= 32.5\ngini = 0.5\nsamples = 4\nvalue = [0, 0, 2, 0, 2, 0, 0]"] ;
612 -> 644 ;
645 [label="X[1] <= 164044.5\ngini = 0.444\nsamples = 3\nvalue = [0, 0, 2, 0, 1, 0, 0]"] ;
644 -> 645 ;
646 [label="gini = 0.0\nsamples = 1\nvalue = [0, 0, 0, 0, 1, 0, 0]"] ;
645 -> 646 ;
647 [label="gini = 0.0\nsamples = 2\nvalue = [0, 0, 2, 0, 0, 0, 0]"] ;
645 -> 647 ;
648 [label="gini = 0.0\nsamples = 1\nvalue = [0, 0, 0, 0, 1, 0, 0]"] ;
644 -> 648 ;
649 [label="X[1] <= 202436.5\ngini = 0.72\nsamples = 5\nvalue = [0, 2, 1, 0, 1, 1, 0]"] ;
597 -> 649 ;
650 [label="X[0] <= 39.0\ngini = 0.444\nsamples = 3\nvalue = [0, 2, 1, 0, 0, 0, 0]"] ;
649 -> 650 ;
651 [label="gini = 0.0\nsamples = 2\nvalue = [0, 2, 0, 0, 0, 0, 0]"] ;
650 -> 651 ;
652 [label="gini = 0.0\nsamples = 1\nvalue = [0, 0, 1, 0, 0, 0, 0]"] ;
650 -> 652 ;
653 [label="X[24] <= 0.5\ngini = 0.5\nsamples = 2\nvalue = [0, 0, 0, 0, 1, 1, 0]"] ;
649 -> 653 ;
654 [label="gini = 0.0\nsamples = 1\nvalue = [0, 0, 0, 0, 1, 0, 0]"] ;
653 -> 654 ;
655 [label="gini = 0.0\nsamples = 1\nvalue = [0, 0, 0, 0, 0, 1, 0]"] ;
653 -> 655 ;
656 [label="X[16] <= 0.5\ngini = 0.167\nsamples = 67\nvalue = [4, 1, 61, 1, 0, 0, 0]"] ;
596 -> 656 ;
657 [label="X[11] <= 0.5\ngini = 0.142\nsamples = 66\nvalue = [4, 0, 61, 1, 0, 0, 0]"] ;
656 -> 657 ;
658 [label="X[3] <= 6238.0\ngini = 0.117\nsamples = 65\nvalue = [3, 0, 61, 1, 0, 0, 0]"] ;
657 -> 658 ;
659 [label="X[0] <= 31.5\ngini = 0.092\nsamples = 62\nvalue = [3, 0, 59, 0, 0, 0, 0]"] ;
658 -> 659 ;
660 [label="X[1] <= 291718.0\ngini = 0.211\nsamples = 25\nvalue = [3, 0, 22, 0, 0, 0, 0]"] ;
659 -> 660 ;
661 [label="gini = 0.0\nsamples = 11\nvalue = [0, 0, 11, 0, 0, 0, 0]"] ;
660 -> 661 ;
662 [label="X[1] <= 333901.0\ngini = 0.337\nsamples = 14\nvalue = [3, 0, 11, 0, 0, 0, 0]"] ;
660 -> 662 ;
663 [label="X[0] <= 29.0\ngini = 0.48\nsamples = 5\nvalue = [3, 0, 2, 0, 0, 0, 0]"] ;
662 -> 663 ;
664 [label="X[1] <= 315540.0\ngini = 0.444\nsamples = 3\nvalue = [1, 0, 2, 0, 0, 0, 0]"] ;
663 -> 664 ;
665 [label="gini = 0.0\nsamples = 2\nvalue = [0, 0, 2, 0, 0, 0, 0]"] ;
664 -> 665 ;
666 [label="gini = 0.0\nsamples = 1\nvalue = [1, 0, 0, 0, 0, 0, 0]"] ;
664 -> 666 ;
667 [label="gini = 0.0\nsamples = 2\nvalue = [2, 0, 0, 0, 0, 0, 0]"] ;
663 -> 667 ;
668 [label="gini = 0.0\nsamples = 9\nvalue = [0, 0, 9, 0, 0, 0, 0]"] ;
662 -> 668 ;
669 [label="gini = 0.0\nsamples = 37\nvalue = [0, 0, 37, 0, 0, 0, 0]"] ;
659 -> 669 ;
670 [label="X[7] <= 0.5\ngini = 0.444\nsamples = 3\nvalue = [0, 0, 2, 1, 0, 0, 0]"] ;
658 -> 670 ;
671 [label="gini = 0.0\nsamples = 2\nvalue = [0, 0, 2, 0, 0, 0, 0]"] ;
670 -> 671 ;
672 [label="gini = 0.0\nsamples = 1\nvalue = [0, 0, 0, 1, 0, 0, 0]"] ;
670 -> 672 ;
673 [label="gini = 0.0\nsamples = 1\nvalue = [1, 0, 0, 0, 0, 0, 0]"] ;
657 -> 673 ;
674 [label="gini = 0.0\nsamples = 1\nvalue = [0, 1, 0, 0, 0, 0, 0]"] ;
656 -> 674 ;
675 [label="X[24] <= 0.5\ngini = 0.72\nsamples = 5\nvalue = [1, 0, 2, 0, 1, 1, 0]"] ;
595 -> 675 ;
676 [label="gini = 0.0\nsamples = 2\nvalue = [0, 0, 2, 0, 0, 0, 0]"] ;
675 -> 676 ;
677 [label="X[3] <= 3649.0\ngini = 0.667\nsamples = 3\nvalue = [1, 0, 0, 0, 1, 1, 0]"] ;
675 -> 677 ;
678 [label="X[13] <= 0.5\ngini = 0.5\nsamples = 2\nvalue = [0, 0, 0, 0, 1, 1, 0]"] ;
677 -> 678 ;
679 [label="gini = 0.0\nsamples = 1\nvalue = [0, 0, 0, 0, 1, 0, 0]"] ;
678 -> 679 ;
680 [label="gini = 0.0\nsamples = 1\nvalue = [0, 0, 0, 0, 0, 1, 0]"] ;
678 -> 680 ;
681 [label="gini = 0.0\nsamples = 1\nvalue = [1, 0, 0, 0, 0, 0, 0]"] ;
677 -> 681 ;
682 [label="X[22] <= 0.5\ngini = 0.587\nsamples = 15\nvalue = [2, 2, 9, 0, 2, 0, 0]"] ;
568 -> 682 ;
683 [label="X[24] <= 0.5\ngini = 0.667\nsamples = 3\nvalue = [1, 1, 0, 0, 1, 0, 0]"] ;
682 -> 683 ;
684 [label="X[13] <= 0.5\ngini = 0.5\nsamples = 2\nvalue = [1, 1, 0, 0, 0, 0, 0]"] ;
683 -> 684 ;
685 [label="gini = 0.0\nsamples = 1\nvalue = [1, 0, 0, 0, 0, 0, 0]"] ;
684 -> 685 ;
686 [label="gini = 0.0\nsamples = 1\nvalue = [0, 1, 0, 0, 0, 0, 0]"] ;
684 -> 686 ;
687 [label="gini = 0.0\nsamples = 1\nvalue = [0, 0, 0, 0, 1, 0, 0]"] ;
683 -> 687 ;
688 [label="X[1] <= 322323.5\ngini = 0.417\nsamples = 12\nvalue = [1, 1, 9, 0, 1, 0, 0]"] ;
682 -> 688 ;
689 [label="X[0] <= 27.5\ngini = 0.314\nsamples = 11\nvalue = [0, 1, 9, 0, 1, 0, 0]"] ;
688 -> 689 ;
690 [label="gini = 0.0\nsamples = 1\nvalue = [0, 0, 0, 0, 1, 0, 0]"] ;
689 -> 690 ;
691 [label="X[3] <= 6016.0\ngini = 0.18\nsamples = 10\nvalue = [0, 1, 9, 0, 0, 0, 0]"] ;
689 -> 691 ;
692 [label="gini = 0.0\nsamples = 8\nvalue = [0, 0, 8, 0, 0, 0, 0]"] ;
691 -> 692 ;
693 [label="X[24] <= 0.5\ngini = 0.5\nsamples = 2\nvalue = [0, 1, 1, 0, 0, 0, 0]"] ;
691 -> 693 ;
694 [label="gini = 0.0\nsamples = 1\nvalue = [0, 1, 0, 0, 0, 0, 0]"] ;
693 -> 694 ;
695 [label="gini = 0.0\nsamples = 1\nvalue = [0, 0, 1, 0, 0, 0, 0]"] ;
693 -> 695 ;
696 [label="gini = 0.0\nsamples = 1\nvalue = [1, 0, 0, 0, 0, 0, 0]"] ;
688 -> 696 ;
697 [label="gini = 0.0\nsamples = 1\nvalue = [0, 1, 0, 0, 0, 0, 0]"] ;
567 -> 697 ;
698 [label="X[25] <= 0.5\ngini = 0.568\nsamples = 51\nvalue = [2, 6, 32, 3, 1, 7, 0]"] ;
536 -> 698 ;
699 [label="X[5] <= 46.5\ngini = 0.417\nsamples = 24\nvalue = [1, 1, 18, 3, 0, 1, 0]"] ;
698 -> 699 ;
700 [label="X[1] <= 88934.5\ngini = 0.367\nsamples = 23\nvalue = [1, 1, 18, 3, 0, 0, 0]"] ;
699 -> 700 ;
701 [label="X[3] <= 7512.0\ngini = 0.5\nsamples = 2\nvalue = [0, 0, 1, 1, 0, 0, 0]"] ;
700 -> 701 ;
702 [label="gini = 0.0\nsamples = 1\nvalue = [0, 0, 0, 1, 0, 0, 0]"] ;
701 -> 702 ;
703 [label="gini = 0.0\nsamples = 1\nvalue = [0, 0, 1, 0, 0, 0, 0]"] ;
701 -> 703 ;
704 [label="X[0] <= 37.5\ngini = 0.331\nsamples = 21\nvalue = [1, 1, 17, 2, 0, 0, 0]"] ;
700 -> 704 ;
705 [label="X[2] <= 14.5\ngini = 0.153\nsamples = 12\nvalue = [1, 0, 11, 0, 0, 0, 0]"] ;
704 -> 705 ;
706 [label="gini = 0.0\nsamples = 9\nvalue = [0, 0, 9, 0, 0, 0, 0]"] ;
705 -> 706 ;
707 [label="X[0] <= 33.0\ngini = 0.444\nsamples = 3\nvalue = [1, 0, 2, 0, 0, 0, 0]"] ;
705 -> 707 ;
708 [label="gini = 0.0\nsamples = 1\nvalue = [1, 0, 0, 0, 0, 0, 0]"] ;
707 -> 708 ;
709 [label="gini = 0.0\nsamples = 2\nvalue = [0, 0, 2, 0, 0, 0, 0]"] ;
707 -> 709 ;
710 [label="X[5] <= 42.5\ngini = 0.494\nsamples = 9\nvalue = [0, 1, 6, 2, 0, 0, 0]"] ;
704 -> 710 ;
711 [label="X[3] <= 14554.0\ngini = 0.406\nsamples = 8\nvalue = [0, 1, 6, 1, 0, 0, 0]"] ;
710 -> 711 ;
712 [label="X[2] <= 14.5\ngini = 0.245\nsamples = 7\nvalue = [0, 1, 6, 0, 0, 0, 0]"] ;
711 -> 712 ;
713 [label="X[0] <= 38.5\ngini = 0.444\nsamples = 3\nvalue = [0, 1, 2, 0, 0, 0, 0]"] ;
712 -> 713 ;
714 [label="gini = 0.0\nsamples = 1\nvalue = [0, 0, 1, 0, 0, 0, 0]"] ;
713 -> 714 ;
715 [label="X[12] <= 0.5\ngini = 0.5\nsamples = 2\nvalue = [0, 1, 1, 0, 0, 0, 0]"] ;
713 -> 715 ;
716 [label="gini = 0.0\nsamples = 1\nvalue = [0, 0, 1, 0, 0, 0, 0]"] ;
715 -> 716 ;
717 [label="gini = 0.0\nsamples = 1\nvalue = [0, 1, 0, 0, 0, 0, 0]"] ;
715 -> 717 ;
718 [label="gini = 0.0\nsamples = 4\nvalue = [0, 0, 4, 0, 0, 0, 0]"] ;
712 -> 718 ;
719 [label="gini = 0.0\nsamples = 1\nvalue = [0, 0, 0, 1, 0, 0, 0]"] ;
711 -> 719 ;
720 [label="gini = 0.0\nsamples = 1\nvalue = [0, 0, 0, 1, 0, 0, 0]"] ;
710 -> 720 ;
721 [label="gini = 0.0\nsamples = 1\nvalue = [0, 0, 0, 0, 0, 1, 0]"] ;
699 -> 721 ;
722 [label="X[1] <= 231867.0\ngini = 0.645\nsamples = 27\nvalue = [1, 5, 14, 0, 1, 6, 0]"] ;
698 -> 722 ;
723 [label="X[5] <= 39.0\ngini = 0.664\nsamples = 17\nvalue = [0, 5, 6, 0, 0, 6, 0]"] ;
722 -> 723 ;
724 [label="X[0] <= 28.0\ngini = 0.494\nsamples = 9\nvalue = [0, 0, 4, 0, 0, 5, 0]"] ;
723 -> 724 ;
725 [label="gini = 0.0\nsamples = 2\nvalue = [0, 0, 2, 0, 0, 0, 0]"] ;
724 -> 725 ;
726 [label="X[1] <= 163809.5\ngini = 0.408\nsamples = 7\nvalue = [0, 0, 2, 0, 0, 5, 0]"] ;
724 -> 726 ;
727 [label="X[2] <= 15.0\ngini = 0.278\nsamples = 6\nvalue = [0, 0, 1, 0, 0, 5, 0]"] ;
726 -> 727 ;
728 [label="gini = 0.0\nsamples = 4\nvalue = [0, 0, 0, 0, 0, 4, 0]"] ;
727 -> 728 ;
729 [label="X[9] <= 0.5\ngini = 0.5\nsamples = 2\nvalue = [0, 0, 1, 0, 0, 1, 0]"] ;
727 -> 729 ;
730 [label="gini = 0.0\nsamples = 1\nvalue = [0, 0, 0, 0, 0, 1, 0]"] ;
729 -> 730 ;
731 [label="gini = 0.0\nsamples = 1\nvalue = [0, 0, 1, 0, 0, 0, 0]"] ;
729 -> 731 ;
732 [label="gini = 0.0\nsamples = 1\nvalue = [0, 0, 1, 0, 0, 0, 0]"] ;
726 -> 732 ;
733 [label="X[17] <= 0.5\ngini = 0.531\nsamples = 8\nvalue = [0, 5, 2, 0, 0, 1, 0]"] ;
723 -> 733 ;
734 [label="X[0] <= 37.5\ngini = 0.408\nsamples = 7\nvalue = [0, 5, 2, 0, 0, 0, 0]"] ;
733 -> 734 ;
735 [label="X[5] <= 45.5\ngini = 0.278\nsamples = 6\nvalue = [0, 5, 1, 0, 0, 0, 0]"] ;
734 -> 735 ;
736 [label="gini = 0.0\nsamples = 4\nvalue = [0, 4, 0, 0, 0, 0, 0]"] ;
735 -> 736 ;
737 [label="X[5] <= 47.0\ngini = 0.5\nsamples = 2\nvalue = [0, 1, 1, 0, 0, 0, 0]"] ;
735 -> 737 ;
738 [label="gini = 0.0\nsamples = 1\nvalue = [0, 0, 1, 0, 0, 0, 0]"] ;
737 -> 738 ;
739 [label="gini = 0.0\nsamples = 1\nvalue = [0, 1, 0, 0, 0, 0, 0]"] ;
737 -> 739 ;
740 [label="gini = 0.0\nsamples = 1\nvalue = [0, 0, 1, 0, 0, 0, 0]"] ;
734 -> 740 ;
741 [label="gini = 0.0\nsamples = 1\nvalue = [0, 0, 0, 0, 0, 1, 0]"] ;
733 -> 741 ;
742 [label="X[4] <= 704.0\ngini = 0.34\nsamples = 10\nvalue = [1, 0, 8, 0, 1, 0, 0]"] ;
722 -> 742 ;
743 [label="X[0] <= 35.0\ngini = 0.198\nsamples = 9\nvalue = [0, 0, 8, 0, 1, 0, 0]"] ;
742 -> 743 ;
744 [label="gini = 0.0\nsamples = 7\nvalue = [0, 0, 7, 0, 0, 0, 0]"] ;
743 -> 744 ;
745 [label="X[12] <= 0.5\ngini = 0.5\nsamples = 2\nvalue = [0, 0, 1, 0, 1, 0, 0]"] ;
743 -> 745 ;
746 [label="gini = 0.0\nsamples = 1\nvalue = [0, 0, 1, 0, 0, 0, 0]"] ;
745 -> 746 ;
747 [label="gini = 0.0\nsamples = 1\nvalue = [0, 0, 0, 0, 1, 0, 0]"] ;
745 -> 747 ;
748 [label="gini = 0.0\nsamples = 1\nvalue = [1, 0, 0, 0, 0, 0, 0]"] ;
742 -> 748 ;
749 [label="X[3] <= 63913.5\ngini = 0.485\nsamples = 304\nvalue = [10, 19, 213, 17, 38, 7, 0]"] ;
1 -> 749 ;
750 [label="X[1] <= 144673.5\ngini = 0.477\nsamples = 301\nvalue = [10, 19, 213, 17, 35, 7, 0]"] ;
749 -> 750 ;
751 [label="X[7] <= 0.5\ngini = 0.605\nsamples = 100\nvalue = [5, 5, 59, 9, 18, 4, 0]"] ;
750 -> 751 ;
752 [label="X[1] <= 133938.5\ngini = 0.464\nsamples = 43\nvalue = [3, 3, 31, 2, 2, 2, 0]"] ;
751 -> 752 ;
753 [label="X[21] <= 0.5\ngini = 0.424\nsamples = 40\nvalue = [3, 1, 30, 2, 2, 2, 0]"] ;
752 -> 753 ;
754 [label="X[12] <= 0.5\ngini = 0.396\nsamples = 39\nvalue = [3, 1, 30, 1, 2, 2, 0]"] ;
753 -> 754 ;
755 [label="X[2] <= 13.5\ngini = 0.367\nsamples = 38\nvalue = [2, 1, 30, 1, 2, 2, 0]"] ;
754 -> 755 ;
756 [label="X[1] <= 32714.5\ngini = 0.305\nsamples = 35\nvalue = [2, 1, 29, 0, 2, 1, 0]"] ;
755 -> 756 ;
757 [label="X[23] <= 0.5\ngini = 0.5\nsamples = 2\nvalue = [1, 0, 1, 0, 0, 0, 0]"] ;
756 -> 757 ;
758 [label="gini = 0.0\nsamples = 1\nvalue = [0, 0, 1, 0, 0, 0, 0]"] ;
757 -> 758 ;
759 [label="gini = 0.0\nsamples = 1\nvalue = [1, 0, 0, 0, 0, 0, 0]"] ;
757 -> 759 ;
760 [label="X[3] <= 4483.0\ngini = 0.274\nsamples = 33\nvalue = [1, 1, 28, 0, 2, 1, 0]"] ;
756 -> 760 ;
761 [label="X[0] <= 24.5\ngini = 0.235\nsamples = 31\nvalue = [0, 1, 27, 0, 2, 1, 0]"] ;
760 -> 761 ;
762 [label="X[0] <= 21.5\ngini = 0.5\nsamples = 6\nvalue = [0, 0, 4, 0, 1, 1, 0]"] ;
761 -> 762 ;
763 [label="gini = 0.0\nsamples = 4\nvalue = [0, 0, 4, 0, 0, 0, 0]"] ;
762 -> 763 ;
764 [label="X[9] <= 0.5\ngini = 0.5\nsamples = 2\nvalue = [0, 0, 0, 0, 1, 1, 0]"] ;
762 -> 764 ;
765 [label="gini = 0.0\nsamples = 1\nvalue = [0, 0, 0, 0, 1, 0, 0]"] ;
764 -> 765 ;
766 [label="gini = 0.0\nsamples = 1\nvalue = [0, 0, 0, 0, 0, 1, 0]"] ;
764 -> 766 ;
767 [label="X[16] <= 0.5\ngini = 0.15\nsamples = 25\nvalue = [0, 1, 23, 0, 1, 0, 0]"] ;
761 -> 767 ;
768 [label="X[1] <= 108788.0\ngini = 0.087\nsamples = 22\nvalue = [0, 0, 21, 0, 1, 0, 0]"] ;
767 -> 768 ;
769 [label="gini = 0.0\nsamples = 14\nvalue = [0, 0, 14, 0, 0, 0, 0]"] ;
768 -> 769 ;
770 [label="X[1] <= 113527.0\ngini = 0.219\nsamples = 8\nvalue = [0, 0, 7, 0, 1, 0, 0]"] ;
768 -> 770 ;
771 [label="gini = 0.0\nsamples = 1\nvalue = [0, 0, 0, 0, 1, 0, 0]"] ;
770 -> 771 ;
772 [label="gini = 0.0\nsamples = 7\nvalue = [0, 0, 7, 0, 0, 0, 0]"] ;
770 -> 772 ;
773 [label="X[5] <= 57.5\ngini = 0.444\nsamples = 3\nvalue = [0, 1, 2, 0, 0, 0, 0]"] ;
767 -> 773 ;
774 [label="gini = 0.0\nsamples = 1\nvalue = [0, 1, 0, 0, 0, 0, 0]"] ;
773 -> 774 ;
775 [label="gini = 0.0\nsamples = 2\nvalue = [0, 0, 2, 0, 0, 0, 0]"] ;
773 -> 775 ;
776 [label="X[6] <= 0.5\ngini = 0.5\nsamples = 2\nvalue = [1, 0, 1, 0, 0, 0, 0]"] ;
760 -> 776 ;
777 [label="gini = 0.0\nsamples = 1\nvalue = [0, 0, 1, 0, 0, 0, 0]"] ;
776 -> 777 ;
778 [label="gini = 0.0\nsamples = 1\nvalue = [1, 0, 0, 0, 0, 0, 0]"] ;
776 -> 778 ;
779 [label="X[10] <= 0.5\ngini = 0.667\nsamples = 3\nvalue = [0, 0, 1, 1, 0, 1, 0]"] ;
755 -> 779 ;
780 [label="X[13] <= 0.5\ngini = 0.5\nsamples = 2\nvalue = [0, 0, 0, 1, 0, 1, 0]"] ;
779 -> 780 ;
781 [label="gini = 0.0\nsamples = 1\nvalue = [0, 0, 0, 0, 0, 1, 0]"] ;
780 -> 781 ;
782 [label="gini = 0.0\nsamples = 1\nvalue = [0, 0, 0, 1, 0, 0, 0]"] ;
780 -> 782 ;
783 [label="gini = 0.0\nsamples = 1\nvalue = [0, 0, 1, 0, 0, 0, 0]"] ;
779 -> 783 ;
784 [label="gini = 0.0\nsamples = 1\nvalue = [1, 0, 0, 0, 0, 0, 0]"] ;
754 -> 784 ;
785 [label="gini = 0.0\nsamples = 1\nvalue = [0, 0, 0, 1, 0, 0, 0]"] ;
753 -> 785 ;
786 [label="X[2] <= 9.5\ngini = 0.444\nsamples = 3\nvalue = [0, 2, 1, 0, 0, 0, 0]"] ;
752 -> 786 ;
787 [label="gini = 0.0\nsamples = 2\nvalue = [0, 2, 0, 0, 0, 0, 0]"] ;
786 -> 787 ;
788 [label="gini = 0.0\nsamples = 1\nvalue = [0, 0, 1, 0, 0, 0, 0]"] ;
786 -> 788 ;
789 [label="X[1] <= 96761.0\ngini = 0.661\nsamples = 57\nvalue = [2, 2, 28, 7, 16, 2, 0]"] ;
751 -> 789 ;
790 [label="X[0] <= 39.5\ngini = 0.536\nsamples = 26\nvalue = [1, 2, 17, 2, 4, 0, 0]"] ;
789 -> 790 ;
791 [label="X[21] <= 0.5\ngini = 0.462\nsamples = 24\nvalue = [0, 2, 17, 1, 4, 0, 0]"] ;
790 -> 791 ;
792 [label="X[1] <= 79986.5\ngini = 0.416\nsamples = 23\nvalue = [0, 2, 17, 0, 4, 0, 0]"] ;
791 -> 792 ;
793 [label="X[1] <= 46369.0\ngini = 0.551\nsamples = 15\nvalue = [0, 2, 9, 0, 4, 0, 0]"] ;
792 -> 793 ;
794 [label="X[26] <= 0.5\ngini = 0.198\nsamples = 9\nvalue = [0, 0, 8, 0, 1, 0, 0]"] ;
793 -> 794 ;
795 [label="X[0] <= 29.0\ngini = 0.375\nsamples = 4\nvalue = [0, 0, 3, 0, 1, 0, 0]"] ;
794 -> 795 ;
796 [label="X[0] <= 27.5\ngini = 0.5\nsamples = 2\nvalue = [0, 0, 1, 0, 1, 0, 0]"] ;
795 -> 796 ;
797 [label="gini = 0.0\nsamples = 1\nvalue = [0, 0, 1, 0, 0, 0, 0]"] ;
796 -> 797 ;
798 [label="gini = 0.0\nsamples = 1\nvalue = [0, 0, 0, 0, 1, 0, 0]"] ;
796 -> 798 ;
799 [label="gini = 0.0\nsamples = 2\nvalue = [0, 0, 2, 0, 0, 0, 0]"] ;
795 -> 799 ;
800 [label="gini = 0.0\nsamples = 5\nvalue = [0, 0, 5, 0, 0, 0, 0]"] ;
794 -> 800 ;
801 [label="X[1] <= 60806.0\ngini = 0.611\nsamples = 6\nvalue = [0, 2, 1, 0, 3, 0, 0]"] ;
793 -> 801 ;
802 [label="gini = 0.0\nsamples = 3\nvalue = [0, 0, 0, 0, 3, 0, 0]"] ;
801 -> 802 ;
803 [label="X[0] <= 37.0\ngini = 0.444\nsamples = 3\nvalue = [0, 2, 1, 0, 0, 0, 0]"] ;
801 -> 803 ;
804 [label="gini = 0.0\nsamples = 2\nvalue = [0, 2, 0, 0, 0, 0, 0]"] ;
803 -> 804 ;
805 [label="gini = 0.0\nsamples = 1\nvalue = [0, 0, 1, 0, 0, 0, 0]"] ;
803 -> 805 ;
806 [label="gini = 0.0\nsamples = 8\nvalue = [0, 0, 8, 0, 0, 0, 0]"] ;
792 -> 806 ;
807 [label="gini = 0.0\nsamples = 1\nvalue = [0, 0, 0, 1, 0, 0, 0]"] ;
791 -> 807 ;
808 [label="X[3] <= 3844.0\ngini = 0.5\nsamples = 2\nvalue = [1, 0, 0, 1, 0, 0, 0]"] ;
790 -> 808 ;
809 [label="gini = 0.0\nsamples = 1\nvalue = [0, 0, 0, 1, 0, 0, 0]"] ;
808 -> 809 ;
810 [label="gini = 0.0\nsamples = 1\nvalue = [1, 0, 0, 0, 0, 0, 0]"] ;
808 -> 810 ;
811 [label="X[26] <= 0.5\ngini = 0.693\nsamples = 31\nvalue = [1, 0, 11, 5, 12, 2, 0]"] ;
789 -> 811 ;
812 [label="X[0] <= 28.5\ngini = 0.587\nsamples = 15\nvalue = [1, 0, 3, 1, 9, 1, 0]"] ;
811 -> 812 ;
813 [label="X[1] <= 130877.5\ngini = 0.625\nsamples = 4\nvalue = [1, 0, 2, 0, 1, 0, 0]"] ;
812 -> 813 ;
814 [label="X[24] <= 0.5\ngini = 0.5\nsamples = 2\nvalue = [1, 0, 0, 0, 1, 0, 0]"] ;
813 -> 814 ;
815 [label="gini = 0.0\nsamples = 1\nvalue = [0, 0, 0, 0, 1, 0, 0]"] ;
814 -> 815 ;
816 [label="gini = 0.0\nsamples = 1\nvalue = [1, 0, 0, 0, 0, 0, 0]"] ;
814 -> 816 ;
817 [label="gini = 0.0\nsamples = 2\nvalue = [0, 0, 2, 0, 0, 0, 0]"] ;
813 -> 817 ;
818 [label="X[2] <= 15.0\ngini = 0.446\nsamples = 11\nvalue = [0, 0, 1, 1, 8, 1, 0]"] ;
812 -> 818 ;
819 [label="X[1] <= 114145.5\ngini = 0.34\nsamples = 10\nvalue = [0, 0, 1, 1, 8, 0, 0]"] ;
818 -> 819 ;
820 [label="gini = 0.0\nsamples = 4\nvalue = [0, 0, 0, 0, 4, 0, 0]"] ;
819 -> 820 ;
821 [label="X[1] <= 119335.5\ngini = 0.5\nsamples = 6\nvalue = [0, 0, 1, 1, 4, 0, 0]"] ;
819 -> 821 ;
822 [label="X[1] <= 117369.0\ngini = 0.5\nsamples = 2\nvalue = [0, 0, 1, 1, 0, 0, 0]"] ;
821 -> 822 ;
823 [label="gini = 0.0\nsamples = 1\nvalue = [0, 0, 0, 1, 0, 0, 0]"] ;
822 -> 823 ;
824 [label="gini = 0.0\nsamples = 1\nvalue = [0, 0, 1, 0, 0, 0, 0]"] ;
822 -> 824 ;
825 [label="gini = 0.0\nsamples = 4\nvalue = [0, 0, 0, 0, 4, 0, 0]"] ;
821 -> 825 ;
826 [label="gini = 0.0\nsamples = 1\nvalue = [0, 0, 0, 0, 0, 1, 0]"] ;
818 -> 826 ;
827 [label="X[1] <= 124451.0\ngini = 0.648\nsamples = 16\nvalue = [0, 0, 8, 4, 3, 1, 0]"] ;
811 -> 827 ;
828 [label="X[2] <= 13.5\ngini = 0.544\nsamples = 13\nvalue = [0, 0, 8, 2, 3, 0, 0]"] ;
827 -> 828 ;
829 [label="X[5] <= 58.0\ngini = 0.375\nsamples = 8\nvalue = [0, 0, 6, 2, 0, 0, 0]"] ;
828 -> 829 ;
830 [label="gini = 0.0\nsamples = 5\nvalue = [0, 0, 5, 0, 0, 0, 0]"] ;
829 -> 830 ;
831 [label="X[1] <= 117678.5\ngini = 0.444\nsamples = 3\nvalue = [0, 0, 1, 2, 0, 0, 0]"] ;
829 -> 831 ;
832 [label="gini = 0.0\nsamples = 2\nvalue = [0, 0, 0, 2, 0, 0, 0]"] ;
831 -> 832 ;
833 [label="gini = 0.0\nsamples = 1\nvalue = [0, 0, 1, 0, 0, 0, 0]"] ;
831 -> 833 ;
834 [label="X[0] <= 32.5\ngini = 0.48\nsamples = 5\nvalue = [0, 0, 2, 0, 3, 0, 0]"] ;
828 -> 834 ;
835 [label="gini = 0.0\nsamples = 2\nvalue = [0, 0, 2, 0, 0, 0, 0]"] ;
834 -> 835 ;
836 [label="gini = 0.0\nsamples = 3\nvalue = [0, 0, 0, 0, 3, 0, 0]"] ;
834 -> 836 ;
837 [label="X[2] <= 13.5\ngini = 0.444\nsamples = 3\nvalue = [0, 0, 0, 2, 0, 1, 0]"] ;
827 -> 837 ;
838 [label="gini = 0.0\nsamples = 2\nvalue = [0, 0, 0, 2, 0, 0, 0]"] ;
837 -> 838 ;
839 [label="gini = 0.0\nsamples = 1\nvalue = [0, 0, 0, 0, 0, 1, 0]"] ;
837 -> 839 ;
840 [label="X[0] <= 18.5\ngini = 0.399\nsamples = 201\nvalue = [5, 14, 154, 8, 17, 3, 0]"] ;
750 -> 840 ;
841 [label="gini = 0.0\nsamples = 1\nvalue = [0, 1, 0, 0, 0, 0, 0]"] ;
840 -> 841 ;
842 [label="X[2] <= 9.5\ngini = 0.393\nsamples = 200\nvalue = [5, 13, 154, 8, 17, 3, 0]"] ;
840 -> 842 ;
843 [label="X[19] <= 0.5\ngini = 0.227\nsamples = 73\nvalue = [0, 2, 64, 2, 4, 1, 0]"] ;
842 -> 843 ;
844 [label="X[4] <= 1894.5\ngini = 0.206\nsamples = 72\nvalue = [0, 2, 64, 2, 3, 1, 0]"] ;
843 -> 844 ;
845 [label="X[20] <= 0.5\ngini = 0.185\nsamples = 71\nvalue = [0, 2, 64, 2, 2, 1, 0]"] ;
844 -> 845 ;
846 [label="X[3] <= 4144.5\ngini = 0.164\nsamples = 69\nvalue = [0, 1, 63, 2, 2, 1, 0]"] ;
845 -> 846 ;
847 [label="X[0] <= 39.5\ngini = 0.142\nsamples = 67\nvalue = [0, 1, 62, 2, 1, 1, 0]"] ;
846 -> 847 ;
848 [label="X[1] <= 167115.0\ngini = 0.12\nsamples = 64\nvalue = [0, 1, 60, 2, 1, 0, 0]"] ;
847 -> 848 ;
849 [label="X[1] <= 161725.5\ngini = 0.406\nsamples = 8\nvalue = [0, 1, 6, 1, 0, 0, 0]"] ;
848 -> 849 ;
850 [label="gini = 0.0\nsamples = 6\nvalue = [0, 0, 6, 0, 0, 0, 0]"] ;
849 -> 850 ;
851 [label="X[1] <= 165371.0\ngini = 0.5\nsamples = 2\nvalue = [0, 1, 0, 1, 0, 0, 0]"] ;
849 -> 851 ;
852 [label="gini = 0.0\nsamples = 1\nvalue = [0, 1, 0, 0, 0, 0, 0]"] ;
851 -> 852 ;
853 [label="gini = 0.0\nsamples = 1\nvalue = [0, 0, 0, 1, 0, 0, 0]"] ;
851 -> 853 ;
854 [label="X[2] <= 3.5\ngini = 0.07\nsamples = 56\nvalue = [0, 0, 54, 1, 1, 0, 0]"] ;
848 -> 854 ;
855 [label="X[25] <= 0.5\ngini = 0.32\nsamples = 5\nvalue = [0, 0, 4, 0, 1, 0, 0]"] ;
854 -> 855 ;
856 [label="gini = 0.0\nsamples = 1\nvalue = [0, 0, 0, 0, 1, 0, 0]"] ;
855 -> 856 ;
857 [label="gini = 0.0\nsamples = 4\nvalue = [0, 0, 4, 0, 0, 0, 0]"] ;
855 -> 857 ;
858 [label="X[1] <= 351927.5\ngini = 0.038\nsamples = 51\nvalue = [0, 0, 50, 1, 0, 0, 0]"] ;
854 -> 858 ;
859 [label="gini = 0.0\nsamples = 45\nvalue = [0, 0, 45, 0, 0, 0, 0]"] ;
858 -> 859 ;
860 [label="X[1] <= 365426.0\ngini = 0.278\nsamples = 6\nvalue = [0, 0, 5, 1, 0, 0, 0]"] ;
858 -> 860 ;
861 [label="gini = 0.0\nsamples = 1\nvalue = [0, 0, 0, 1, 0, 0, 0]"] ;
860 -> 861 ;
862 [label="gini = 0.0\nsamples = 5\nvalue = [0, 0, 5, 0, 0, 0, 0]"] ;
860 -> 862 ;
863 [label="X[16] <= 0.5\ngini = 0.444\nsamples = 3\nvalue = [0, 0, 2, 0, 0, 1, 0]"] ;
847 -> 863 ;
864 [label="gini = 0.0\nsamples = 2\nvalue = [0, 0, 2, 0, 0, 0, 0]"] ;
863 -> 864 ;
865 [label="gini = 0.0\nsamples = 1\nvalue = [0, 0, 0, 0, 0, 1, 0]"] ;
863 -> 865 ;
866 [label="X[5] <= 70.0\ngini = 0.5\nsamples = 2\nvalue = [0, 0, 1, 0, 1, 0, 0]"] ;
846 -> 866 ;
867 [label="gini = 0.0\nsamples = 1\nvalue = [0, 0, 1, 0, 0, 0, 0]"] ;
866 -> 867 ;
868 [label="gini = 0.0\nsamples = 1\nvalue = [0, 0, 0, 0, 1, 0, 0]"] ;
866 -> 868 ;
869 [label="X[24] <= 0.5\ngini = 0.5\nsamples = 2\nvalue = [0, 1, 1, 0, 0, 0, 0]"] ;
845 -> 869 ;
870 [label="gini = 0.0\nsamples = 1\nvalue = [0, 0, 1, 0, 0, 0, 0]"] ;
869 -> 870 ;
871 [label="gini = 0.0\nsamples = 1\nvalue = [0, 1, 0, 0, 0, 0, 0]"] ;
869 -> 871 ;
872 [label="gini = 0.0\nsamples = 1\nvalue = [0, 0, 0, 0, 1, 0, 0]"] ;
844 -> 872 ;
873 [label="gini = 0.0\nsamples = 1\nvalue = [0, 0, 0, 0, 1, 0, 0]"] ;
843 -> 873 ;
874 [label="X[1] <= 395379.0\ngini = 0.476\nsamples = 127\nvalue = [5, 11, 90, 6, 13, 2, 0]"] ;
842 -> 874 ;
875 [label="X[14] <= 0.5\ngini = 0.443\nsamples = 120\nvalue = [4, 9, 88, 5, 12, 2, 0]"] ;
874 -> 875 ;
876 [label="X[2] <= 11.5\ngini = 0.435\nsamples = 119\nvalue = [4, 8, 88, 5, 12, 2, 0]"] ;
875 -> 876 ;
877 [label="X[5] <= 55.5\ngini = 0.559\nsamples = 49\nvalue = [2, 6, 31, 3, 7, 0, 0]"] ;
876 -> 877 ;
878 [label="X[17] <= 0.5\ngini = 0.36\nsamples = 28\nvalue = [0, 1, 22, 1, 4, 0, 0]"] ;
877 -> 878 ;
879 [label="X[2] <= 10.5\ngini = 0.321\nsamples = 27\nvalue = [0, 1, 22, 1, 3, 0, 0]"] ;
878 -> 879 ;
880 [label="X[1] <= 325698.5\ngini = 0.185\nsamples = 20\nvalue = [0, 1, 18, 1, 0, 0, 0]"] ;
879 -> 880 ;
881 [label="X[0] <= 25.5\ngini = 0.111\nsamples = 17\nvalue = [0, 1, 16, 0, 0, 0, 0]"] ;
880 -> 881 ;
882 [label="X[0] <= 23.0\ngini = 0.32\nsamples = 5\nvalue = [0, 1, 4, 0, 0, 0, 0]"] ;
881 -> 882 ;
883 [label="gini = 0.0\nsamples = 4\nvalue = [0, 0, 4, 0, 0, 0, 0]"] ;
882 -> 883 ;
884 [label="gini = 0.0\nsamples = 1\nvalue = [0, 1, 0, 0, 0, 0, 0]"] ;
882 -> 884 ;
885 [label="gini = 0.0\nsamples = 12\nvalue = [0, 0, 12, 0, 0, 0, 0]"] ;
881 -> 885 ;
886 [label="X[1] <= 335069.0\ngini = 0.444\nsamples = 3\nvalue = [0, 0, 2, 1, 0, 0, 0]"] ;
880 -> 886 ;
887 [label="gini = 0.0\nsamples = 1\nvalue = [0, 0, 0, 1, 0, 0, 0]"] ;
886 -> 887 ;
888 [label="gini = 0.0\nsamples = 2\nvalue = [0, 0, 2, 0, 0, 0, 0]"] ;
886 -> 888 ;
889 [label="X[3] <= 2193.0\ngini = 0.49\nsamples = 7\nvalue = [0, 0, 4, 0, 3, 0, 0]"] ;
879 -> 889 ;
890 [label="X[0] <= 24.0\ngini = 0.48\nsamples = 5\nvalue = [0, 0, 2, 0, 3, 0, 0]"] ;
889 -> 890 ;
891 [label="gini = 0.0\nsamples = 1\nvalue = [0, 0, 1, 0, 0, 0, 0]"] ;
890 -> 891 ;
892 [label="X[0] <= 36.0\ngini = 0.375\nsamples = 4\nvalue = [0, 0, 1, 0, 3, 0, 0]"] ;
890 -> 892 ;
893 [label="gini = 0.0\nsamples = 3\nvalue = [0, 0, 0, 0, 3, 0, 0]"] ;
892 -> 893 ;
894 [label="gini = 0.0\nsamples = 1\nvalue = [0, 0, 1, 0, 0, 0, 0]"] ;
892 -> 894 ;
895 [label="gini = 0.0\nsamples = 2\nvalue = [0, 0, 2, 0, 0, 0, 0]"] ;
889 -> 895 ;
896 [label="gini = 0.0\nsamples = 1\nvalue = [0, 0, 0, 0, 1, 0, 0]"] ;
878 -> 896 ;
897 [label="X[5] <= 58.0\ngini = 0.721\nsamples = 21\nvalue = [2, 5, 9, 2, 3, 0, 0]"] ;
877 -> 897 ;
898 [label="gini = 0.0\nsamples = 2\nvalue = [0, 2, 0, 0, 0, 0, 0]"] ;
897 -> 898 ;
899 [label="X[0] <= 32.5\ngini = 0.704\nsamples = 19\nvalue = [2, 3, 9, 2, 3, 0, 0]"] ;
897 -> 899 ;
900 [label="gini = 0.0\nsamples = 3\nvalue = [0, 0, 3, 0, 0, 0, 0]"] ;
899 -> 900 ;
901 [label="X[0] <= 36.5\ngini = 0.758\nsamples = 16\nvalue = [2, 3, 6, 2, 3, 0, 0]"] ;
899 -> 901 ;
902 [label="X[5] <= 67.5\ngini = 0.719\nsamples = 8\nvalue = [2, 3, 1, 0, 2, 0, 0]"] ;
901 -> 902 ;
903 [label="X[4] <= 752.0\ngini = 0.375\nsamples = 4\nvalue = [0, 3, 0, 0, 1, 0, 0]"] ;
902 -> 903 ;
904 [label="gini = 0.0\nsamples = 3\nvalue = [0, 3, 0, 0, 0, 0, 0]"] ;
903 -> 904 ;
905 [label="gini = 0.0\nsamples = 1\nvalue = [0, 0, 0, 0, 1, 0, 0]"] ;
903 -> 905 ;
906 [label="X[3] <= 2506.5\ngini = 0.625\nsamples = 4\nvalue = [2, 0, 1, 0, 1, 0, 0]"] ;
902 -> 906 ;
907 [label="X[1] <= 234097.5\ngini = 0.444\nsamples = 3\nvalue = [2, 0, 0, 0, 1, 0, 0]"] ;
906 -> 907 ;
908 [label="gini = 0.0\nsamples = 2\nvalue = [2, 0, 0, 0, 0, 0, 0]"] ;
907 -> 908 ;
909 [label="gini = 0.0\nsamples = 1\nvalue = [0, 0, 0, 0, 1, 0, 0]"] ;
907 -> 909 ;
910 [label="gini = 0.0\nsamples = 1\nvalue = [0, 0, 1, 0, 0, 0, 0]"] ;
906 -> 910 ;
911 [label="X[25] <= 0.5\ngini = 0.531\nsamples = 8\nvalue = [0, 0, 5, 2, 1, 0, 0]"] ;
901 -> 911 ;
912 [label="X[3] <= 2589.0\ngini = 0.444\nsamples = 3\nvalue = [0, 0, 1, 2, 0, 0, 0]"] ;
911 -> 912 ;
913 [label="gini = 0.0\nsamples = 2\nvalue = [0, 0, 0, 2, 0, 0, 0]"] ;
912 -> 913 ;
914 [label="gini = 0.0\nsamples = 1\nvalue = [0, 0, 1, 0, 0, 0, 0]"] ;
912 -> 914 ;
915 [label="X[0] <= 37.5\ngini = 0.32\nsamples = 5\nvalue = [0, 0, 4, 0, 1, 0, 0]"] ;
911 -> 915 ;
916 [label="X[1] <= 313470.5\ngini = 0.5\nsamples = 2\nvalue = [0, 0, 1, 0, 1, 0, 0]"] ;
915 -> 916 ;
917 [label="gini = 0.0\nsamples = 1\nvalue = [0, 0, 0, 0, 1, 0, 0]"] ;
916 -> 917 ;
918 [label="gini = 0.0\nsamples = 1\nvalue = [0, 0, 1, 0, 0, 0, 0]"] ;
916 -> 918 ;
919 [label="gini = 0.0\nsamples = 3\nvalue = [0, 0, 3, 0, 0, 0, 0]"] ;
915 -> 919 ;
920 [label="X[5] <= 55.5\ngini = 0.329\nsamples = 70\nvalue = [2, 2, 57, 2, 5, 2, 0]"] ;
876 -> 920 ;
921 [label="X[20] <= 0.5\ngini = 0.465\nsamples = 39\nvalue = [1, 2, 28, 2, 4, 2, 0]"] ;
920 -> 921 ;
922 [label="X[1] <= 193387.5\ngini = 0.442\nsamples = 38\nvalue = [1, 2, 28, 2, 3, 2, 0]"] ;
921 -> 922 ;
923 [label="X[1] <= 160778.5\ngini = 0.27\nsamples = 20\nvalue = [0, 1, 17, 0, 1, 1, 0]"] ;
922 -> 923 ;
924 [label="X[7] <= 0.5\ngini = 0.5\nsamples = 2\nvalue = [0, 0, 1, 0, 0, 1, 0]"] ;
923 -> 924 ;
925 [label="gini = 0.0\nsamples = 1\nvalue = [0, 0, 1, 0, 0, 0, 0]"] ;
924 -> 925 ;
926 [label="gini = 0.0\nsamples = 1\nvalue = [0, 0, 0, 0, 0, 1, 0]"] ;
924 -> 926 ;
927 [label="X[23] <= 0.5\ngini = 0.204\nsamples = 18\nvalue = [0, 1, 16, 0, 1, 0, 0]"] ;
923 -> 927 ;
928 [label="X[1] <= 169890.0\ngini = 0.142\nsamples = 13\nvalue = [0, 1, 12, 0, 0, 0, 0]"] ;
927 -> 928 ;
929 [label="X[0] <= 30.5\ngini = 0.5\nsamples = 2\nvalue = [0, 1, 1, 0, 0, 0, 0]"] ;
928 -> 929 ;
930 [label="gini = 0.0\nsamples = 1\nvalue = [0, 0, 1, 0, 0, 0, 0]"] ;
929 -> 930 ;
931 [label="gini = 0.0\nsamples = 1\nvalue = [0, 1, 0, 0, 0, 0, 0]"] ;
929 -> 931 ;
932 [label="gini = 0.0\nsamples = 11\nvalue = [0, 0, 11, 0, 0, 0, 0]"] ;
928 -> 932 ;
933 [label="X[1] <= 176148.5\ngini = 0.32\nsamples = 5\nvalue = [0, 0, 4, 0, 1, 0, 0]"] ;
927 -> 933 ;
934 [label="gini = 0.0\nsamples = 4\nvalue = [0, 0, 4, 0, 0, 0, 0]"] ;
933 -> 934 ;
935 [label="gini = 0.0\nsamples = 1\nvalue = [0, 0, 0, 0, 1, 0, 0]"] ;
933 -> 935 ;
936 [label="X[1] <= 225060.5\ngini = 0.593\nsamples = 18\nvalue = [1, 1, 11, 2, 2, 1, 0]"] ;
922 -> 936 ;
937 [label="X[9] <= 0.5\ngini = 0.833\nsamples = 6\nvalue = [1, 1, 1, 1, 1, 1, 0]"] ;
936 -> 937 ;
938 [label="X[13] <= 0.5\ngini = 0.667\nsamples = 3\nvalue = [1, 0, 1, 1, 0, 0, 0]"] ;
937 -> 938 ;
939 [label="X[1] <= 205433.0\ngini = 0.5\nsamples = 2\nvalue = [0, 0, 1, 1, 0, 0, 0]"] ;
938 -> 939 ;
940 [label="gini = 0.0\nsamples = 1\nvalue = [0, 0, 1, 0, 0, 0, 0]"] ;
939 -> 940 ;
941 [label="gini = 0.0\nsamples = 1\nvalue = [0, 0, 0, 1, 0, 0, 0]"] ;
939 -> 941 ;
942 [label="gini = 0.0\nsamples = 1\nvalue = [1, 0, 0, 0, 0, 0, 0]"] ;
938 -> 942 ;
943 [label="X[0] <= 26.5\ngini = 0.667\nsamples = 3\nvalue = [0, 1, 0, 0, 1, 1, 0]"] ;
937 -> 943 ;
944 [label="gini = 0.0\nsamples = 1\nvalue = [0, 0, 0, 0, 1, 0, 0]"] ;
943 -> 944 ;
945 [label="X[2] <= 13.5\ngini = 0.5\nsamples = 2\nvalue = [0, 1, 0, 0, 0, 1, 0]"] ;
943 -> 945 ;
946 [label="gini = 0.0\nsamples = 1\nvalue = [0, 1, 0, 0, 0, 0, 0]"] ;
945 -> 946 ;
947 [label="gini = 0.0\nsamples = 1\nvalue = [0, 0, 0, 0, 0, 1, 0]"] ;
945 -> 947 ;
948 [label="X[0] <= 39.5\ngini = 0.292\nsamples = 12\nvalue = [0, 0, 10, 1, 1, 0, 0]"] ;
936 -> 948 ;
949 [label="X[3] <= 7512.0\ngini = 0.165\nsamples = 11\nvalue = [0, 0, 10, 1, 0, 0, 0]"] ;
948 -> 949 ;
950 [label="gini = 0.0\nsamples = 10\nvalue = [0, 0, 10, 0, 0, 0, 0]"] ;
949 -> 950 ;
951 [label="gini = 0.0\nsamples = 1\nvalue = [0, 0, 0, 1, 0, 0, 0]"] ;
949 -> 951 ;
952 [label="gini = 0.0\nsamples = 1\nvalue = [0, 0, 0, 0, 1, 0, 0]"] ;
948 -> 952 ;
953 [label="gini = 0.0\nsamples = 1\nvalue = [0, 0, 0, 0, 1, 0, 0]"] ;
921 -> 953 ;
954 [label="X[2] <= 12.5\ngini = 0.123\nsamples = 31\nvalue = [1, 0, 29, 0, 1, 0, 0]"] ;
920 -> 954 ;
955 [label="X[1] <= 185661.0\ngini = 0.5\nsamples = 2\nvalue = [1, 0, 1, 0, 0, 0, 0]"] ;
954 -> 955 ;
956 [label="gini = 0.0\nsamples = 1\nvalue = [1, 0, 0, 0, 0, 0, 0]"] ;
955 -> 956 ;
957 [label="gini = 0.0\nsamples = 1\nvalue = [0, 0, 1, 0, 0, 0, 0]"] ;
955 -> 957 ;
958 [label="X[1] <= 175599.5\ngini = 0.067\nsamples = 29\nvalue = [0, 0, 28, 0, 1, 0, 0]"] ;
954 -> 958 ;
959 [label="X[1] <= 170502.5\ngini = 0.219\nsamples = 8\nvalue = [0, 0, 7, 0, 1, 0, 0]"] ;
958 -> 959 ;
960 [label="gini = 0.0\nsamples = 7\nvalue = [0, 0, 7, 0, 0, 0, 0]"] ;
959 -> 960 ;
961 [label="gini = 0.0\nsamples = 1\nvalue = [0, 0, 0, 0, 1, 0, 0]"] ;
959 -> 961 ;
962 [label="gini = 0.0\nsamples = 21\nvalue = [0, 0, 21, 0, 0, 0, 0]"] ;
958 -> 962 ;
963 [label="gini = 0.0\nsamples = 1\nvalue = [0, 1, 0, 0, 0, 0, 0]"] ;
875 -> 963 ;
964 [label="X[12] <= 0.5\ngini = 0.776\nsamples = 7\nvalue = [1, 2, 2, 1, 1, 0, 0]"] ;
874 -> 964 ;
965 [label="gini = 0.0\nsamples = 2\nvalue = [0, 2, 0, 0, 0, 0, 0]"] ;
964 -> 965 ;
966 [label="X[0] <= 34.5\ngini = 0.72\nsamples = 5\nvalue = [1, 0, 2, 1, 1, 0, 0]"] ;
964 -> 966 ;
967 [label="X[26] <= 0.5\ngini = 0.444\nsamples = 3\nvalue = [1, 0, 2, 0, 0, 0, 0]"] ;
966 -> 967 ;
968 [label="gini = 0.0\nsamples = 1\nvalue = [1, 0, 0, 0, 0, 0, 0]"] ;
967 -> 968 ;
969 [label="gini = 0.0\nsamples = 2\nvalue = [0, 0, 2, 0, 0, 0, 0]"] ;
967 -> 969 ;
970 [label="X[25] <= 0.5\ngini = 0.5\nsamples = 2\nvalue = [0, 0, 0, 1, 1, 0, 0]"] ;
966 -> 970 ;
971 [label="gini = 0.0\nsamples = 1\nvalue = [0, 0, 0, 1, 0, 0, 0]"] ;
970 -> 971 ;
972 [label="gini = 0.0\nsamples = 1\nvalue = [0, 0, 0, 0, 1, 0, 0]"] ;
970 -> 972 ;
973 [label="gini = 0.0\nsamples = 3\nvalue = [0, 0, 0, 0, 3, 0, 0]"] ;
749 -> 973 ;
974 [label="X[5] <= 57.5\ngini = 0.578\nsamples = 1289\nvalue = [56, 111, 804, 92, 162, 63, 1]"] ;
0 -> 974 [labeldistance=2.5, labelangle=-45, headlabel="False"] ;
975 [label="X[2] <= 10.5\ngini = 0.549\nsamples = 1155\nvalue = [51, 101, 751, 62, 132, 57, 1]"] ;
974 -> 975 ;
976 [label="X[3] <= 12325.0\ngini = 0.481\nsamples = 742\nvalue = [34, 58, 524, 32, 71, 23, 0]"] ;
975 -> 976 ;
977 [label="X[24] <= 0.5\ngini = 0.472\nsamples = 725\nvalue = [32, 58, 517, 26, 69, 23, 0]"] ;
976 -> 977 ;
978 [label="X[5] <= 40.5\ngini = 0.415\nsamples = 238\nvalue = [14, 28, 179, 2, 5, 10, 0]"] ;
977 -> 978 ;
979 [label="X[2] <= 8.0\ngini = 0.443\nsamples = 211\nvalue = [14, 28, 154, 2, 3, 10, 0]"] ;
978 -> 979 ;
980 [label="X[19] <= 0.5\ngini = 0.265\nsamples = 41\nvalue = [1, 2, 35, 0, 2, 1, 0]"] ;
979 -> 980 ;
981 [label="X[2] <= 4.5\ngini = 0.229\nsamples = 40\nvalue = [1, 2, 35, 0, 2, 0, 0]"] ;
980 -> 981 ;
982 [label="gini = 0.0\nsamples = 16\nvalue = [0, 0, 16, 0, 0, 0, 0]"] ;
981 -> 982 ;
983 [label="X[0] <= 56.5\ngini = 0.358\nsamples = 24\nvalue = [1, 2, 19, 0, 2, 0, 0]"] ;
981 -> 983 ;
984 [label="X[1] <= 304538.0\ngini = 0.227\nsamples = 16\nvalue = [1, 0, 14, 0, 1, 0, 0]"] ;
983 -> 984 ;
985 [label="X[5] <= 22.5\ngini = 0.124\nsamples = 15\nvalue = [0, 0, 14, 0, 1, 0, 0]"] ;
984 -> 985 ;
986 [label="X[8] <= 0.5\ngini = 0.5\nsamples = 2\nvalue = [0, 0, 1, 0, 1, 0, 0]"] ;
985 -> 986 ;
987 [label="gini = 0.0\nsamples = 1\nvalue = [0, 0, 0, 0, 1, 0, 0]"] ;
986 -> 987 ;
988 [label="gini = 0.0\nsamples = 1\nvalue = [0, 0, 1, 0, 0, 0, 0]"] ;
986 -> 988 ;
989 [label="gini = 0.0\nsamples = 13\nvalue = [0, 0, 13, 0, 0, 0, 0]"] ;
985 -> 989 ;
990 [label="gini = 0.0\nsamples = 1\nvalue = [1, 0, 0, 0, 0, 0, 0]"] ;
984 -> 990 ;
991 [label="X[0] <= 62.0\ngini = 0.531\nsamples = 8\nvalue = [0, 2, 5, 0, 1, 0, 0]"] ;
983 -> 991 ;
992 [label="X[1] <= 145336.0\ngini = 0.444\nsamples = 3\nvalue = [0, 2, 0, 0, 1, 0, 0]"] ;
991 -> 992 ;
993 [label="gini = 0.0\nsamples = 1\nvalue = [0, 0, 0, 0, 1, 0, 0]"] ;
992 -> 993 ;
994 [label="gini = 0.0\nsamples = 2\nvalue = [0, 2, 0, 0, 0, 0, 0]"] ;
992 -> 994 ;
995 [label="gini = 0.0\nsamples = 5\nvalue = [0, 0, 5, 0, 0, 0, 0]"] ;
991 -> 995 ;
996 [label="gini = 0.0\nsamples = 1\nvalue = [0, 0, 0, 0, 0, 1, 0]"] ;
980 -> 996 ;
997 [label="X[1] <= 334487.0\ngini = 0.478\nsamples = 170\nvalue = [13, 26, 119, 2, 1, 9, 0]"] ;
979 -> 997 ;
998 [label="X[20] <= 0.5\ngini = 0.455\nsamples = 160\nvalue = [11, 23, 115, 2, 1, 8, 0]"] ;
997 -> 998 ;
999 [label="X[0] <= 56.5\ngini = 0.425\nsamples = 144\nvalue = [8, 19, 107, 2, 1, 7, 0]"] ;
998 -> 999 ;
1000 [label="X[19] <= 0.5\ngini = 0.383\nsamples = 107\nvalue = [5, 10, 83, 1, 1, 7, 0]"] ;
999 -> 1000 ;
1001 [label="X[16] <= 0.5\ngini = 0.365\nsamples = 104\nvalue = [4, 9, 82, 1, 1, 7, 0]"] ;
1000 -> 1001 ;
1002 [label="X[2] <= 9.5\ngini = 0.451\nsamples = 73\nvalue = [4, 8, 53, 1, 1, 6, 0]"] ;
1001 -> 1002 ;
1003 [label="X[5] <= 13.0\ngini = 0.368\nsamples = 46\nvalue = [2, 6, 36, 0, 1, 1, 0]"] ;
1002 -> 1003 ;
1004 [label="X[0] <= 50.0\ngini = 0.5\nsamples = 2\nvalue = [1, 1, 0, 0, 0, 0, 0]"] ;
1003 -> 1004 ;
1005 [label="gini = 0.0\nsamples = 1\nvalue = [0, 1, 0, 0, 0, 0, 0]"] ;
1004 -> 1005 ;
1006 [label="gini = 0.0\nsamples = 1\nvalue = [1, 0, 0, 0, 0, 0, 0]"] ;
1004 -> 1006 ;
1007 [label="X[4] <= 924.0\ngini = 0.316\nsamples = 44\nvalue = [1, 5, 36, 0, 1, 1, 0]"] ;
1003 -> 1007 ;
1008 [label="X[0] <= 41.5\ngini = 0.289\nsamples = 43\nvalue = [1, 4, 36, 0, 1, 1, 0]"] ;
1007 -> 1008 ;
1009 [label="X[1] <= 194163.5\ngini = 0.5\nsamples = 2\nvalue = [0, 0, 1, 0, 1, 0, 0]"] ;
1008 -> 1009 ;
1010 [label="gini = 0.0\nsamples = 1\nvalue = [0, 0, 1, 0, 0, 0, 0]"] ;
1009 -> 1010 ;
1011 [label="gini = 0.0\nsamples = 1\nvalue = [0, 0, 0, 0, 1, 0, 0]"] ;
1009 -> 1011 ;
1012 [label="X[1] <= 29040.5\ngini = 0.261\nsamples = 41\nvalue = [1, 4, 35, 0, 0, 1, 0]"] ;
1008 -> 1012 ;
1013 [label="X[5] <= 38.5\ngini = 0.5\nsamples = 2\nvalue = [1, 0, 1, 0, 0, 0, 0]"] ;
1012 -> 1013 ;
1014 [label="gini = 0.0\nsamples = 1\nvalue = [0, 0, 1, 0, 0, 0, 0]"] ;
1013 -> 1014 ;
1015 [label="gini = 0.0\nsamples = 1\nvalue = [1, 0, 0, 0, 0, 0, 0]"] ;
1013 -> 1015 ;
1016 [label="X[11] <= 0.5\ngini = 0.229\nsamples = 39\nvalue = [0, 4, 34, 0, 0, 1, 0]"] ;
1012 -> 1016 ;
1017 [label="X[0] <= 43.5\ngini = 0.197\nsamples = 37\nvalue = [0, 3, 33, 0, 0, 1, 0]"] ;
1016 -> 1017 ;
1018 [label="X[1] <= 144471.5\ngini = 0.375\nsamples = 4\nvalue = [0, 0, 3, 0, 0, 1, 0]"] ;
1017 -> 1018 ;
1019 [label="gini = 0.0\nsamples = 1\nvalue = [0, 0, 0, 0, 0, 1, 0]"] ;
1018 -> 1019 ;
1020 [label="gini = 0.0\nsamples = 3\nvalue = [0, 0, 3, 0, 0, 0, 0]"] ;
1018 -> 1020 ;
1021 [label="X[1] <= 135321.0\ngini = 0.165\nsamples = 33\nvalue = [0, 3, 30, 0, 0, 0, 0]"] ;
1017 -> 1021 ;
1022 [label="gini = 0.0\nsamples = 12\nvalue = [0, 0, 12, 0, 0, 0, 0]"] ;
1021 -> 1022 ;
1023 [label="X[1] <= 137424.5\ngini = 0.245\nsamples = 21\nvalue = [0, 3, 18, 0, 0, 0, 0]"] ;
1021 -> 1023 ;
1024 [label="gini = 0.0\nsamples = 1\nvalue = [0, 1, 0, 0, 0, 0, 0]"] ;
1023 -> 1024 ;
1025 [label="X[6] <= 0.5\ngini = 0.18\nsamples = 20\nvalue = [0, 2, 18, 0, 0, 0, 0]"] ;
1023 -> 1025 ;
1026 [label="gini = 0.0\nsamples = 10\nvalue = [0, 0, 10, 0, 0, 0, 0]"] ;
1025 -> 1026 ;
1027 [label="X[1] <= 148736.0\ngini = 0.32\nsamples = 10\nvalue = [0, 2, 8, 0, 0, 0, 0]"] ;
1025 -> 1027 ;
1028 [label="gini = 0.0\nsamples = 1\nvalue = [0, 1, 0, 0, 0, 0, 0]"] ;
1027 -> 1028 ;
1029 [label="X[0] <= 55.5\ngini = 0.198\nsamples = 9\nvalue = [0, 1, 8, 0, 0, 0, 0]"] ;
1027 -> 1029 ;
1030 [label="gini = 0.0\nsamples = 6\nvalue = [0, 0, 6, 0, 0, 0, 0]"] ;
1029 -> 1030 ;
1031 [label="X[1] <= 226897.0\ngini = 0.444\nsamples = 3\nvalue = [0, 1, 2, 0, 0, 0, 0]"] ;
1029 -> 1031 ;
1032 [label="gini = 0.0\nsamples = 2\nvalue = [0, 0, 2, 0, 0, 0, 0]"] ;
1031 -> 1032 ;
1033 [label="gini = 0.0\nsamples = 1\nvalue = [0, 1, 0, 0, 0, 0, 0]"] ;
1031 -> 1033 ;
1034 [label="X[1] <= 141616.5\ngini = 0.5\nsamples = 2\nvalue = [0, 1, 1, 0, 0, 0, 0]"] ;
1016 -> 1034 ;
1035 [label="gini = 0.0\nsamples = 1\nvalue = [0, 0, 1, 0, 0, 0, 0]"] ;
1034 -> 1035 ;
1036 [label="gini = 0.0\nsamples = 1\nvalue = [0, 1, 0, 0, 0, 0, 0]"] ;
1034 -> 1036 ;
1037 [label="gini = 0.0\nsamples = 1\nvalue = [0, 1, 0, 0, 0, 0, 0]"] ;
1007 -> 1037 ;
1038 [label="X[15] <= 0.5\ngini = 0.557\nsamples = 27\nvalue = [2, 2, 17, 1, 0, 5, 0]"] ;
1002 -> 1038 ;
1039 [label="X[0] <= 48.5\ngini = 0.536\nsamples = 26\nvalue = [2, 2, 17, 1, 0, 4, 0]"] ;
1038 -> 1039 ;
1040 [label="X[6] <= 0.5\ngini = 0.292\nsamples = 12\nvalue = [0, 1, 10, 1, 0, 0, 0]"] ;
1039 -> 1040 ;
1041 [label="gini = 0.0\nsamples = 8\nvalue = [0, 0, 8, 0, 0, 0, 0]"] ;
1040 -> 1041 ;
1042 [label="X[1] <= 167364.0\ngini = 0.625\nsamples = 4\nvalue = [0, 1, 2, 1, 0, 0, 0]"] ;
1040 -> 1042 ;
1043 [label="X[1] <= 150346.0\ngini = 0.5\nsamples = 2\nvalue = [0, 1, 0, 1, 0, 0, 0]"] ;
1042 -> 1043 ;
1044 [label="gini = 0.0\nsamples = 1\nvalue = [0, 0, 0, 1, 0, 0, 0]"] ;
1043 -> 1044 ;
1045 [label="gini = 0.0\nsamples = 1\nvalue = [0, 1, 0, 0, 0, 0, 0]"] ;
1043 -> 1045 ;
1046 [label="gini = 0.0\nsamples = 2\nvalue = [0, 0, 2, 0, 0, 0, 0]"] ;
1042 -> 1046 ;
1047 [label="X[1] <= 133372.5\ngini = 0.643\nsamples = 14\nvalue = [2, 1, 7, 0, 0, 4, 0]"] ;
1039 -> 1047 ;
1048 [label="X[0] <= 54.0\ngini = 0.56\nsamples = 5\nvalue = [1, 1, 3, 0, 0, 0, 0]"] ;
1047 -> 1048 ;
1049 [label="X[1] <= 65646.0\ngini = 0.375\nsamples = 4\nvalue = [0, 1, 3, 0, 0, 0, 0]"] ;
1048 -> 1049 ;
1050 [label="gini = 0.0\nsamples = 2\nvalue = [0, 0, 2, 0, 0, 0, 0]"] ;
1049 -> 1050 ;
1051 [label="X[11] <= 0.5\ngini = 0.5\nsamples = 2\nvalue = [0, 1, 1, 0, 0, 0, 0]"] ;
1049 -> 1051 ;
1052 [label="gini = 0.0\nsamples = 1\nvalue = [0, 1, 0, 0, 0, 0, 0]"] ;
1051 -> 1052 ;
1053 [label="gini = 0.0\nsamples = 1\nvalue = [0, 0, 1, 0, 0, 0, 0]"] ;
1051 -> 1053 ;
1054 [label="gini = 0.0\nsamples = 1\nvalue = [1, 0, 0, 0, 0, 0, 0]"] ;
1048 -> 1054 ;
1055 [label="X[1] <= 155292.5\ngini = 0.593\nsamples = 9\nvalue = [1, 0, 4, 0, 0, 4, 0]"] ;
1047 -> 1055 ;
1056 [label="gini = 0.0\nsamples = 2\nvalue = [0, 0, 0, 0, 0, 2, 0]"] ;
1055 -> 1056 ;
1057 [label="X[1] <= 188244.5\ngini = 0.571\nsamples = 7\nvalue = [1, 0, 4, 0, 0, 2, 0]"] ;
1055 -> 1057 ;
1058 [label="gini = 0.0\nsamples = 3\nvalue = [0, 0, 3, 0, 0, 0, 0]"] ;
1057 -> 1058 ;
1059 [label="X[0] <= 51.5\ngini = 0.625\nsamples = 4\nvalue = [1, 0, 1, 0, 0, 2, 0]"] ;
1057 -> 1059 ;
1060 [label="gini = 0.0\nsamples = 2\nvalue = [0, 0, 0, 0, 0, 2, 0]"] ;
1059 -> 1060 ;
1061 [label="X[1] <= 227897.0\ngini = 0.5\nsamples = 2\nvalue = [1, 0, 1, 0, 0, 0, 0]"] ;
1059 -> 1061 ;
1062 [label="gini = 0.0\nsamples = 1\nvalue = [1, 0, 0, 0, 0, 0, 0]"] ;
1061 -> 1062 ;
1063 [label="gini = 0.0\nsamples = 1\nvalue = [0, 0, 1, 0, 0, 0, 0]"] ;
1061 -> 1063 ;
1064 [label="gini = 0.0\nsamples = 1\nvalue = [0, 0, 0, 0, 0, 1, 0]"] ;
1038 -> 1064 ;
1065 [label="X[0] <= 45.5\ngini = 0.123\nsamples = 31\nvalue = [0, 1, 29, 0, 0, 1, 0]"] ;
1001 -> 1065 ;
1066 [label="X[1] <= 227418.0\ngini = 0.34\nsamples = 10\nvalue = [0, 1, 8, 0, 0, 1, 0]"] ;
1065 -> 1066 ;
1067 [label="X[25] <= 0.5\ngini = 0.198\nsamples = 9\nvalue = [0, 0, 8, 0, 0, 1, 0]"] ;
1066 -> 1067 ;
1068 [label="X[1] <= 103307.5\ngini = 0.5\nsamples = 2\nvalue = [0, 0, 1, 0, 0, 1, 0]"] ;
1067 -> 1068 ;
1069 [label="gini = 0.0\nsamples = 1\nvalue = [0, 0, 1, 0, 0, 0, 0]"] ;
1068 -> 1069 ;
1070 [label="gini = 0.0\nsamples = 1\nvalue = [0, 0, 0, 0, 0, 1, 0]"] ;
1068 -> 1070 ;
