digraph Tree {
node [shape=box] ;
0 [label="X[2] <= 12.5\ngini = 0.895\nsamples = 3011\nvalue = [358, 1, 383, 399, 97, 137, 178, 322, 20, 423, 58\n371, 100, 164]"] ;
1 [label="X[24] <= 0.5\ngini = 0.895\nsamples = 2226\nvalue = [309, 1, 354, 199, 84, 134, 170, 304, 18, 112, 51\n259, 74, 157]"] ;
0 -> 1 [labeldistance=2.5, labelangle=45, headlabel="True"] ;
2 [label="X[2] <= 7.5\ngini = 0.833\nsamples = 740\nvalue = [210, 0, 18, 69, 6, 16, 48, 161, 17, 57, 7, 97\n29, 5]"] ;
1 -> 2 ;
3 [label="X[0] <= 63.5\ngini = 0.775\nsamples = 106\nvalue = [9, 0, 2, 2, 3, 6, 13, 45, 10, 3, 1, 9, 1, 2]"] ;
2 -> 3 ;
4 [label="X[3] <= 8456.5\ngini = 0.76\nsamples = 94\nvalue = [7, 0, 2, 2, 3, 6, 12, 42, 4, 3, 1, 9, 1, 2]"] ;
3 -> 4 ;
5 [label="X[5] <= 39.0\ngini = 0.75\nsamples = 92\nvalue = [7, 0, 0, 2, 3, 6, 12, 42, 4, 3, 1, 9, 1, 2]"] ;
4 -> 5 ;
6 [label="X[2] <= 5.5\ngini = 0.7\nsamples = 44\nvalue = [3, 0, 0, 1, 0, 3, 0, 22, 3, 1, 1, 8, 1, 1]"] ;
5 -> 6 ;
7 [label="X[4] <= 797.0\ngini = 0.379\nsamples = 13\nvalue = [0, 0, 0, 0, 0, 1, 0, 10, 2, 0, 0, 0, 0, 0]"] ;
6 -> 7 ;
8 [label="X[0] <= 40.0\ngini = 0.292\nsamples = 12\nvalue = [0, 0, 0, 0, 0, 1, 0, 10, 1, 0, 0, 0, 0, 0]"] ;
7 -> 8 ;
9 [label="X[5] <= 25.0\ngini = 0.56\nsamples = 5\nvalue = [0, 0, 0, 0, 0, 1, 0, 3, 1, 0, 0, 0, 0, 0]"] ;
8 -> 9 ;
10 [label="gini = 0.0\nsamples = 3\nvalue = [0, 0, 0, 0, 0, 0, 0, 3, 0, 0, 0, 0, 0, 0]"] ;
9 -> 10 ;
11 [label="X[5] <= 32.5\ngini = 0.5\nsamples = 2\nvalue = [0, 0, 0, 0, 0, 1, 0, 0, 1, 0, 0, 0, 0, 0]"] ;
9 -> 11 ;
12 [label="gini = 0.0\nsamples = 1\nvalue = [0, 0, 0, 0, 0, 1, 0, 0, 0, 0, 0, 0, 0, 0]"] ;
11 -> 12 ;
13 [label="gini = 0.0\nsamples = 1\nvalue = [0, 0, 0, 0, 0, 0, 0, 0, 1, 0, 0, 0, 0, 0]"] ;
11 -> 13 ;
14 [label="gini = 0.0\nsamples = 7\nvalue = [0, 0, 0, 0, 0, 0, 0, 7, 0, 0, 0, 0, 0, 0]"] ;
8 -> 14 ;
15 [label="gini = 0.0\nsamples = 1\nvalue = [0, 0, 0, 0, 0, 0, 0, 0, 1, 0, 0, 0, 0, 0]"] ;
7 -> 15 ;
16 [label="X[17] <= 0.5\ngini = 0.764\nsamples = 31\nvalue = [3, 0, 0, 1, 0, 2, 0, 12, 1, 1, 1, 8, 1, 1]"] ;
6 -> 16 ;
17 [label="X[5] <= 19.0\ngini = 0.727\nsamples = 27\nvalue = [3, 0, 0, 0, 0, 0, 0, 11, 1, 1, 1, 8, 1, 1]"] ;
16 -> 17 ;
18 [label="X[0] <= 17.5\ngini = 0.617\nsamples = 9\nvalue = [1, 0, 0, 0, 0, 0, 0, 2, 0, 1, 0, 5, 0, 0]"] ;
17 -> 18 ;
19 [label="X[1] <= 54511.0\ngini = 0.449\nsamples = 7\nvalue = [1, 0, 0, 0, 0, 0, 0, 1, 0, 0, 0, 5, 0, 0]"] ;
18 -> 19 ;
20 [label="gini = 0.0\nsamples = 1\nvalue = [0, 0, 0, 0, 0, 0, 0, 1, 0, 0, 0, 0, 0, 0]"] ;
19 -> 20 ;
21 [label="X[14] <= 0.5\ngini = 0.278\nsamples = 6\nvalue = [1, 0, 0, 0, 0, 0, 0, 0, 0, 0, 0, 5, 0, 0]"] ;
19 -> 21 ;
22 [label="gini = 0.0\nsamples = 5\nvalue = [0, 0, 0, 0, 0, 0, 0, 0, 0, 0, 0, 5, 0, 0]"] ;
21 -> 22 ;
23 [label="gini = 0.0\nsamples = 1\nvalue = [1, 0, 0, 0, 0, 0, 0, 0, 0, 0, 0, 0, 0, 0]"] ;
21 -> 23 ;
24 [label="X[14] <= 0.5\ngini = 0.5\nsamples = 2\nvalue = [0, 0, 0, 0, 0, 0, 0, 1, 0, 1, 0, 0, 0, 0]"] ;
18 -> 24 ;
25 [label="gini = 0.0\nsamples = 1\nvalue = [0, 0, 0, 0, 0, 0, 0, 0, 0, 1, 0, 0, 0, 0]"] ;
24 -> 25 ;
26 [label="gini = 0.0\nsamples = 1\nvalue = [0, 0, 0, 0, 0, 0, 0, 1, 0, 0, 0, 0, 0, 0]"] ;
24 -> 26 ;
27 [label="X[1] <= 109541.0\ngini = 0.698\nsamples = 18\nvalue = [2, 0, 0, 0, 0, 0, 0, 9, 1, 0, 1, 3, 1, 1]"] ;
17 -> 27 ;
28 [label="X[9] <= 0.5\ngini = 0.5\nsamples = 2\nvalue = [1, 0, 0, 0, 0, 0, 0, 0, 0, 0, 0, 0, 0, 1]"] ;
27 -> 28 ;
29 [label="gini = 0.0\nsamples = 1\nvalue = [0, 0, 0, 0, 0, 0, 0, 0, 0, 0, 0, 0, 0, 1]"] ;
28 -> 29 ;
30 [label="gini = 0.0\nsamples = 1\nvalue = [1, 0, 0, 0, 0, 0, 0, 0, 0, 0, 0, 0, 0, 0]"] ;
28 -> 30 ;
31 [label="X[16] <= 0.5\ngini = 0.633\nsamples = 16\nvalue = [1, 0, 0, 0, 0, 0, 0, 9, 1, 0, 1, 3, 1, 0]"] ;
27 -> 31 ;
32 [label="X[5] <= 27.5\ngini = 0.6\nsamples = 10\nvalue = [1, 0, 0, 0, 0, 0, 0, 6, 1, 0, 1, 0, 1, 0]"] ;
31 -> 32 ;
33 [label="X[0] <= 17.5\ngini = 0.449\nsamples = 7\nvalue = [1, 0, 0, 0, 0, 0, 0, 5, 1, 0, 0, 0, 0, 0]"] ;
32 -> 33 ;
34 [label="gini = 0.0\nsamples = 3\nvalue = [0, 0, 0, 0, 0, 0, 0, 3, 0, 0, 0, 0, 0, 0]"] ;
33 -> 34 ;
35 [label="X[1] <= 244535.0\ngini = 0.625\nsamples = 4\nvalue = [1, 0, 0, 0, 0, 0, 0, 2, 1, 0, 0, 0, 0, 0]"] ;
33 -> 35 ;
36 [label="gini = 0.0\nsamples = 1\nvalue = [1, 0, 0, 0, 0, 0, 0, 0, 0, 0, 0, 0, 0, 0]"] ;
35 -> 36 ;
37 [label="X[2] <= 6.5\ngini = 0.444\nsamples = 3\nvalue = [0, 0, 0, 0, 0, 0, 0, 2, 1, 0, 0, 0, 0, 0]"] ;
35 -> 37 ;
38 [label="gini = 0.0\nsamples = 1\nvalue = [0, 0, 0, 0, 0, 0, 0, 0, 1, 0, 0, 0, 0, 0]"] ;
37 -> 38 ;
39 [label="gini = 0.0\nsamples = 2\nvalue = [0, 0, 0, 0, 0, 0, 0, 2, 0, 0, 0, 0, 0, 0]"] ;
37 -> 39 ;
40 [label="X[5] <= 32.5\ngini = 0.667\nsamples = 3\nvalue = [0, 0, 0, 0, 0, 0, 0, 1, 0, 0, 1, 0, 1, 0]"] ;
32 -> 40 ;
41 [label="gini = 0.0\nsamples = 1\nvalue = [0, 0, 0, 0, 0, 0, 0, 0, 0, 0, 1, 0, 0, 0]"] ;
40 -> 41 ;
42 [label="X[13] <= 0.5\ngini = 0.5\nsamples = 2\nvalue = [0, 0, 0, 0, 0, 0, 0, 1, 0, 0, 0, 0, 1, 0]"] ;
40 -> 42 ;
43 [label="gini = 0.0\nsamples = 1\nvalue = [0, 0, 0, 0, 0, 0, 0, 0, 0, 0, 0, 0, 1, 0]"] ;
42 -> 43 ;
44 [label="gini = 0.0\nsamples = 1\nvalue = [0, 0, 0, 0, 0, 0, 0, 1, 0, 0, 0, 0, 0, 0]"] ;
42 -> 44 ;
45 [label="X[1] <= 184538.0\ngini = 0.5\nsamples = 6\nvalue = [0, 0, 0, 0, 0, 0, 0, 3, 0, 0, 0, 3, 0, 0]"] ;
31 -> 45 ;
46 [label="gini = 0.0\nsamples = 2\nvalue = [0, 0, 0, 0, 0, 0, 0, 2, 0, 0, 0, 0, 0, 0]"] ;
45 -> 46 ;
47 [label="X[10] <= 0.5\ngini = 0.375\nsamples = 4\nvalue = [0, 0, 0, 0, 0, 0, 0, 1, 0, 0, 0, 3, 0, 0]"] ;
45 -> 47 ;
48 [label="gini = 0.0\nsamples = 2\nvalue = [0, 0, 0, 0, 0, 0, 0, 0, 0, 0, 0, 2, 0, 0]"] ;
47 -> 48 ;
49 [label="X[22] <= 0.5\ngini = 0.5\nsamples = 2\nvalue = [0, 0, 0, 0, 0, 0, 0, 1, 0, 0, 0, 1, 0, 0]"] ;
47 -> 49 ;
50 [label="gini = 0.0\nsamples = 1\nvalue = [0, 0, 0, 0, 0, 0, 0, 0, 0, 0, 0, 1, 0, 0]"] ;
49 -> 50 ;
51 [label="gini = 0.0\nsamples = 1\nvalue = [0, 0, 0, 0, 0, 0, 0, 1, 0, 0, 0, 0, 0, 0]"] ;
49 -> 51 ;
52 [label="X[5] <= 28.5\ngini = 0.625\nsamples = 4\nvalue = [0, 0, 0, 1, 0, 2, 0, 1, 0, 0, 0, 0, 0, 0]"] ;
16 -> 52 ;
53 [label="gini = 0.0\nsamples = 2\nvalue = [0, 0, 0, 0, 0, 2, 0, 0, 0, 0, 0, 0, 0, 0]"] ;
52 -> 53 ;
54 [label="X[0] <= 52.0\ngini = 0.5\nsamples = 2\nvalue = [0, 0, 0, 1, 0, 0, 0, 1, 0, 0, 0, 0, 0, 0]"] ;
52 -> 54 ;
55 [label="gini = 0.0\nsamples = 1\nvalue = [0, 0, 0, 0, 0, 0, 0, 1, 0, 0, 0, 0, 0, 0]"] ;
54 -> 55 ;
56 [label="gini = 0.0\nsamples = 1\nvalue = [0, 0, 0, 1, 0, 0, 0, 0, 0, 0, 0, 0, 0, 0]"] ;
54 -> 56 ;
57 [label="X[10] <= 0.5\ngini = 0.746\nsamples = 48\nvalue = [4, 0, 0, 1, 3, 3, 12, 20, 1, 2, 0, 1, 0, 1]"] ;
5 -> 57 ;
58 [label="X[2] <= 3.5\ngini = 0.739\nsamples = 44\nvalue = [4, 0, 0, 1, 3, 3, 8, 20, 1, 2, 0, 1, 0, 1]"] ;
57 -> 58 ;
59 [label="X[15] <= 0.5\ngini = 0.56\nsamples = 5\nvalue = [0, 0, 0, 0, 0, 1, 3, 0, 1, 0, 0, 0, 0, 0]"] ;
58 -> 59 ;
60 [label="X[1] <= 518055.5\ngini = 0.375\nsamples = 4\nvalue = [0, 0, 0, 0, 0, 1, 3, 0, 0, 0, 0, 0, 0, 0]"] ;
59 -> 60 ;
61 [label="gini = 0.0\nsamples = 3\nvalue = [0, 0, 0, 0, 0, 0, 3, 0, 0, 0, 0, 0, 0, 0]"] ;
60 -> 61 ;
62 [label="gini = 0.0\nsamples = 1\nvalue = [0, 0, 0, 0, 0, 1, 0, 0, 0, 0, 0, 0, 0, 0]"] ;
60 -> 62 ;
63 [label="gini = 0.0\nsamples = 1\nvalue = [0, 0, 0, 0, 0, 0, 0, 0, 1, 0, 0, 0, 0, 0]"] ;
59 -> 63 ;
64 [label="X[1] <= 371035.5\ngini = 0.697\nsamples = 39\nvalue = [4, 0, 0, 1, 3, 2, 5, 20, 0, 2, 0, 1, 0, 1]"] ;
58 -> 64 ;
65 [label="X[0] <= 47.0\ngini = 0.651\nsamples = 36\nvalue = [4, 0, 0, 1, 1, 2, 5, 20, 0, 2, 0, 1, 0, 0]"] ;
64 -> 65 ;
66 [label="X[5] <= 42.5\ngini = 0.743\nsamples = 27\nvalue = [4, 0, 0, 1, 1, 2, 4, 12, 0, 2, 0, 1, 0, 0]"] ;
65 -> 66 ;
67 [label="X[1] <= 128615.0\ngini = 0.645\nsamples = 22\nvalue = [4, 0, 0, 0, 1, 1, 3, 12, 0, 1, 0, 0, 0, 0]"] ;
66 -> 67 ;
68 [label="X[1] <= 98708.5\ngini = 0.625\nsamples = 4\nvalue = [0, 0, 0, 0, 0, 0, 2, 1, 0, 1, 0, 0, 0, 0]"] ;
67 -> 68 ;
69 [label="X[1] <= 85771.0\ngini = 0.5\nsamples = 2\nvalue = [0, 0, 0, 0, 0, 0, 0, 1, 0, 1, 0, 0, 0, 0]"] ;
68 -> 69 ;
70 [label="gini = 0.0\nsamples = 1\nvalue = [0, 0, 0, 0, 0, 0, 0, 1, 0, 0, 0, 0, 0, 0]"] ;
69 -> 70 ;
71 [label="gini = 0.0\nsamples = 1\nvalue = [0, 0, 0, 0, 0, 0, 0, 0, 0, 1, 0, 0, 0, 0]"] ;
69 -> 71 ;
72 [label="gini = 0.0\nsamples = 2\nvalue = [0, 0, 0, 0, 0, 0, 2, 0, 0, 0, 0, 0, 0, 0]"] ;
68 -> 72 ;
73 [label="X[0] <= 42.5\ngini = 0.568\nsamples = 18\nvalue = [4, 0, 0, 0, 1, 1, 1, 11, 0, 0, 0, 0, 0, 0]"] ;
67 -> 73 ;
74 [label="X[15] <= 0.5\ngini = 0.459\nsamples = 14\nvalue = [2, 0, 0, 0, 1, 0, 1, 10, 0, 0, 0, 0, 0, 0]"] ;
73 -> 74 ;
75 [label="X[1] <= 184707.5\ngini = 0.391\nsamples = 13\nvalue = [1, 0, 0, 0, 1, 0, 1, 10, 0, 0, 0, 0, 0, 0]"] ;
74 -> 75 ;
76 [label="X[1] <= 164691.5\ngini = 0.625\nsamples = 4\nvalue = [1, 0, 0, 0, 1, 0, 0, 2, 0, 0, 0, 0, 0, 0]"] ;
75 -> 76 ;
77 [label="gini = 0.0\nsamples = 2\nvalue = [0, 0, 0, 0, 0, 0, 0, 2, 0, 0, 0, 0, 0, 0]"] ;
76 -> 77 ;
78 [label="X[17] <= 0.5\ngini = 0.5\nsamples = 2\nvalue = [1, 0, 0, 0, 1, 0, 0, 0, 0, 0, 0, 0, 0, 0]"] ;
76 -> 78 ;
79 [label="gini = 0.0\nsamples = 1\nvalue = [0, 0, 0, 0, 1, 0, 0, 0, 0, 0, 0, 0, 0, 0]"] ;
78 -> 79 ;
80 [label="gini = 0.0\nsamples = 1\nvalue = [1, 0, 0, 0, 0, 0, 0, 0, 0, 0, 0, 0, 0, 0]"] ;
78 -> 80 ;
81 [label="X[16] <= 0.5\ngini = 0.198\nsamples = 9\nvalue = [0, 0, 0, 0, 0, 0, 1, 8, 0, 0, 0, 0, 0, 0]"] ;
75 -> 81 ;
82 [label="gini = 0.0\nsamples = 6\nvalue = [0, 0, 0, 0, 0, 0, 0, 6, 0, 0, 0, 0, 0, 0]"] ;
81 -> 82 ;
83 [label="X[1] <= 236407.0\ngini = 0.444\nsamples = 3\nvalue = [0, 0, 0, 0, 0, 0, 1, 2, 0, 0, 0, 0, 0, 0]"] ;
81 -> 83 ;
84 [label="gini = 0.0\nsamples = 2\nvalue = [0, 0, 0, 0, 0, 0, 0, 2, 0, 0, 0, 0, 0, 0]"] ;
83 -> 84 ;
85 [label="gini = 0.0\nsamples = 1\nvalue = [0, 0, 0, 0, 0, 0, 1, 0, 0, 0, 0, 0, 0, 0]"] ;
83 -> 85 ;
86 [label="gini = 0.0\nsamples = 1\nvalue = [1, 0, 0, 0, 0, 0, 0, 0, 0, 0, 0, 0, 0, 0]"] ;
74 -> 86 ;
87 [label="X[2] <= 5.5\ngini = 0.625\nsamples = 4\nvalue = [2, 0, 0, 0, 0, 1, 0, 1, 0, 0, 0, 0, 0, 0]"] ;
73 -> 87 ;
88 [label="X[22] <= 0.5\ngini = 0.5\nsamples = 2\nvalue = [0, 0, 0, 0, 0, 1, 0, 1, 0, 0, 0, 0, 0, 0]"] ;
87 -> 88 ;
89 [label="gini = 0.0\nsamples = 1\nvalue = [0, 0, 0, 0, 0, 0, 0, 1, 0, 0, 0, 0, 0, 0]"] ;
88 -> 89 ;
90 [label="gini = 0.0\nsamples = 1\nvalue = [0, 0, 0, 0, 0, 1, 0, 0, 0, 0, 0, 0, 0, 0]"] ;
88 -> 90 ;
91 [label="gini = 0.0\nsamples = 2\nvalue = [2, 0, 0, 0, 0, 0, 0, 0, 0, 0, 0, 0, 0, 0]"] ;
87 -> 91 ;
92 [label="X[6] <= 0.5\ngini = 0.8\nsamples = 5\nvalue = [0, 0, 0, 1, 0, 1, 1, 0, 0, 1, 0, 1, 0, 0]"] ;
66 -> 92 ;
93 [label="X[5] <= 52.5\ngini = 0.75\nsamples = 4\nvalue = [0, 0, 0, 1, 0, 0, 1, 0, 0, 1, 0, 1, 0, 0]"] ;
92 -> 93 ;
94 [label="X[17] <= 0.5\ngini = 0.5\nsamples = 2\nvalue = [0, 0, 0, 1, 0, 0, 0, 0, 0, 1, 0, 0, 0, 0]"] ;
93 -> 94 ;
95 [label="gini = 0.0\nsamples = 1\nvalue = [0, 0, 0, 1, 0, 0, 0, 0, 0, 0, 0, 0, 0, 0]"] ;
94 -> 95 ;
96 [label="gini = 0.0\nsamples = 1\nvalue = [0, 0, 0, 0, 0, 0, 0, 0, 0, 1, 0, 0, 0, 0]"] ;
94 -> 96 ;
97 [label="X[9] <= 0.5\ngini = 0.5\nsamples = 2\nvalue = [0, 0, 0, 0, 0, 0, 1, 0, 0, 0, 0, 1, 0, 0]"] ;
93 -> 97 ;
98 [label="gini = 0.0\nsamples = 1\nvalue = [0, 0, 0, 0, 0, 0, 0, 0, 0, 0, 0, 1, 0, 0]"] ;
97 -> 98 ;
99 [label="gini = 0.0\nsamples = 1\nvalue = [0, 0, 0, 0, 0, 0, 1, 0, 0, 0, 0, 0, 0, 0]"] ;
97 -> 99 ;
100 [label="gini = 0.0\nsamples = 1\nvalue = [0, 0, 0, 0, 0, 1, 0, 0, 0, 0, 0, 0, 0, 0]"] ;
92 -> 100 ;
101 [label="X[1] <= 184224.5\ngini = 0.198\nsamples = 9\nvalue = [0, 0, 0, 0, 0, 0, 1, 8, 0, 0, 0, 0, 0, 0]"] ;
65 -> 101 ;
102 [label="gini = 0.0\nsamples = 7\nvalue = [0, 0, 0, 0, 0, 0, 0, 7, 0, 0, 0, 0, 0, 0]"] ;
101 -> 102 ;
103 [label="X[11] <= 0.5\ngini = 0.5\nsamples = 2\nvalue = [0, 0, 0, 0, 0, 0, 1, 1, 0, 0, 0, 0, 0, 0]"] ;
101 -> 103 ;
104 [label="gini = 0.0\nsamples = 1\nvalue = [0, 0, 0, 0, 0, 0, 0, 1, 0, 0, 0, 0, 0, 0]"] ;
103 -> 104 ;
105 [label="gini = 0.0\nsamples = 1\nvalue = [0, 0, 0, 0, 0, 0, 1, 0, 0, 0, 0, 0, 0, 0]"] ;
103 -> 105 ;
106 [label="X[5] <= 48.5\ngini = 0.444\nsamples = 3\nvalue = [0, 0, 0, 0, 2, 0, 0, 0, 0, 0, 0, 0, 0, 1]"] ;
64 -> 106 ;
107 [label="gini = 0.0\nsamples = 2\nvalue = [0, 0, 0, 0, 2, 0, 0, 0, 0, 0, 0, 0, 0, 0]"] ;
106 -> 107 ;
108 [label="gini = 0.0\nsamples = 1\nvalue = [0, 0, 0, 0, 0, 0, 0, 0, 0, 0, 0, 0, 0, 1]"] ;
106 -> 108 ;
109 [label="gini = 0.0\nsamples = 4\nvalue = [0, 0, 0, 0, 0, 0, 4, 0, 0, 0, 0, 0, 0, 0]"] ;
57 -> 109 ;
110 [label="gini = 0.0\nsamples = 2\nvalue = [0, 0, 2, 0, 0, 0, 0, 0, 0, 0, 0, 0, 0, 0]"] ;
4 -> 110 ;
111 [label="X[0] <= 70.0\ngini = 0.653\nsamples = 12\nvalue = [2, 0, 0, 0, 0, 0, 1, 3, 6, 0, 0, 0, 0, 0]"] ;
3 -> 111 ;
112 [label="X[11] <= 0.5\ngini = 0.625\nsamples = 4\nvalue = [2, 0, 0, 0, 0, 0, 1, 0, 1, 0, 0, 0, 0, 0]"] ;
111 -> 112 ;
113 [label="X[10] <= 0.5\ngini = 0.5\nsamples = 2\nvalue = [0, 0, 0, 0, 0, 0, 1, 0, 1, 0, 0, 0, 0, 0]"] ;
112 -> 113 ;
114 [label="gini = 0.0\nsamples = 1\nvalue = [0, 0, 0, 0, 0, 0, 0, 0, 1, 0, 0, 0, 0, 0]"] ;
113 -> 114 ;
115 [label="gini = 0.0\nsamples = 1\nvalue = [0, 0, 0, 0, 0, 0, 1, 0, 0, 0, 0, 0, 0, 0]"] ;
113 -> 115 ;
116 [label="gini = 0.0\nsamples = 2\nvalue = [2, 0, 0, 0, 0, 0, 0, 0, 0, 0, 0, 0, 0, 0]"] ;
112 -> 116 ;
117 [label="X[5] <= 44.0\ngini = 0.469\nsamples = 8\nvalue = [0, 0, 0, 0, 0, 0, 0, 3, 5, 0, 0, 0, 0, 0]"] ;
111 -> 117 ;
118 [label="X[5] <= 19.5\ngini = 0.48\nsamples = 5\nvalue = [0, 0, 0, 0, 0, 0, 0, 3, 2, 0, 0, 0, 0, 0]"] ;
117 -> 118 ;
119 [label="X[2] <= 5.5\ngini = 0.444\nsamples = 3\nvalue = [0, 0, 0, 0, 0, 0, 0, 1, 2, 0, 0, 0, 0, 0]"] ;
118 -> 119 ;
120 [label="gini = 0.0\nsamples = 2\nvalue = [0, 0, 0, 0, 0, 0, 0, 0, 2, 0, 0, 0, 0, 0]"] ;
119 -> 120 ;
121 [label="gini = 0.0\nsamples = 1\nvalue = [0, 0, 0, 0, 0, 0, 0, 1, 0, 0, 0, 0, 0, 0]"] ;
119 -> 121 ;
122 [label="gini = 0.0\nsamples = 2\nvalue = [0, 0, 0, 0, 0, 0, 0, 2, 0, 0, 0, 0, 0, 0]"] ;
118 -> 122 ;
123 [label="gini = 0.0\nsamples = 3\nvalue = [0, 0, 0, 0, 0, 0, 0, 0, 3, 0, 0, 0, 0, 0]"] ;
117 -> 123 ;
124 [label="X[5] <= 35.5\ngini = 0.822\nsamples = 634\nvalue = [201, 0, 16, 67, 3, 10, 35, 116, 7, 54, 6, 88\n28, 3]"] ;
2 -> 124 ;
125 [label="X[0] <= 18.5\ngini = 0.789\nsamples = 200\nvalue = [44, 0, 5, 12, 1, 1, 6, 66, 1, 17, 1, 40, 6\n0]"] ;
124 -> 125 ;
126 [label="X[0] <= 17.5\ngini = 0.417\nsamples = 12\nvalue = [1, 0, 1, 0, 0, 0, 0, 1, 0, 0, 0, 9, 0, 0]"] ;
125 -> 126 ;
127 [label="X[1] <= 186834.0\ngini = 0.5\nsamples = 2\nvalue = [0, 0, 0, 0, 0, 0, 0, 1, 0, 0, 0, 1, 0, 0]"] ;
126 -> 127 ;
128 [label="gini = 0.0\nsamples = 1\nvalue = [0, 0, 0, 0, 0, 0, 0, 0, 0, 0, 0, 1, 0, 0]"] ;
127 -> 128 ;
129 [label="gini = 0.0\nsamples = 1\nvalue = [0, 0, 0, 0, 0, 0, 0, 1, 0, 0, 0, 0, 0, 0]"] ;
127 -> 129 ;
130 [label="X[5] <= 27.5\ngini = 0.34\nsamples = 10\nvalue = [1, 0, 1, 0, 0, 0, 0, 0, 0, 0, 0, 8, 0, 0]"] ;
126 -> 130 ;
131 [label="X[2] <= 9.5\ngini = 0.219\nsamples = 8\nvalue = [0, 0, 1, 0, 0, 0, 0, 0, 0, 0, 0, 7, 0, 0]"] ;
130 -> 131 ;
132 [label="X[2] <= 8.5\ngini = 0.375\nsamples = 4\nvalue = [0, 0, 1, 0, 0, 0, 0, 0, 0, 0, 0, 3, 0, 0]"] ;
131 -> 132 ;
133 [label="gini = 0.0\nsamples = 3\nvalue = [0, 0, 0, 0, 0, 0, 0, 0, 0, 0, 0, 3, 0, 0]"] ;
132 -> 133 ;
134 [label="gini = 0.0\nsamples = 1\nvalue = [0, 0, 1, 0, 0, 0, 0, 0, 0, 0, 0, 0, 0, 0]"] ;
132 -> 134 ;
135 [label="gini = 0.0\nsamples = 4\nvalue = [0, 0, 0, 0, 0, 0, 0, 0, 0, 0, 0, 4, 0, 0]"] ;
131 -> 135 ;
136 [label="X[15] <= 0.5\ngini = 0.5\nsamples = 2\nvalue = [1, 0, 0, 0, 0, 0, 0, 0, 0, 0, 0, 1, 0, 0]"] ;
130 -> 136 ;
137 [label="gini = 0.0\nsamples = 1\nvalue = [0, 0, 0, 0, 0, 0, 0, 0, 0, 0, 0, 1, 0, 0]"] ;
136 -> 137 ;
138 [label="gini = 0.0\nsamples = 1\nvalue = [1, 0, 0, 0, 0, 0, 0, 0, 0, 0, 0, 0, 0, 0]"] ;
136 -> 138 ;
139 [label="X[0] <= 41.5\ngini = 0.786\nsamples = 188\nvalue = [43, 0, 4, 12, 1, 1, 6, 65, 1, 17, 1, 31, 6\n0]"] ;
125 -> 139 ;
140 [label="X[5] <= 7.0\ngini = 0.759\nsamples = 132\nvalue = [22, 0, 4, 4, 1, 1, 5, 53, 0, 10, 1, 27, 4, 0]"] ;
139 -> 140 ;
141 [label="X[0] <= 21.5\ngini = 0.5\nsamples = 6\nvalue = [0, 0, 0, 0, 0, 0, 0, 1, 0, 4, 0, 1, 0, 0]"] ;
140 -> 141 ;
142 [label="gini = 0.0\nsamples = 1\nvalue = [0, 0, 0, 0, 0, 0, 0, 1, 0, 0, 0, 0, 0, 0]"] ;
141 -> 142 ;
143 [label="X[16] <= 0.5\ngini = 0.32\nsamples = 5\nvalue = [0, 0, 0, 0, 0, 0, 0, 0, 0, 4, 0, 1, 0, 0]"] ;
141 -> 143 ;
144 [label="gini = 0.0\nsamples = 4\nvalue = [0, 0, 0, 0, 0, 0, 0, 0, 0, 4, 0, 0, 0, 0]"] ;
143 -> 144 ;
145 [label="gini = 0.0\nsamples = 1\nvalue = [0, 0, 0, 0, 0, 0, 0, 0, 0, 0, 0, 1, 0, 0]"] ;
143 -> 145 ;
146 [label="X[0] <= 24.5\ngini = 0.75\nsamples = 126\nvalue = [22, 0, 4, 4, 1, 1, 5, 52, 0, 6, 1, 26, 4, 0]"] ;
140 -> 146 ;
147 [label="X[5] <= 12.0\ngini = 0.762\nsamples = 67\nvalue = [12, 0, 3, 0, 0, 0, 2, 22, 0, 4, 1, 20, 3, 0]"] ;
146 -> 147 ;
148 [label="X[1] <= 227323.5\ngini = 0.56\nsamples = 5\nvalue = [3, 0, 0, 0, 0, 0, 0, 0, 0, 1, 0, 0, 1, 0]"] ;
147 -> 148 ;
149 [label="X[1] <= 131339.5\ngini = 0.375\nsamples = 4\nvalue = [3, 0, 0, 0, 0, 0, 0, 0, 0, 0, 0, 0, 1, 0]"] ;
148 -> 149 ;
150 [label="gini = 0.0\nsamples = 2\nvalue = [2, 0, 0, 0, 0, 0, 0, 0, 0, 0, 0, 0, 0, 0]"] ;
149 -> 150 ;
151 [label="X[2] <= 11.0\ngini = 0.5\nsamples = 2\nvalue = [1, 0, 0, 0, 0, 0, 0, 0, 0, 0, 0, 0, 1, 0]"] ;
149 -> 151 ;
152 [label="gini = 0.0\nsamples = 1\nvalue = [0, 0, 0, 0, 0, 0, 0, 0, 0, 0, 0, 0, 1, 0]"] ;
151 -> 152 ;
153 [label="gini = 0.0\nsamples = 1\nvalue = [1, 0, 0, 0, 0, 0, 0, 0, 0, 0, 0, 0, 0, 0]"] ;
151 -> 153 ;
154 [label="gini = 0.0\nsamples = 1\nvalue = [0, 0, 0, 0, 0, 0, 0, 0, 0, 1, 0, 0, 0, 0]"] ;
148 -> 154 ;
155 [label="X[3] <= 1088.0\ngini = 0.742\nsamples = 62\nvalue = [9, 0, 3, 0, 0, 0, 2, 22, 0, 3, 1, 20, 2, 0]"] ;
147 -> 155 ;
156 [label="X[0] <= 21.5\ngini = 0.733\nsamples = 60\nvalue = [7, 0, 3, 0, 0, 0, 2, 22, 0, 3, 1, 20, 2, 0]"] ;
155 -> 156 ;
157 [label="X[1] <= 192835.5\ngini = 0.67\nsamples = 33\nvalue = [4, 0, 2, 0, 0, 0, 0, 16, 0, 1, 1, 9, 0, 0]"] ;
156 -> 157 ;
158 [label="X[15] <= 0.5\ngini = 0.555\nsamples = 16\nvalue = [3, 0, 0, 0, 0, 0, 0, 10, 0, 1, 0, 2, 0, 0]"] ;
157 -> 158 ;
159 [label="X[14] <= 0.5\ngini = 0.612\nsamples = 7\nvalue = [3, 0, 0, 0, 0, 0, 0, 3, 0, 1, 0, 0, 0, 0]"] ;
158 -> 159 ;
160 [label="X[5] <= 15.5\ngini = 0.5\nsamples = 6\nvalue = [3, 0, 0, 0, 0, 0, 0, 3, 0, 0, 0, 0, 0, 0]"] ;
159 -> 160 ;
161 [label="gini = 0.0\nsamples = 1\nvalue = [1, 0, 0, 0, 0, 0, 0, 0, 0, 0, 0, 0, 0, 0]"] ;
160 -> 161 ;
162 [label="X[0] <= 19.5\ngini = 0.48\nsamples = 5\nvalue = [2, 0, 0, 0, 0, 0, 0, 3, 0, 0, 0, 0, 0, 0]"] ;
160 -> 162 ;
163 [label="X[17] <= 0.5\ngini = 0.444\nsamples = 3\nvalue = [2, 0, 0, 0, 0, 0, 0, 1, 0, 0, 0, 0, 0, 0]"] ;
162 -> 163 ;
164 [label="gini = 0.0\nsamples = 2\nvalue = [2, 0, 0, 0, 0, 0, 0, 0, 0, 0, 0, 0, 0, 0]"] ;
163 -> 164 ;
165 [label="gini = 0.0\nsamples = 1\nvalue = [0, 0, 0, 0, 0, 0, 0, 1, 0, 0, 0, 0, 0, 0]"] ;
163 -> 165 ;
166 [label="gini = 0.0\nsamples = 2\nvalue = [0, 0, 0, 0, 0, 0, 0, 2, 0, 0, 0, 0, 0, 0]"] ;
162 -> 166 ;
167 [label="gini = 0.0\nsamples = 1\nvalue = [0, 0, 0, 0, 0, 0, 0, 0, 0, 1, 0, 0, 0, 0]"] ;
159 -> 167 ;
168 [label="X[5] <= 27.5\ngini = 0.346\nsamples = 9\nvalue = [0, 0, 0, 0, 0, 0, 0, 7, 0, 0, 0, 2, 0, 0]"] ;
158 -> 168 ;
169 [label="X[5] <= 22.5\ngini = 0.48\nsamples = 5\nvalue = [0, 0, 0, 0, 0, 0, 0, 3, 0, 0, 0, 2, 0, 0]"] ;
168 -> 169 ;
170 [label="gini = 0.0\nsamples = 3\nvalue = [0, 0, 0, 0, 0, 0, 0, 3, 0, 0, 0, 0, 0, 0]"] ;
169 -> 170 ;
171 [label="gini = 0.0\nsamples = 2\nvalue = [0, 0, 0, 0, 0, 0, 0, 0, 0, 0, 0, 2, 0, 0]"] ;
169 -> 171 ;
172 [label="gini = 0.0\nsamples = 4\nvalue = [0, 0, 0, 0, 0, 0, 0, 4, 0, 0, 0, 0, 0, 0]"] ;
168 -> 172 ;
173 [label="X[1] <= 211937.5\ngini = 0.685\nsamples = 17\nvalue = [1, 0, 2, 0, 0, 0, 0, 6, 0, 0, 1, 7, 0, 0]"] ;
157 -> 173 ;
174 [label="gini = 0.0\nsamples = 4\nvalue = [0, 0, 0, 0, 0, 0, 0, 0, 0, 0, 0, 4, 0, 0]"] ;
173 -> 174 ;
175 [label="X[5] <= 25.5\ngini = 0.698\nsamples = 13\nvalue = [1, 0, 2, 0, 0, 0, 0, 6, 0, 0, 1, 3, 0, 0]"] ;
173 -> 175 ;
176 [label="X[1] <= 299212.0\ngini = 0.6\nsamples = 10\nvalue = [1, 0, 1, 0, 0, 0, 0, 6, 0, 0, 1, 1, 0, 0]"] ;
175 -> 176 ;
177 [label="X[5] <= 18.0\ngini = 0.278\nsamples = 6\nvalue = [0, 0, 0, 0, 0, 0, 0, 5, 0, 0, 0, 1, 0, 0]"] ;
176 -> 177 ;
178 [label="X[0] <= 19.5\ngini = 0.5\nsamples = 2\nvalue = [0, 0, 0, 0, 0, 0, 0, 1, 0, 0, 0, 1, 0, 0]"] ;
177 -> 178 ;
179 [label="gini = 0.0\nsamples = 1\nvalue = [0, 0, 0, 0, 0, 0, 0, 0, 0, 0, 0, 1, 0, 0]"] ;
178 -> 179 ;
180 [label="gini = 0.0\nsamples = 1\nvalue = [0, 0, 0, 0, 0, 0, 0, 1, 0, 0, 0, 0, 0, 0]"] ;
178 -> 180 ;
181 [label="gini = 0.0\nsamples = 4\nvalue = [0, 0, 0, 0, 0, 0, 0, 4, 0, 0, 0, 0, 0, 0]"] ;
177 -> 181 ;
182 [label="X[15] <= 0.5\ngini = 0.75\nsamples = 4\nvalue = [1, 0, 1, 0, 0, 0, 0, 1, 0, 0, 1, 0, 0, 0]"] ;
176 -> 182 ;
183 [label="gini = 0.0\nsamples = 1\nvalue = [0, 0, 0, 0, 0, 0, 0, 1, 0, 0, 0, 0, 0, 0]"] ;
182 -> 183 ;
184 [label="X[5] <= 17.5\ngini = 0.667\nsamples = 3\nvalue = [1, 0, 1, 0, 0, 0, 0, 0, 0, 0, 1, 0, 0, 0]"] ;
182 -> 184 ;
185 [label="gini = 0.0\nsamples = 1\nvalue = [1, 0, 0, 0, 0, 0, 0, 0, 0, 0, 0, 0, 0, 0]"] ;
184 -> 185 ;
186 [label="X[1] <= 307244.0\ngini = 0.5\nsamples = 2\nvalue = [0, 0, 1, 0, 0, 0, 0, 0, 0, 0, 1, 0, 0, 0]"] ;
184 -> 186 ;
187 [label="gini = 0.0\nsamples = 1\nvalue = [0, 0, 1, 0, 0, 0, 0, 0, 0, 0, 0, 0, 0, 0]"] ;
186 -> 187 ;
188 [label="gini = 0.0\nsamples = 1\nvalue = [0, 0, 0, 0, 0, 0, 0, 0, 0, 0, 1, 0, 0, 0]"] ;
186 -> 188 ;
189 [label="X[0] <= 20.5\ngini = 0.444\nsamples = 3\nvalue = [0, 0, 1, 0, 0, 0, 0, 0, 0, 0, 0, 2, 0, 0]"] ;
175 -> 189 ;
190 [label="gini = 0.0\nsamples = 2\nvalue = [0, 0, 0, 0, 0, 0, 0, 0, 0, 0, 0, 2, 0, 0]"] ;
189 -> 190 ;
191 [label="gini = 0.0\nsamples = 1\nvalue = [0, 0, 1, 0, 0, 0, 0, 0, 0, 0, 0, 0, 0, 0]"] ;
189 -> 191 ;
192 [label="X[1] <= 215691.5\ngini = 0.754\nsamples = 27\nvalue = [3, 0, 1, 0, 0, 0, 2, 6, 0, 2, 0, 11, 2, 0]"] ;
156 -> 192 ;
193 [label="X[1] <= 195569.0\ngini = 0.658\nsamples = 15\nvalue = [2, 0, 1, 0, 0, 0, 2, 2, 0, 0, 0, 8, 0, 0]"] ;
192 -> 193 ;
194 [label="X[2] <= 9.5\ngini = 0.76\nsamples = 11\nvalue = [2, 0, 1, 0, 0, 0, 2, 2, 0, 0, 0, 4, 0, 0]"] ;
193 -> 194 ;
195 [label="gini = 0.0\nsamples = 2\nvalue = [0, 0, 0, 0, 0, 0, 0, 2, 0, 0, 0, 0, 0, 0]"] ;
194 -> 195 ;
196 [label="X[1] <= 178918.5\ngini = 0.691\nsamples = 9\nvalue = [2, 0, 1, 0, 0, 0, 2, 0, 0, 0, 0, 4, 0, 0]"] ;
194 -> 196 ;
197 [label="X[0] <= 23.5\ngini = 0.5\nsamples = 6\nvalue = [1, 0, 1, 0, 0, 0, 0, 0, 0, 0, 0, 4, 0, 0]"] ;
196 -> 197 ;
198 [label="X[5] <= 32.5\ngini = 0.32\nsamples = 5\nvalue = [0, 0, 1, 0, 0, 0, 0, 0, 0, 0, 0, 4, 0, 0]"] ;
197 -> 198 ;
199 [label="gini = 0.0\nsamples = 3\nvalue = [0, 0, 0, 0, 0, 0, 0, 0, 0, 0, 0, 3, 0, 0]"] ;
198 -> 199 ;
200 [label="X[1] <= 56447.5\ngini = 0.5\nsamples = 2\nvalue = [0, 0, 1, 0, 0, 0, 0, 0, 0, 0, 0, 1, 0, 0]"] ;
198 -> 200 ;
201 [label="gini = 0.0\nsamples = 1\nvalue = [0, 0, 0, 0, 0, 0, 0, 0, 0, 0, 0, 1, 0, 0]"] ;
200 -> 201 ;
202 [label="gini = 0.0\nsamples = 1\nvalue = [0, 0, 1, 0, 0, 0, 0, 0, 0, 0, 0, 0, 0, 0]"] ;
200 -> 202 ;
203 [label="gini = 0.0\nsamples = 1\nvalue = [1, 0, 0, 0, 0, 0, 0, 0, 0, 0, 0, 0, 0, 0]"] ;
197 -> 203 ;
204 [label="X[5] <= 27.5\ngini = 0.444\nsamples = 3\nvalue = [1, 0, 0, 0, 0, 0, 2, 0, 0, 0, 0, 0, 0, 0]"] ;
196 -> 204 ;
205 [label="gini = 0.0\nsamples = 1\nvalue = [1, 0, 0, 0, 0, 0, 0, 0, 0, 0, 0, 0, 0, 0]"] ;
204 -> 205 ;
206 [label="gini = 0.0\nsamples = 2\nvalue = [0, 0, 0, 0, 0, 0, 2, 0, 0, 0, 0, 0, 0, 0]"] ;
204 -> 206 ;
207 [label="gini = 0.0\nsamples = 4\nvalue = [0, 0, 0, 0, 0, 0, 0, 0, 0, 0, 0, 4, 0, 0]"] ;
193 -> 207 ;
208 [label="X[5] <= 33.5\ngini = 0.764\nsamples = 12\nvalue = [1, 0, 0, 0, 0, 0, 0, 4, 0, 2, 0, 3, 2, 0]"] ;
192 -> 208 ;
209 [label="X[1] <= 357585.5\ngini = 0.741\nsamples = 9\nvalue = [0, 0, 0, 0, 0, 0, 0, 2, 0, 2, 0, 3, 2, 0]"] ;
208 -> 209 ;
210 [label="X[19] <= 0.5\ngini = 0.667\nsamples = 6\nvalue = [0, 0, 0, 0, 0, 0, 0, 0, 0, 2, 0, 2, 2, 0]"] ;
209 -> 210 ;
211 [label="X[0] <= 23.5\ngini = 0.64\nsamples = 5\nvalue = [0, 0, 0, 0, 0, 0, 0, 0, 0, 2, 0, 2, 1, 0]"] ;
210 -> 211 ;
212 [label="X[2] <= 9.0\ngini = 0.444\nsamples = 3\nvalue = [0, 0, 0, 0, 0, 0, 0, 0, 0, 2, 0, 1, 0, 0]"] ;
211 -> 212 ;
213 [label="gini = 0.0\nsamples = 1\nvalue = [0, 0, 0, 0, 0, 0, 0, 0, 0, 0, 0, 1, 0, 0]"] ;
212 -> 213 ;
214 [label="gini = 0.0\nsamples = 2\nvalue = [0, 0, 0, 0, 0, 0, 0, 0, 0, 2, 0, 0, 0, 0]"] ;
212 -> 214 ;
215 [label="X[15] <= 0.5\ngini = 0.5\nsamples = 2\nvalue = [0, 0, 0, 0, 0, 0, 0, 0, 0, 0, 0, 1, 1, 0]"] ;
211 -> 215 ;
216 [label="gini = 0.0\nsamples = 1\nvalue = [0, 0, 0, 0, 0, 0, 0, 0, 0, 0, 0, 1, 0, 0]"] ;
215 -> 216 ;
217 [label="gini = 0.0\nsamples = 1\nvalue = [0, 0, 0, 0, 0, 0, 0, 0, 0, 0, 0, 0, 1, 0]"] ;
215 -> 217 ;
218 [label="gini = 0.0\nsamples = 1\nvalue = [0, 0, 0, 0, 0, 0, 0, 0, 0, 0, 0, 0, 1, 0]"] ;
210 -> 218 ;
219 [label="X[13] <= 0.5\ngini = 0.444\nsamples = 3\nvalue = [0, 0, 0, 0, 0, 0, 0, 2, 0, 0, 0, 1, 0, 0]"] ;
209 -> 219 ;
220 [label="X[1] <= 421329.5\ngini = 0.5\nsamples = 2\nvalue = [0, 0, 0, 0, 0, 0, 0, 1, 0, 0, 0, 1, 0, 0]"] ;
219 -> 220 ;
221 [label="gini = 0.0\nsamples = 1\nvalue = [0, 0, 0, 0, 0, 0, 0, 0, 0, 0, 0, 1, 0, 0]"] ;
220 -> 221 ;
222 [label="gini = 0.0\nsamples = 1\nvalue = [0, 0, 0, 0, 0, 0, 0, 1, 0, 0, 0, 0, 0, 0]"] ;
220 -> 222 ;
223 [label="gini = 0.0\nsamples = 1\nvalue = [0, 0, 0, 0, 0, 0, 0, 1, 0, 0, 0, 0, 0, 0]"] ;
219 -> 223 ;
224 [label="X[20] <= 0.5\ngini = 0.444\nsamples = 3\nvalue = [1, 0, 0, 0, 0, 0, 0, 2, 0, 0, 0, 0, 0, 0]"] ;
208 -> 224 ;
225 [label="gini = 0.0\nsamples = 2\nvalue = [0, 0, 0, 0, 0, 0, 0, 2, 0, 0, 0, 0, 0, 0]"] ;
224 -> 225 ;
226 [label="gini = 0.0\nsamples = 1\nvalue = [1, 0, 0, 0, 0, 0, 0, 0, 0, 0, 0, 0, 0, 0]"] ;
224 -> 226 ;
227 [label="gini = 0.0\nsamples = 2\nvalue = [2, 0, 0, 0, 0, 0, 0, 0, 0, 0, 0, 0, 0, 0]"] ;
155 -> 227 ;
228 [label="X[7] <= 0.5\ngini = 0.693\nsamples = 59\nvalue = [10, 0, 1, 4, 1, 1, 3, 30, 0, 2, 0, 6, 1, 0]"] ;
146 -> 228 ;
229 [label="X[14] <= 0.5\ngini = 0.617\nsamples = 49\nvalue = [6, 0, 1, 2, 0, 1, 3, 29, 0, 1, 0, 5, 1, 0]"] ;
228 -> 229 ;
230 [label="X[16] <= 0.5\ngini = 0.587\nsamples = 47\nvalue = [6, 0, 1, 2, 0, 0, 2, 29, 0, 1, 0, 5, 1, 0]"] ;
229 -> 230 ;
231 [label="X[3] <= 7042.0\ngini = 0.442\nsamples = 22\nvalue = [0, 0, 0, 0, 0, 0, 2, 16, 0, 0, 0, 3, 1, 0]"] ;
230 -> 231 ;
232 [label="X[1] <= 440497.5\ngini = 0.39\nsamples = 21\nvalue = [0, 0, 0, 0, 0, 0, 2, 16, 0, 0, 0, 3, 0, 0]"] ;
231 -> 232 ;
233 [label="X[1] <= 93446.0\ngini = 0.34\nsamples = 20\nvalue = [0, 0, 0, 0, 0, 0, 2, 16, 0, 0, 0, 2, 0, 0]"] ;
232 -> 233 ;
234 [label="X[1] <= 70397.5\ngini = 0.5\nsamples = 4\nvalue = [0, 0, 0, 0, 0, 0, 2, 2, 0, 0, 0, 0, 0, 0]"] ;
233 -> 234 ;
235 [label="gini = 0.0\nsamples = 2\nvalue = [0, 0, 0, 0, 0, 0, 0, 2, 0, 0, 0, 0, 0, 0]"] ;
234 -> 235 ;
236 [label="gini = 0.0\nsamples = 2\nvalue = [0, 0, 0, 0, 0, 0, 2, 0, 0, 0, 0, 0, 0, 0]"] ;
234 -> 236 ;
237 [label="X[1] <= 186347.5\ngini = 0.219\nsamples = 16\nvalue = [0, 0, 0, 0, 0, 0, 0, 14, 0, 0, 0, 2, 0, 0]"] ;
233 -> 237 ;
238 [label="X[5] <= 17.5\ngini = 0.375\nsamples = 8\nvalue = [0, 0, 0, 0, 0, 0, 0, 6, 0, 0, 0, 2, 0, 0]"] ;
237 -> 238 ;
239 [label="gini = 0.0\nsamples = 1\nvalue = [0, 0, 0, 0, 0, 0, 0, 0, 0, 0, 0, 1, 0, 0]"] ;
238 -> 239 ;
240 [label="X[1] <= 178880.0\ngini = 0.245\nsamples = 7\nvalue = [0, 0, 0, 0, 0, 0, 0, 6, 0, 0, 0, 1, 0, 0]"] ;
238 -> 240 ;
241 [label="gini = 0.0\nsamples = 6\nvalue = [0, 0, 0, 0, 0, 0, 0, 6, 0, 0, 0, 0, 0, 0]"] ;
240 -> 241 ;
242 [label="gini = 0.0\nsamples = 1\nvalue = [0, 0, 0, 0, 0, 0, 0, 0, 0, 0, 0, 1, 0, 0]"] ;
240 -> 242 ;
243 [label="gini = 0.0\nsamples = 8\nvalue = [0, 0, 0, 0, 0, 0, 0, 8, 0, 0, 0, 0, 0, 0]"] ;
237 -> 243 ;
244 [label="gini = 0.0\nsamples = 1\nvalue = [0, 0, 0, 0, 0, 0, 0, 0, 0, 0, 0, 1, 0, 0]"] ;
232 -> 244 ;
245 [label="gini = 0.0\nsamples = 1\nvalue = [0, 0, 0, 0, 0, 0, 0, 0, 0, 0, 0, 0, 1, 0]"] ;
231 -> 245 ;
246 [label="X[2] <= 9.5\ngini = 0.656\nsamples = 25\nvalue = [6, 0, 1, 2, 0, 0, 0, 13, 0, 1, 0, 2, 0, 0]"] ;
230 -> 246 ;
247 [label="X[1] <= 27377.0\ngini = 0.422\nsamples = 16\nvalue = [1, 0, 1, 1, 0, 0, 0, 12, 0, 0, 0, 1, 0, 0]"] ;
246 -> 247 ;
248 [label="gini = 0.0\nsamples = 1\nvalue = [0, 0, 0, 1, 0, 0, 0, 0, 0, 0, 0, 0, 0, 0]"] ;
247 -> 248 ;
249 [label="X[0] <= 27.5\ngini = 0.347\nsamples = 15\nvalue = [1, 0, 1, 0, 0, 0, 0, 12, 0, 0, 0, 1, 0, 0]"] ;
247 -> 249 ;
250 [label="gini = 0.0\nsamples = 1\nvalue = [1, 0, 0, 0, 0, 0, 0, 0, 0, 0, 0, 0, 0, 0]"] ;
249 -> 250 ;
251 [label="X[10] <= 0.5\ngini = 0.255\nsamples = 14\nvalue = [0, 0, 1, 0, 0, 0, 0, 12, 0, 0, 0, 1, 0, 0]"] ;
249 -> 251 ;
252 [label="X[0] <= 31.5\ngini = 0.153\nsamples = 12\nvalue = [0, 0, 0, 0, 0, 0, 0, 11, 0, 0, 0, 1, 0, 0]"] ;
251 -> 252 ;
253 [label="X[1] <= 92180.0\ngini = 0.444\nsamples = 3\nvalue = [0, 0, 0, 0, 0, 0, 0, 2, 0, 0, 0, 1, 0, 0]"] ;
252 -> 253 ;
254 [label="gini = 0.0\nsamples = 2\nvalue = [0, 0, 0, 0, 0, 0, 0, 2, 0, 0, 0, 0, 0, 0]"] ;
253 -> 254 ;
255 [label="gini = 0.0\nsamples = 1\nvalue = [0, 0, 0, 0, 0, 0, 0, 0, 0, 0, 0, 1, 0, 0]"] ;
253 -> 255 ;
256 [label="gini = 0.0\nsamples = 9\nvalue = [0, 0, 0, 0, 0, 0, 0, 9, 0, 0, 0, 0, 0, 0]"] ;
252 -> 256 ;
257 [label="X[1] <= 167527.0\ngini = 0.5\nsamples = 2\nvalue = [0, 0, 1, 0, 0, 0, 0, 1, 0, 0, 0, 0, 0, 0]"] ;
251 -> 257 ;
258 [label="gini = 0.0\nsamples = 1\nvalue = [0, 0, 1, 0, 0, 0, 0, 0, 0, 0, 0, 0, 0, 0]"] ;
257 -> 258 ;
259 [label="gini = 0.0\nsamples = 1\nvalue = [0, 0, 0, 0, 0, 0, 0, 1, 0, 0, 0, 0, 0, 0]"] ;
257 -> 259 ;
260 [label="X[0] <= 35.0\ngini = 0.642\nsamples = 9\nvalue = [5, 0, 0, 1, 0, 0, 0, 1, 0, 1, 0, 1, 0, 0]"] ;
246 -> 260 ;
261 [label="gini = 0.0\nsamples = 4\nvalue = [4, 0, 0, 0, 0, 0, 0, 0, 0, 0, 0, 0, 0, 0]"] ;
260 -> 261 ;
262 [label="X[5] <= 20.0\ngini = 0.8\nsamples = 5\nvalue = [1, 0, 0, 1, 0, 0, 0, 1, 0, 1, 0, 1, 0, 0]"] ;
260 -> 262 ;
263 [label="gini = 0.0\nsamples = 1\nvalue = [0, 0, 0, 0, 0, 0, 0, 1, 0, 0, 0, 0, 0, 0]"] ;
262 -> 263 ;
264 [label="X[20] <= 0.5\ngini = 0.75\nsamples = 4\nvalue = [1, 0, 0, 1, 0, 0, 0, 0, 0, 1, 0, 1, 0, 0]"] ;
262 -> 264 ;
265 [label="X[5] <= 32.5\ngini = 0.667\nsamples = 3\nvalue = [1, 0, 0, 0, 0, 0, 0, 0, 0, 1, 0, 1, 0, 0]"] ;
264 -> 265 ;
266 [label="gini = 0.0\nsamples = 1\nvalue = [0, 0, 0, 0, 0, 0, 0, 0, 0, 1, 0, 0, 0, 0]"] ;
265 -> 266 ;
267 [label="X[0] <= 37.5\ngini = 0.5\nsamples = 2\nvalue = [1, 0, 0, 0, 0, 0, 0, 0, 0, 0, 0, 1, 0, 0]"] ;
265 -> 267 ;
268 [label="gini = 0.0\nsamples = 1\nvalue = [0, 0, 0, 0, 0, 0, 0, 0, 0, 0, 0, 1, 0, 0]"] ;
267 -> 268 ;
269 [label="gini = 0.0\nsamples = 1\nvalue = [1, 0, 0, 0, 0, 0, 0, 0, 0, 0, 0, 0, 0, 0]"] ;
267 -> 269 ;
270 [label="gini = 0.0\nsamples = 1\nvalue = [0, 0, 0, 1, 0, 0, 0, 0, 0, 0, 0, 0, 0, 0]"] ;
264 -> 270 ;
271 [label="X[22] <= 0.5\ngini = 0.5\nsamples = 2\nvalue = [0, 0, 0, 0, 0, 1, 1, 0, 0, 0, 0, 0, 0, 0]"] ;
229 -> 271 ;
272 [label="gini = 0.0\nsamples = 1\nvalue = [0, 0, 0, 0, 0, 1, 0, 0, 0, 0, 0, 0, 0, 0]"] ;
271 -> 272 ;
273 [label="gini = 0.0\nsamples = 1\nvalue = [0, 0, 0, 0, 0, 0, 1, 0, 0, 0, 0, 0, 0, 0]"] ;
271 -> 273 ;
274 [label="X[5] <= 21.5\ngini = 0.76\nsamples = 10\nvalue = [4, 0, 0, 2, 1, 0, 0, 1, 0, 1, 0, 1, 0, 0]"] ;
228 -> 274 ;
275 [label="X[1] <= 269862.5\ngini = 0.625\nsamples = 4\nvalue = [0, 0, 0, 2, 1, 0, 0, 0, 0, 1, 0, 0, 0, 0]"] ;
274 -> 275 ;
276 [label="gini = 0.0\nsamples = 2\nvalue = [0, 0, 0, 2, 0, 0, 0, 0, 0, 0, 0, 0, 0, 0]"] ;
275 -> 276 ;
277 [label="X[1] <= 357490.0\ngini = 0.5\nsamples = 2\nvalue = [0, 0, 0, 0, 1, 0, 0, 0, 0, 1, 0, 0, 0, 0]"] ;
275 -> 277 ;
278 [label="gini = 0.0\nsamples = 1\nvalue = [0, 0, 0, 0, 1, 0, 0, 0, 0, 0, 0, 0, 0, 0]"] ;
277 -> 278 ;
279 [label="gini = 0.0\nsamples = 1\nvalue = [0, 0, 0, 0, 0, 0, 0, 0, 0, 1, 0, 0, 0, 0]"] ;
277 -> 279 ;
280 [label="X[0] <= 39.5\ngini = 0.5\nsamples = 6\nvalue = [4, 0, 0, 0, 0, 0, 0, 1, 0, 0, 0, 1, 0, 0]"] ;
274 -> 280 ;
281 [label="X[2] <= 11.5\ngini = 0.32\nsamples = 5\nvalue = [4, 0, 0, 0, 0, 0, 0, 1, 0, 0, 0, 0, 0, 0]"] ;
280 -> 281 ;
282 [label="gini = 0.0\nsamples = 4\nvalue = [4, 0, 0, 0, 0, 0, 0, 0, 0, 0, 0, 0, 0, 0]"] ;
281 -> 282 ;
283 [label="gini = 0.0\nsamples = 1\nvalue = [0, 0, 0, 0, 0, 0, 0, 1, 0, 0, 0, 0, 0, 0]"] ;
281 -> 283 ;
284 [label="gini = 0.0\nsamples = 1\nvalue = [0, 0, 0, 0, 0, 0, 0, 0, 0, 0, 0, 1, 0, 0]"] ;
280 -> 284 ;
285 [label="X[5] <= 14.5\ngini = 0.77\nsamples = 56\nvalue = [21, 0, 0, 8, 0, 0, 1, 12, 1, 7, 0, 4, 2, 0]"] ;
139 -> 285 ;
286 [label="X[1] <= 35784.0\ngini = 0.219\nsamples = 8\nvalue = [7, 0, 0, 1, 0, 0, 0, 0, 0, 0, 0, 0, 0, 0]"] ;
285 -> 286 ;
287 [label="gini = 0.0\nsamples = 1\nvalue = [0, 0, 0, 1, 0, 0, 0, 0, 0, 0, 0, 0, 0, 0]"] ;
286 -> 287 ;
288 [label="gini = 0.0\nsamples = 7\nvalue = [7, 0, 0, 0, 0, 0, 0, 0, 0, 0, 0, 0, 0, 0]"] ;
286 -> 288 ;
289 [label="X[5] <= 33.5\ngini = 0.8\nsamples = 48\nvalue = [14, 0, 0, 7, 0, 0, 1, 12, 1, 7, 0, 4, 2, 0]"] ;
285 -> 289 ;
290 [label="X[1] <= 316833.0\ngini = 0.789\nsamples = 32\nvalue = [6, 0, 0, 5, 0, 0, 1, 11, 0, 5, 0, 2, 2, 0]"] ;
289 -> 290 ;
291 [label="X[1] <= 99093.0\ngini = 0.778\nsamples = 30\nvalue = [6, 0, 0, 3, 0, 0, 1, 11, 0, 5, 0, 2, 2, 0]"] ;
290 -> 291 ;
292 [label="X[11] <= 0.5\ngini = 0.74\nsamples = 10\nvalue = [4, 0, 0, 2, 0, 0, 1, 1, 0, 2, 0, 0, 0, 0]"] ;
291 -> 292 ;
293 [label="X[0] <= 49.5\ngini = 0.571\nsamples = 7\nvalue = [4, 0, 0, 2, 0, 0, 0, 0, 0, 1, 0, 0, 0, 0]"] ;
292 -> 293 ;
294 [label="gini = 0.0\nsamples = 1\nvalue = [0, 0, 0, 0, 0, 0, 0, 0, 0, 1, 0, 0, 0, 0]"] ;
293 -> 294 ;
295 [label="X[1] <= 40014.0\ngini = 0.444\nsamples = 6\nvalue = [4, 0, 0, 2, 0, 0, 0, 0, 0, 0, 0, 0, 0, 0]"] ;
293 -> 295 ;
296 [label="gini = 0.0\nsamples = 1\nvalue = [0, 0, 0, 1, 0, 0, 0, 0, 0, 0, 0, 0, 0, 0]"] ;
295 -> 296 ;
297 [label="X[5] <= 31.0\ngini = 0.32\nsamples = 5\nvalue = [4, 0, 0, 1, 0, 0, 0, 0, 0, 0, 0, 0, 0, 0]"] ;
295 -> 297 ;
298 [label="gini = 0.0\nsamples = 4\nvalue = [4, 0, 0, 0, 0, 0, 0, 0, 0, 0, 0, 0, 0, 0]"] ;
297 -> 298 ;
299 [label="gini = 0.0\nsamples = 1\nvalue = [0, 0, 0, 1, 0, 0, 0, 0, 0, 0, 0, 0, 0, 0]"] ;
297 -> 299 ;
300 [label="X[5] <= 18.0\ngini = 0.667\nsamples = 3\nvalue = [0, 0, 0, 0, 0, 0, 1, 1, 0, 1, 0, 0, 0, 0]"] ;
292 -> 300 ;
301 [label="X[16] <= 0.5\ngini = 0.5\nsamples = 2\nvalue = [0, 0, 0, 0, 0, 0, 1, 1, 0, 0, 0, 0, 0, 0]"] ;
300 -> 301 ;
302 [label="gini = 0.0\nsamples = 1\nvalue = [0, 0, 0, 0, 0, 0, 1, 0, 0, 0, 0, 0, 0, 0]"] ;
301 -> 302 ;
303 [label="gini = 0.0\nsamples = 1\nvalue = [0, 0, 0, 0, 0, 0, 0, 1, 0, 0, 0, 0, 0, 0]"] ;
301 -> 303 ;
304 [label="gini = 0.0\nsamples = 1\nvalue = [0, 0, 0, 0, 0, 0, 0, 0, 0, 1, 0, 0, 0, 0]"] ;
300 -> 304 ;
305 [label="X[1] <= 193981.5\ngini = 0.695\nsamples = 20\nvalue = [2, 0, 0, 1, 0, 0, 0, 10, 0, 3, 0, 2, 2, 0]"] ;
291 -> 305 ;
306 [label="X[5] <= 22.0\ngini = 0.485\nsamples = 13\nvalue = [0, 0, 0, 1, 0, 0, 0, 9, 0, 2, 0, 1, 0, 0]"] ;
305 -> 306 ;
307 [label="X[1] <= 103224.5\ngini = 0.5\nsamples = 4\nvalue = [0, 0, 0, 0, 0, 0, 0, 2, 0, 2, 0, 0, 0, 0]"] ;
306 -> 307 ;
308 [label="gini = 0.0\nsamples = 2\nvalue = [0, 0, 0, 0, 0, 0, 0, 2, 0, 0, 0, 0, 0, 0]"] ;
307 -> 308 ;
309 [label="gini = 0.0\nsamples = 2\nvalue = [0, 0, 0, 0, 0, 0, 0, 0, 0, 2, 0, 0, 0, 0]"] ;
307 -> 309 ;
310 [label="X[17] <= 0.5\ngini = 0.37\nsamples = 9\nvalue = [0, 0, 0, 1, 0, 0, 0, 7, 0, 0, 0, 1, 0, 0]"] ;
306 -> 310 ;
311 [label="X[2] <= 10.5\ngini = 0.219\nsamples = 8\nvalue = [0, 0, 0, 0, 0, 0, 0, 7, 0, 0, 0, 1, 0, 0]"] ;
310 -> 311 ;
312 [label="gini = 0.0\nsamples = 6\nvalue = [0, 0, 0, 0, 0, 0, 0, 6, 0, 0, 0, 0, 0, 0]"] ;
311 -> 312 ;
313 [label="X[2] <= 11.5\ngini = 0.5\nsamples = 2\nvalue = [0, 0, 0, 0, 0, 0, 0, 1, 0, 0, 0, 1, 0, 0]"] ;
311 -> 313 ;
314 [label="gini = 0.0\nsamples = 1\nvalue = [0, 0, 0, 0, 0, 0, 0, 0, 0, 0, 0, 1, 0, 0]"] ;
313 -> 314 ;
315 [label="gini = 0.0\nsamples = 1\nvalue = [0, 0, 0, 0, 0, 0, 0, 1, 0, 0, 0, 0, 0, 0]"] ;
313 -> 315 ;
316 [label="gini = 0.0\nsamples = 1\nvalue = [0, 0, 0, 1, 0, 0, 0, 0, 0, 0, 0, 0, 0, 0]"] ;
310 -> 316 ;
317 [label="X[2] <= 9.5\ngini = 0.776\nsamples = 7\nvalue = [2, 0, 0, 0, 0, 0, 0, 1, 0, 1, 0, 1, 2, 0]"] ;
305 -> 317 ;
318 [label="X[1] <= 297574.5\ngini = 0.64\nsamples = 5\nvalue = [2, 0, 0, 0, 0, 0, 0, 1, 0, 0, 0, 0, 2, 0]"] ;
317 -> 318 ;
319 [label="X[7] <= 0.5\ngini = 0.5\nsamples = 4\nvalue = [2, 0, 0, 0, 0, 0, 0, 0, 0, 0, 0, 0, 2, 0]"] ;
318 -> 319 ;
320 [label="X[5] <= 21.0\ngini = 0.444\nsamples = 3\nvalue = [1, 0, 0, 0, 0, 0, 0, 0, 0, 0, 0, 0, 2, 0]"] ;
319 -> 320 ;
321 [label="gini = 0.0\nsamples = 1\nvalue = [1, 0, 0, 0, 0, 0, 0, 0, 0, 0, 0, 0, 0, 0]"] ;
320 -> 321 ;
322 [label="gini = 0.0\nsamples = 2\nvalue = [0, 0, 0, 0, 0, 0, 0, 0, 0, 0, 0, 0, 2, 0]"] ;
320 -> 322 ;
323 [label="gini = 0.0\nsamples = 1\nvalue = [1, 0, 0, 0, 0, 0, 0, 0, 0, 0, 0, 0, 0, 0]"] ;
319 -> 323 ;
324 [label="gini = 0.0\nsamples = 1\nvalue = [0, 0, 0, 0, 0, 0, 0, 1, 0, 0, 0, 0, 0, 0]"] ;
318 -> 324 ;
325 [label="X[1] <= 250239.5\ngini = 0.5\nsamples = 2\nvalue = [0, 0, 0, 0, 0, 0, 0, 0, 0, 1, 0, 1, 0, 0]"] ;
317 -> 325 ;
326 [label="gini = 0.0\nsamples = 1\nvalue = [0, 0, 0, 0, 0, 0, 0, 0, 0, 1, 0, 0, 0, 0]"] ;
325 -> 326 ;
327 [label="gini = 0.0\nsamples = 1\nvalue = [0, 0, 0, 0, 0, 0, 0, 0, 0, 0, 0, 1, 0, 0]"] ;
325 -> 327 ;
328 [label="gini = 0.0\nsamples = 2\nvalue = [0, 0, 0, 2, 0, 0, 0, 0, 0, 0, 0, 0, 0, 0]"] ;
290 -> 328 ;
329 [label="X[0] <= 57.5\ngini = 0.695\nsamples = 16\nvalue = [8, 0, 0, 2, 0, 0, 0, 1, 1, 2, 0, 2, 0, 0]"] ;
289 -> 329 ;
330 [label="gini = 0.0\nsamples = 6\nvalue = [6, 0, 0, 0, 0, 0, 0, 0, 0, 0, 0, 0, 0, 0]"] ;
329 -> 330 ;
331 [label="X[11] <= 0.5\ngini = 0.82\nsamples = 10\nvalue = [2, 0, 0, 2, 0, 0, 0, 1, 1, 2, 0, 2, 0, 0]"] ;
329 -> 331 ;
332 [label="X[0] <= 63.5\ngini = 0.776\nsamples = 7\nvalue = [1, 0, 0, 2, 0, 0, 0, 1, 1, 0, 0, 2, 0, 0]"] ;
331 -> 332 ;
333 [label="X[2] <= 9.5\ngini = 0.72\nsamples = 5\nvalue = [1, 0, 0, 0, 0, 0, 0, 1, 1, 0, 0, 2, 0, 0]"] ;
332 -> 333 ;
334 [label="X[7] <= 0.5\ngini = 0.444\nsamples = 3\nvalue = [0, 0, 0, 0, 0, 0, 0, 1, 0, 0, 0, 2, 0, 0]"] ;
333 -> 334 ;
335 [label="gini = 0.0\nsamples = 1\nvalue = [0, 0, 0, 0, 0, 0, 0, 1, 0, 0, 0, 0, 0, 0]"] ;
334 -> 335 ;
336 [label="gini = 0.0\nsamples = 2\nvalue = [0, 0, 0, 0, 0, 0, 0, 0, 0, 0, 0, 2, 0, 0]"] ;
334 -> 336 ;
337 [label="X[14] <= 0.5\ngini = 0.5\nsamples = 2\nvalue = [1, 0, 0, 0, 0, 0, 0, 0, 1, 0, 0, 0, 0, 0]"] ;
333 -> 337 ;
338 [label="gini = 0.0\nsamples = 1\nvalue = [1, 0, 0, 0, 0, 0, 0, 0, 0, 0, 0, 0, 0, 0]"] ;
337 -> 338 ;
339 [label="gini = 0.0\nsamples = 1\nvalue = [0, 0, 0, 0, 0, 0, 0, 0, 1, 0, 0, 0, 0, 0]"] ;
337 -> 339 ;
340 [label="gini = 0.0\nsamples = 2\nvalue = [0, 0, 0, 2, 0, 0, 0, 0, 0, 0, 0, 0, 0, 0]"] ;
332 -> 340 ;
341 [label="X[26] <= 0.5\ngini = 0.444\nsamples = 3\nvalue = [1, 0, 0, 0, 0, 0, 0, 0, 0, 2, 0, 0, 0, 0]"] ;
331 -> 341 ;
342 [label="gini = 0.0\nsamples = 2\nvalue = [0, 0, 0, 0, 0, 0, 0, 0, 0, 2, 0, 0, 0, 0]"] ;
341 -> 342 ;
343 [label="gini = 0.0\nsamples = 1\nvalue = [1, 0, 0, 0, 0, 0, 0, 0, 0, 0, 0, 0, 0, 0]"] ;
341 -> 343 ;
344 [label="X[0] <= 36.5\ngini = 0.812\nsamples = 434\nvalue = [157, 0, 11, 55, 2, 9, 29, 50, 6, 37, 5, 48, 22\n3]"] ;
124 -> 344 ;
345 [label="X[5] <= 36.5\ngini = 0.807\nsamples = 214\nvalue = [78, 0, 2, 14, 2, 9, 17, 34, 3, 13, 3, 27, 11\n1]"] ;
344 -> 345 ;
346 [label="X[1] <= 167103.5\ngini = 0.375\nsamples = 4\nvalue = [0, 0, 0, 0, 0, 0, 0, 1, 0, 3, 0, 0, 0, 0]"] ;
345 -> 346 ;
347 [label="gini = 0.0\nsamples = 1\nvalue = [0, 0, 0, 0, 0, 0, 0, 1, 0, 0, 0, 0, 0, 0]"] ;
346 -> 347 ;
348 [label="gini = 0.0\nsamples = 3\nvalue = [0, 0, 0, 0, 0, 0, 0, 0, 0, 3, 0, 0, 0, 0]"] ;
346 -> 348 ;
349 [label="X[1] <= 30924.5\ngini = 0.802\nsamples = 210\nvalue = [78, 0, 2, 14, 2, 9, 17, 33, 3, 10, 3, 27, 11\n1]"] ;
345 -> 349 ;
350 [label="X[2] <= 11.5\ngini = 0.617\nsamples = 9\nvalue = [2, 0, 0, 0, 0, 0, 1, 1, 0, 0, 0, 5, 0, 0]"] ;
349 -> 350 ;
351 [label="X[13] <= 0.5\ngini = 0.449\nsamples = 7\nvalue = [0, 0, 0, 0, 0, 0, 1, 1, 0, 0, 0, 5, 0, 0]"] ;
350 -> 351 ;
352 [label="gini = 0.0\nsamples = 5\nvalue = [0, 0, 0, 0, 0, 0, 0, 0, 0, 0, 0, 5, 0, 0]"] ;
351 -> 352 ;
353 [label="X[3] <= 1088.0\ngini = 0.5\nsamples = 2\nvalue = [0, 0, 0, 0, 0, 0, 1, 1, 0, 0, 0, 0, 0, 0]"] ;
351 -> 353 ;
354 [label="gini = 0.0\nsamples = 1\nvalue = [0, 0, 0, 0, 0, 0, 0, 1, 0, 0, 0, 0, 0, 0]"] ;
353 -> 354 ;
355 [label="gini = 0.0\nsamples = 1\nvalue = [0, 0, 0, 0, 0, 0, 1, 0, 0, 0, 0, 0, 0, 0]"] ;
353 -> 355 ;
356 [label="gini = 0.0\nsamples = 2\nvalue = [2, 0, 0, 0, 0, 0, 0, 0, 0, 0, 0, 0, 0, 0]"] ;
350 -> 356 ;
357 [label="X[5] <= 39.0\ngini = 0.8\nsamples = 201\nvalue = [76, 0, 2, 14, 2, 9, 16, 32, 3, 10, 3, 22, 11\n1]"] ;
349 -> 357 ;
358 [label="X[16] <= 0.5\ngini = 0.722\nsamples = 6\nvalue = [0, 0, 0, 0, 0, 0, 2, 1, 0, 0, 0, 2, 1, 0]"] ;
357 -> 358 ;
359 [label="X[5] <= 37.5\ngini = 0.444\nsamples = 3\nvalue = [0, 0, 0, 0, 0, 0, 2, 0, 0, 0, 0, 0, 1, 0]"] ;
358 -> 359 ;
360 [label="gini = 0.0\nsamples = 1\nvalue = [0, 0, 0, 0, 0, 0, 0, 0, 0, 0, 0, 0, 1, 0]"] ;
359 -> 360 ;
361 [label="gini = 0.0\nsamples = 2\nvalue = [0, 0, 0, 0, 0, 0, 2, 0, 0, 0, 0, 0, 0, 0]"] ;
359 -> 361 ;
362 [label="X[2] <= 9.5\ngini = 0.444\nsamples = 3\nvalue = [0, 0, 0, 0, 0, 0, 0, 1, 0, 0, 0, 2, 0, 0]"] ;
358 -> 362 ;
363 [label="gini = 0.0\nsamples = 2\nvalue = [0, 0, 0, 0, 0, 0, 0, 0, 0, 0, 0, 2, 0, 0]"] ;
362 -> 363 ;
364 [label="gini = 0.0\nsamples = 1\nvalue = [0, 0, 0, 0, 0, 0, 0, 1, 0, 0, 0, 0, 0, 0]"] ;
362 -> 364 ;
365 [label="X[2] <= 9.5\ngini = 0.794\nsamples = 195\nvalue = [76, 0, 2, 14, 2, 9, 14, 31, 3, 10, 3, 20, 10\n1]"] ;
357 -> 365 ;
366 [label="X[5] <= 62.5\ngini = 0.796\nsamples = 98\nvalue = [35, 0, 1, 5, 1, 8, 11, 21, 3, 3, 0, 8, 2, 0]"] ;
365 -> 366 ;
367 [label="X[3] <= 575.5\ngini = 0.795\nsamples = 95\nvalue = [35, 0, 1, 5, 1, 8, 11, 18, 3, 3, 0, 8, 2, 0]"] ;
366 -> 367 ;
368 [label="X[1] <= 220711.0\ngini = 0.787\nsamples = 93\nvalue = [35, 0, 1, 5, 1, 8, 11, 18, 3, 2, 0, 8, 1, 0]"] ;
367 -> 368 ;
369 [label="X[1] <= 217974.0\ngini = 0.792\nsamples = 65\nvalue = [23, 0, 1, 4, 0, 7, 4, 14, 2, 1, 0, 8, 1, 0]"] ;
368 -> 369 ;
370 [label="X[0] <= 26.5\ngini = 0.792\nsamples = 63\nvalue = [23, 0, 1, 4, 0, 7, 4, 12, 2, 1, 0, 8, 1, 0]"] ;
369 -> 370 ;
371 [label="X[0] <= 19.5\ngini = 0.749\nsamples = 30\nvalue = [13, 0, 0, 1, 0, 3, 2, 2, 1, 1, 0, 6, 1, 0]"] ;
370 -> 371 ;
372 [label="X[1] <= 169796.5\ngini = 0.625\nsamples = 4\nvalue = [0, 0, 0, 0, 0, 0, 1, 2, 0, 0, 0, 1, 0, 0]"] ;
371 -> 372 ;
373 [label="X[1] <= 146730.5\ngini = 0.5\nsamples = 2\nvalue = [0, 0, 0, 0, 0, 0, 1, 0, 0, 0, 0, 1, 0, 0]"] ;
372 -> 373 ;
374 [label="gini = 0.0\nsamples = 1\nvalue = [0, 0, 0, 0, 0, 0, 1, 0, 0, 0, 0, 0, 0, 0]"] ;
373 -> 374 ;
375 [label="gini = 0.0\nsamples = 1\nvalue = [0, 0, 0, 0, 0, 0, 0, 0, 0, 0, 0, 1, 0, 0]"] ;
373 -> 375 ;
376 [label="gini = 0.0\nsamples = 2\nvalue = [0, 0, 0, 0, 0, 0, 0, 2, 0, 0, 0, 0, 0, 0]"] ;
372 -> 376 ;
377 [label="X[10] <= 0.5\ngini = 0.692\nsamples = 26\nvalue = [13, 0, 0, 1, 0, 3, 1, 0, 1, 1, 0, 5, 1, 0]"] ;
371 -> 377 ;
378 [label="X[21] <= 0.5\ngini = 0.642\nsamples = 24\nvalue = [13, 0, 0, 0, 0, 3, 1, 0, 1, 1, 0, 5, 0, 0]"] ;
377 -> 378 ;
379 [label="X[5] <= 52.5\ngini = 0.612\nsamples = 23\nvalue = [13, 0, 0, 0, 0, 3, 1, 0, 0, 1, 0, 5, 0, 0]"] ;
378 -> 379 ;
380 [label="X[8] <= 0.5\ngini = 0.558\nsamples = 21\nvalue = [13, 0, 0, 0, 0, 3, 1, 0, 0, 0, 0, 4, 0, 0]"] ;
379 -> 380 ;
381 [label="X[19] <= 0.5\ngini = 0.515\nsamples = 20\nvalue = [13, 0, 0, 0, 0, 3, 0, 0, 0, 0, 0, 4, 0, 0]"] ;
380 -> 381 ;
382 [label="X[1] <= 200196.0\ngini = 0.476\nsamples = 19\nvalue = [13, 0, 0, 0, 0, 2, 0, 0, 0, 0, 0, 4, 0, 0]"] ;
381 -> 382 ;
383 [label="X[1] <= 172752.5\ngini = 0.571\nsamples = 14\nvalue = [8, 0, 0, 0, 0, 2, 0, 0, 0, 0, 0, 4, 0, 0]"] ;
382 -> 383 ;
384 [label="X[5] <= 41.5\ngini = 0.397\nsamples = 11\nvalue = [8, 0, 0, 0, 0, 0, 0, 0, 0, 0, 0, 3, 0, 0]"] ;
383 -> 384 ;
385 [label="X[1] <= 150012.0\ngini = 0.49\nsamples = 7\nvalue = [4, 0, 0, 0, 0, 0, 0, 0, 0, 0, 0, 3, 0, 0]"] ;
384 -> 385 ;
386 [label="X[6] <= 0.5\ngini = 0.32\nsamples = 5\nvalue = [4, 0, 0, 0, 0, 0, 0, 0, 0, 0, 0, 1, 0, 0]"] ;
385 -> 386 ;
387 [label="gini = 0.0\nsamples = 4\nvalue = [4, 0, 0, 0, 0, 0, 0, 0, 0, 0, 0, 0, 0, 0]"] ;
386 -> 387 ;
388 [label="gini = 0.0\nsamples = 1\nvalue = [0, 0, 0, 0, 0, 0, 0, 0, 0, 0, 0, 1, 0, 0]"] ;
386 -> 388 ;
389 [label="gini = 0.0\nsamples = 2\nvalue = [0, 0, 0, 0, 0, 0, 0, 0, 0, 0, 0, 2, 0, 0]"] ;
385 -> 389 ;
390 [label="gini = 0.0\nsamples = 4\nvalue = [4, 0, 0, 0, 0, 0, 0, 0, 0, 0, 0, 0, 0, 0]"] ;
384 -> 390 ;
391 [label="X[7] <= 0.5\ngini = 0.444\nsamples = 3\nvalue = [0, 0, 0, 0, 0, 2, 0, 0, 0, 0, 0, 1, 0, 0]"] ;
383 -> 391 ;
392 [label="gini = 0.0\nsamples = 2\nvalue = [0, 0, 0, 0, 0, 2, 0, 0, 0, 0, 0, 0, 0, 0]"] ;
391 -> 392 ;
393 [label="gini = 0.0\nsamples = 1\nvalue = [0, 0, 0, 0, 0, 0, 0, 0, 0, 0, 0, 1, 0, 0]"] ;
391 -> 393 ;
394 [label="gini = 0.0\nsamples = 5\nvalue = [5, 0, 0, 0, 0, 0, 0, 0, 0, 0, 0, 0, 0, 0]"] ;
382 -> 394 ;
395 [label="gini = 0.0\nsamples = 1\nvalue = [0, 0, 0, 0, 0, 1, 0, 0, 0, 0, 0, 0, 0, 0]"] ;
381 -> 395 ;
396 [label="gini = 0.0\nsamples = 1\nvalue = [0, 0, 0, 0, 0, 0, 1, 0, 0, 0, 0, 0, 0, 0]"] ;
380 -> 396 ;
397 [label="X[13] <= 0.5\ngini = 0.5\nsamples = 2\nvalue = [0, 0, 0, 0, 0, 0, 0, 0, 0, 1, 0, 1, 0, 0]"] ;
379 -> 397 ;
398 [label="gini = 0.0\nsamples = 1\nvalue = [0, 0, 0, 0, 0, 0, 0, 0, 0, 1, 0, 0, 0, 0]"] ;
397 -> 398 ;
399 [label="gini = 0.0\nsamples = 1\nvalue = [0, 0, 0, 0, 0, 0, 0, 0, 0, 0, 0, 1, 0, 0]"] ;
397 -> 399 ;
400 [label="gini = 0.0\nsamples = 1\nvalue = [0, 0, 0, 0, 0, 0, 0, 0, 1, 0, 0, 0, 0, 0]"] ;
378 -> 400 ;
401 [label="X[1] <= 201080.5\ngini = 0.5\nsamples = 2\nvalue = [0, 0, 0, 1, 0, 0, 0, 0, 0, 0, 0, 0, 1, 0]"] ;
377 -> 401 ;
402 [label="gini = 0.0\nsamples = 1\nvalue = [0, 0, 0, 0, 0, 0, 0, 0, 0, 0, 0, 0, 1, 0]"] ;
401 -> 402 ;
403 [label="gini = 0.0\nsamples = 1\nvalue = [0, 0, 0, 1, 0, 0, 0, 0, 0, 0, 0, 0, 0, 0]"] ;
401 -> 403 ;
404 [label="X[1] <= 207194.5\ngini = 0.784\nsamples = 33\nvalue = [10, 0, 1, 3, 0, 4, 2, 10, 1, 0, 0, 2, 0, 0]"] ;
370 -> 404 ;
405 [label="X[0] <= 30.5\ngini = 0.768\nsamples = 31\nvalue = [10, 0, 1, 3, 0, 2, 2, 10, 1, 0, 0, 2, 0, 0]"] ;
404 -> 405 ;
406 [label="X[6] <= 0.5\ngini = 0.764\nsamples = 12\nvalue = [1, 0, 1, 0, 0, 1, 2, 5, 1, 0, 0, 1, 0, 0]"] ;
405 -> 406 ;
407 [label="X[13] <= 0.5\ngini = 0.84\nsamples = 9\nvalue = [1, 0, 1, 0, 0, 1, 2, 2, 1, 0, 0, 1, 0, 0]"] ;
406 -> 407 ;
408 [label="X[1] <= 152516.5\ngini = 0.722\nsamples = 6\nvalue = [1, 0, 0, 0, 0, 0, 2, 2, 0, 0, 0, 1, 0, 0]"] ;
407 -> 408 ;
409 [label="X[25] <= 0.5\ngini = 0.64\nsamples = 5\nvalue = [0, 0, 0, 0, 0, 0, 2, 2, 0, 0, 0, 1, 0, 0]"] ;
408 -> 409 ;
410 [label="gini = 0.0\nsamples = 1\nvalue = [0, 0, 0, 0, 0, 0, 0, 0, 0, 0, 0, 1, 0, 0]"] ;
409 -> 410 ;
411 [label="X[9] <= 0.5\ngini = 0.5\nsamples = 4\nvalue = [0, 0, 0, 0, 0, 0, 2, 2, 0, 0, 0, 0, 0, 0]"] ;
409 -> 411 ;
412 [label="gini = 0.0\nsamples = 1\nvalue = [0, 0, 0, 0, 0, 0, 1, 0, 0, 0, 0, 0, 0, 0]"] ;
411 -> 412 ;
413 [label="X[0] <= 27.5\ngini = 0.444\nsamples = 3\nvalue = [0, 0, 0, 0, 0, 0, 1, 2, 0, 0, 0, 0, 0, 0]"] ;
411 -> 413 ;
414 [label="gini = 0.0\nsamples = 1\nvalue = [0, 0, 0, 0, 0, 0, 1, 0, 0, 0, 0, 0, 0, 0]"] ;
413 -> 414 ;
415 [label="gini = 0.0\nsamples = 2\nvalue = [0, 0, 0, 0, 0, 0, 0, 2, 0, 0, 0, 0, 0, 0]"] ;
413 -> 415 ;
416 [label="gini = 0.0\nsamples = 1\nvalue = [1, 0, 0, 0, 0, 0, 0, 0, 0, 0, 0, 0, 0, 0]"] ;
408 -> 416 ;
417 [label="X[20] <= 0.5\ngini = 0.667\nsamples = 3\nvalue = [0, 0, 1, 0, 0, 1, 0, 0, 1, 0, 0, 0, 0, 0]"] ;
407 -> 417 ;
418 [label="gini = 0.0\nsamples = 1\nvalue = [0, 0, 0, 0, 0, 0, 0, 0, 1, 0, 0, 0, 0, 0]"] ;
417 -> 418 ;
419 [label="X[0] <= 29.5\ngini = 0.5\nsamples = 2\nvalue = [0, 0, 1, 0, 0, 1, 0, 0, 0, 0, 0, 0, 0, 0]"] ;
417 -> 419 ;
420 [label="gini = 0.0\nsamples = 1\nvalue = [0, 0, 0, 0, 0, 1, 0, 0, 0, 0, 0, 0, 0, 0]"] ;
419 -> 420 ;
421 [label="gini = 0.0\nsamples = 1\nvalue = [0, 0, 1, 0, 0, 0, 0, 0, 0, 0, 0, 0, 0, 0]"] ;
419 -> 421 ;
422 [label="gini = 0.0\nsamples = 3\nvalue = [0, 0, 0, 0, 0, 0, 0, 3, 0, 0, 0, 0, 0, 0]"] ;
406 -> 422 ;
423 [label="X[1] <= 200196.5\ngini = 0.676\nsamples = 19\nvalue = [9, 0, 0, 3, 0, 1, 0, 5, 0, 0, 0, 1, 0, 0]"] ;
405 -> 423 ;
424 [label="X[9] <= 0.5\ngini = 0.651\nsamples = 17\nvalue = [9, 0, 0, 3, 0, 1, 0, 3, 0, 0, 0, 1, 0, 0]"] ;
423 -> 424 ;
425 [label="X[5] <= 44.0\ngini = 0.375\nsamples = 8\nvalue = [6, 0, 0, 2, 0, 0, 0, 0, 0, 0, 0, 0, 0, 0]"] ;
424 -> 425 ;
426 [label="X[1] <= 144827.5\ngini = 0.245\nsamples = 7\nvalue = [6, 0, 0, 1, 0, 0, 0, 0, 0, 0, 0, 0, 0, 0]"] ;
425 -> 426 ;
427 [label="gini = 0.0\nsamples = 6\nvalue = [6, 0, 0, 0, 0, 0, 0, 0, 0, 0, 0, 0, 0, 0]"] ;
426 -> 427 ;
428 [label="gini = 0.0\nsamples = 1\nvalue = [0, 0, 0, 1, 0, 0, 0, 0, 0, 0, 0, 0, 0, 0]"] ;
426 -> 428 ;
429 [label="gini = 0.0\nsamples = 1\nvalue = [0, 0, 0, 1, 0, 0, 0, 0, 0, 0, 0, 0, 0, 0]"] ;
425 -> 429 ;
430 [label="X[1] <= 187776.5\ngini = 0.741\nsamples = 9\nvalue = [3, 0, 0, 1, 0, 1, 0, 3, 0, 0, 0, 1, 0, 0]"] ;
424 -> 430 ;
431 [label="X[1] <= 62497.5\ngini = 0.735\nsamples = 7\nvalue = [1, 0, 0, 1, 0, 1, 0, 3, 0, 0, 0, 1, 0, 0]"] ;
430 -> 431 ;
432 [label="gini = 0.0\nsamples = 1\nvalue = [1, 0, 0, 0, 0, 0, 0, 0, 0, 0, 0, 0, 0, 0]"] ;
431 -> 432 ;
433 [label="X[16] <= 0.5\ngini = 0.667\nsamples = 6\nvalue = [0, 0, 0, 1, 0, 1, 0, 3, 0, 0, 0, 1, 0, 0]"] ;
431 -> 433 ;
434 [label="X[1] <= 177221.5\ngini = 0.56\nsamples = 5\nvalue = [0, 0, 0, 0, 0, 1, 0, 3, 0, 0, 0, 1, 0, 0]"] ;
433 -> 434 ;
435 [label="X[15] <= 0.5\ngini = 0.375\nsamples = 4\nvalue = [0, 0, 0, 0, 0, 1, 0, 3, 0, 0, 0, 0, 0, 0]"] ;
434 -> 435 ;
436 [label="gini = 0.0\nsamples = 2\nvalue = [0, 0, 0, 0, 0, 0, 0, 2, 0, 0, 0, 0, 0, 0]"] ;
435 -> 436 ;
437 [label="X[20] <= 0.5\ngini = 0.5\nsamples = 2\nvalue = [0, 0, 0, 0, 0, 1, 0, 1, 0, 0, 0, 0, 0, 0]"] ;
435 -> 437 ;
438 [label="gini = 0.0\nsamples = 1\nvalue = [0, 0, 0, 0, 0, 1, 0, 0, 0, 0, 0, 0, 0, 0]"] ;
437 -> 438 ;
439 [label="gini = 0.0\nsamples = 1\nvalue = [0, 0, 0, 0, 0, 0, 0, 1, 0, 0, 0, 0, 0, 0]"] ;
437 -> 439 ;
440 [label="gini = 0.0\nsamples = 1\nvalue = [0, 0, 0, 0, 0, 0, 0, 0, 0, 0, 0, 1, 0, 0]"] ;
434 -> 440 ;
441 [label="gini = 0.0\nsamples = 1\nvalue = [0, 0, 0, 1, 0, 0, 0, 0, 0, 0, 0, 0, 0, 0]"] ;
433 -> 441 ;
442 [label="gini = 0.0\nsamples = 2\nvalue = [2, 0, 0, 0, 0, 0, 0, 0, 0, 0, 0, 0, 0, 0]"] ;
430 -> 442 ;
443 [label="gini = 0.0\nsamples = 2\nvalue = [0, 0, 0, 0, 0, 0, 0, 2, 0, 0, 0, 0, 0, 0]"] ;
423 -> 443 ;
444 [label="gini = 0.0\nsamples = 2\nvalue = [0, 0, 0, 0, 0, 2, 0, 0, 0, 0, 0, 0, 0, 0]"] ;
404 -> 444 ;
445 [label="gini = 0.0\nsamples = 2\nvalue = [0, 0, 0, 0, 0, 0, 0, 2, 0, 0, 0, 0, 0, 0]"] ;
369 -> 445 ;
446 [label="X[0] <= 30.5\ngini = 0.727\nsamples = 28\nvalue = [12, 0, 0, 1, 1, 1, 7, 4, 1, 1, 0, 0, 0, 0]"] ;
368 -> 446 ;
447 [label="X[10] <= 0.5\ngini = 0.539\nsamples = 16\nvalue = [10, 0, 0, 0, 0, 0, 3, 3, 0, 0, 0, 0, 0, 0]"] ;
446 -> 447 ;
448 [label="X[1] <= 289788.0\ngini = 0.439\nsamples = 14\nvalue = [10, 0, 0, 0, 0, 0, 1, 3, 0, 0, 0, 0, 0, 0]"] ;
447 -> 448 ;
449 [label="gini = 0.0\nsamples = 6\nvalue = [6, 0, 0, 0, 0, 0, 0, 0, 0, 0, 0, 0, 0, 0]"] ;
448 -> 449 ;
450 [label="X[1] <= 437819.0\ngini = 0.594\nsamples = 8\nvalue = [4, 0, 0, 0, 0, 0, 1, 3, 0, 0, 0, 0, 0, 0]"] ;
448 -> 450 ;
451 [label="X[5] <= 44.0\ngini = 0.611\nsamples = 6\nvalue = [2, 0, 0, 0, 0, 0, 1, 3, 0, 0, 0, 0, 0, 0]"] ;
450 -> 451 ;
452 [label="X[26] <= 0.5\ngini = 0.375\nsamples = 4\nvalue = [1, 0, 0, 0, 0, 0, 0, 3, 0, 0, 0, 0, 0, 0]"] ;
451 -> 452 ;
453 [label="gini = 0.0\nsamples = 3\nvalue = [0, 0, 0, 0, 0, 0, 0, 3, 0, 0, 0, 0, 0, 0]"] ;
452 -> 453 ;
454 [label="gini = 0.0\nsamples = 1\nvalue = [1, 0, 0, 0, 0, 0, 0, 0, 0, 0, 0, 0, 0, 0]"] ;
452 -> 454 ;
455 [label="X[5] <= 49.0\ngini = 0.5\nsamples = 2\nvalue = [1, 0, 0, 0, 0, 0, 1, 0, 0, 0, 0, 0, 0, 0]"] ;
451 -> 455 ;
456 [label="gini = 0.0\nsamples = 1\nvalue = [0, 0, 0, 0, 0, 0, 1, 0, 0, 0, 0, 0, 0, 0]"] ;
455 -> 456 ;
457 [label="gini = 0.0\nsamples = 1\nvalue = [1, 0, 0, 0, 0, 0, 0, 0, 0, 0, 0, 0, 0, 0]"] ;
455 -> 457 ;
458 [label="gini = 0.0\nsamples = 2\nvalue = [2, 0, 0, 0, 0, 0, 0, 0, 0, 0, 0, 0, 0, 0]"] ;
450 -> 458 ;
459 [label="gini = 0.0\nsamples = 2\nvalue = [0, 0, 0, 0, 0, 0, 2, 0, 0, 0, 0, 0, 0, 0]"] ;
447 -> 459 ;
460 [label="X[20] <= 0.5\ngini = 0.819\nsamples = 12\nvalue = [2, 0, 0, 1, 1, 1, 4, 1, 1, 1, 0, 0, 0, 0]"] ;
446 -> 460 ;
461 [label="X[6] <= 0.5\ngini = 0.864\nsamples = 9\nvalue = [2, 0, 0, 1, 1, 1, 1, 1, 1, 1, 0, 0, 0, 0]"] ;
460 -> 461 ;
462 [label="X[16] <= 0.5\ngini = 0.8\nsamples = 5\nvalue = [0, 0, 0, 0, 1, 1, 1, 1, 1, 0, 0, 0, 0, 0]"] ;
461 -> 462 ;
463 [label="X[0] <= 32.0\ngini = 0.75\nsamples = 4\nvalue = [0, 0, 0, 0, 1, 1, 1, 0, 1, 0, 0, 0, 0, 0]"] ;
462 -> 463 ;
464 [label="gini = 0.0\nsamples = 1\nvalue = [0, 0, 0, 0, 1, 0, 0, 0, 0, 0, 0, 0, 0, 0]"] ;
463 -> 464 ;
465 [label="X[17] <= 0.5\ngini = 0.667\nsamples = 3\nvalue = [0, 0, 0, 0, 0, 1, 1, 0, 1, 0, 0, 0, 0, 0]"] ;
463 -> 465 ;
466 [label="X[1] <= 286697.5\ngini = 0.5\nsamples = 2\nvalue = [0, 0, 0, 0, 0, 1, 0, 0, 1, 0, 0, 0, 0, 0]"] ;
465 -> 466 ;
467 [label="gini = 0.0\nsamples = 1\nvalue = [0, 0, 0, 0, 0, 0, 0, 0, 1, 0, 0, 0, 0, 0]"] ;
466 -> 467 ;
468 [label="gini = 0.0\nsamples = 1\nvalue = [0, 0, 0, 0, 0, 1, 0, 0, 0, 0, 0, 0, 0, 0]"] ;
466 -> 468 ;
469 [label="gini = 0.0\nsamples = 1\nvalue = [0, 0, 0, 0, 0, 0, 1, 0, 0, 0, 0, 0, 0, 0]"] ;
465 -> 469 ;
470 [label="gini = 0.0\nsamples = 1\nvalue = [0, 0, 0, 0, 0, 0, 0, 1, 0, 0, 0, 0, 0, 0]"] ;
462 -> 470 ;
471 [label="X[1] <= 260487.0\ngini = 0.625\nsamples = 4\nvalue = [2, 0, 0, 1, 0, 0, 0, 0, 0, 1, 0, 0, 0, 0]"] ;
461 -> 471 ;
472 [label="X[1] <= 242158.5\ngini = 0.5\nsamples = 2\nvalue = [0, 0, 0, 1, 0, 0, 0, 0, 0, 1, 0, 0, 0, 0]"] ;
471 -> 472 ;
473 [label="gini = 0.0\nsamples = 1\nvalue = [0, 0, 0, 0, 0, 0, 0, 0, 0, 1, 0, 0, 0, 0]"] ;
472 -> 473 ;
474 [label="gini = 0.0\nsamples = 1\nvalue = [0, 0, 0, 1, 0, 0, 0, 0, 0, 0, 0, 0, 0, 0]"] ;
472 -> 474 ;
475 [label="gini = 0.0\nsamples = 2\nvalue = [2, 0, 0, 0, 0, 0, 0, 0, 0, 0, 0, 0, 0, 0]"] ;
471 -> 475 ;
476 [label="gini = 0.0\nsamples = 3\nvalue = [0, 0, 0, 0, 0, 0, 3, 0, 0, 0, 0, 0, 0, 0]"] ;
460 -> 476 ;
477 [label="X[0] <= 28.5\ngini = 0.5\nsamples = 2\nvalue = [0, 0, 0, 0, 0, 0, 0, 0, 0, 1, 0, 0, 1, 0]"] ;
367 -> 477 ;
478 [label="gini = 0.0\nsamples = 1\nvalue = [0, 0, 0, 0, 0, 0, 0, 0, 0, 1, 0, 0, 0, 0]"] ;
477 -> 478 ;
479 [label="gini = 0.0\nsamples = 1\nvalue = [0, 0, 0, 0, 0, 0, 0, 0, 0, 0, 0, 0, 1, 0]"] ;
477 -> 479 ;
480 [label="gini = 0.0\nsamples = 3\nvalue = [0, 0, 0, 0, 0, 0, 0, 3, 0, 0, 0, 0, 0, 0]"] ;
366 -> 480 ;
481 [label="X[2] <= 10.5\ngini = 0.772\nsamples = 97\nvalue = [41, 0, 1, 9, 1, 1, 3, 10, 0, 7, 3, 12, 8, 1]"] ;
365 -> 481 ;
482 [label="X[0] <= 27.5\ngini = 0.718\nsamples = 71\nvalue = [35, 0, 0, 7, 1, 1, 3, 5, 0, 3, 2, 8, 6, 0]"] ;
481 -> 482 ;
483 [label="X[22] <= 0.5\ngini = 0.826\nsamples = 36\nvalue = [12, 0, 0, 3, 1, 1, 2, 4, 0, 3, 1, 5, 4, 0]"] ;
482 -> 483 ;
484 [label="X[26] <= 0.5\ngini = 0.5\nsamples = 6\nvalue = [1, 0, 0, 1, 0, 0, 0, 0, 0, 0, 0, 4, 0, 0]"] ;
483 -> 484 ;
485 [label="X[1] <= 214625.0\ngini = 0.32\nsamples = 5\nvalue = [1, 0, 0, 0, 0, 0, 0, 0, 0, 0, 0, 4, 0, 0]"] ;
484 -> 485 ;
486 [label="gini = 0.0\nsamples = 3\nvalue = [0, 0, 0, 0, 0, 0, 0, 0, 0, 0, 0, 3, 0, 0]"] ;
485 -> 486 ;
487 [label="X[1] <= 291216.5\ngini = 0.5\nsamples = 2\nvalue = [1, 0, 0, 0, 0, 0, 0, 0, 0, 0, 0, 1, 0, 0]"] ;
485 -> 487 ;
488 [label="gini = 0.0\nsamples = 1\nvalue = [1, 0, 0, 0, 0, 0, 0, 0, 0, 0, 0, 0, 0, 0]"] ;
487 -> 488 ;
489 [label="gini = 0.0\nsamples = 1\nvalue = [0, 0, 0, 0, 0, 0, 0, 0, 0, 0, 0, 1, 0, 0]"] ;
487 -> 489 ;
490 [label="gini = 0.0\nsamples = 1\nvalue = [0, 0, 0, 1, 0, 0, 0, 0, 0, 0, 0, 0, 0, 0]"] ;
484 -> 490 ;
491 [label="X[14] <= 0.5\ngini = 0.807\nsamples = 30\nvalue = [11, 0, 0, 2, 1, 1, 2, 4, 0, 3, 1, 1, 4, 0]"] ;
483 -> 491 ;
492 [label="X[15] <= 0.5\ngini = 0.797\nsamples = 29\nvalue = [11, 0, 0, 1, 1, 1, 2, 4, 0, 3, 1, 1, 4, 0]"] ;
491 -> 492 ;
493 [label="X[0] <= 20.5\ngini = 0.622\nsamples = 14\nvalue = [8, 0, 0, 0, 0, 0, 1, 2, 0, 1, 0, 0, 2, 0]"] ;
492 -> 493 ;
494 [label="X[1] <= 216306.5\ngini = 0.5\nsamples = 2\nvalue = [0, 0, 0, 0, 0, 0, 0, 1, 0, 1, 0, 0, 0, 0]"] ;
493 -> 494 ;
495 [label="gini = 0.0\nsamples = 1\nvalue = [0, 0, 0, 0, 0, 0, 0, 0, 0, 1, 0, 0, 0, 0]"] ;
494 -> 495 ;
496 [label="gini = 0.0\nsamples = 1\nvalue = [0, 0, 0, 0, 0, 0, 0, 1, 0, 0, 0, 0, 0, 0]"] ;
494 -> 496 ;
497 [label="X[1] <= 123190.0\ngini = 0.514\nsamples = 12\nvalue = [8, 0, 0, 0, 0, 0, 1, 1, 0, 0, 0, 0, 2, 0]"] ;
493 -> 497 ;
498 [label="X[4] <= 789.5\ngini = 0.667\nsamples = 3\nvalue = [1, 0, 0, 0, 0, 0, 1, 1, 0, 0, 0, 0, 0, 0]"] ;
497 -> 498 ;
499 [label="X[6] <= 0.5\ngini = 0.5\nsamples = 2\nvalue = [0, 0, 0, 0, 0, 0, 1, 1, 0, 0, 0, 0, 0, 0]"] ;
498 -> 499 ;
500 [label="gini = 0.0\nsamples = 1\nvalue = [0, 0, 0, 0, 0, 0, 0, 1, 0, 0, 0, 0, 0, 0]"] ;
499 -> 500 ;
501 [label="gini = 0.0\nsamples = 1\nvalue = [0, 0, 0, 0, 0, 0, 1, 0, 0, 0, 0, 0, 0, 0]"] ;
499 -> 501 ;
502 [label="gini = 0.0\nsamples = 1\nvalue = [1, 0, 0, 0, 0, 0, 0, 0, 0, 0, 0, 0, 0, 0]"] ;
498 -> 502 ;
503 [label="X[5] <= 41.0\ngini = 0.346\nsamples = 9\nvalue = [7, 0, 0, 0, 0, 0, 0, 0, 0, 0, 0, 0, 2, 0]"] ;
497 -> 503 ;
504 [label="X[0] <= 26.0\ngini = 0.48\nsamples = 5\nvalue = [3, 0, 0, 0, 0, 0, 0, 0, 0, 0, 0, 0, 2, 0]"] ;
503 -> 504 ;
505 [label="X[0] <= 22.5\ngini = 0.375\nsamples = 4\nvalue = [3, 0, 0, 0, 0, 0, 0, 0, 0, 0, 0, 0, 1, 0]"] ;
504 -> 505 ;
506 [label="X[0] <= 21.5\ngini = 0.5\nsamples = 2\nvalue = [1, 0, 0, 0, 0, 0, 0, 0, 0, 0, 0, 0, 1, 0]"] ;
505 -> 506 ;
507 [label="gini = 0.0\nsamples = 1\nvalue = [1, 0, 0, 0, 0, 0, 0, 0, 0, 0, 0, 0, 0, 0]"] ;
506 -> 507 ;
508 [label="gini = 0.0\nsamples = 1\nvalue = [0, 0, 0, 0, 0, 0, 0, 0, 0, 0, 0, 0, 1, 0]"] ;
506 -> 508 ;
509 [label="gini = 0.0\nsamples = 2\nvalue = [2, 0, 0, 0, 0, 0, 0, 0, 0, 0, 0, 0, 0, 0]"] ;
505 -> 509 ;
510 [label="gini = 0.0\nsamples = 1\nvalue = [0, 0, 0, 0, 0, 0, 0, 0, 0, 0, 0, 0, 1, 0]"] ;
504 -> 510 ;
511 [label="gini = 0.0\nsamples = 4\nvalue = [4, 0, 0, 0, 0, 0, 0, 0, 0, 0, 0, 0, 0, 0]"] ;
503 -> 511 ;
512 [label="X[1] <= 167860.0\ngini = 0.88\nsamples = 15\nvalue = [3, 0, 0, 1, 1, 1, 1, 2, 0, 2, 1, 1, 2, 0]"] ;
492 -> 512 ;
513 [label="X[0] <= 20.0\ngini = 0.444\nsamples = 3\nvalue = [1, 0, 0, 0, 0, 0, 0, 2, 0, 0, 0, 0, 0, 0]"] ;
512 -> 513 ;
514 [label="gini = 0.0\nsamples = 1\nvalue = [1, 0, 0, 0, 0, 0, 0, 0, 0, 0, 0, 0, 0, 0]"] ;
513 -> 514 ;
515 [label="gini = 0.0\nsamples = 2\nvalue = [0, 0, 0, 0, 0, 0, 0, 2, 0, 0, 0, 0, 0, 0]"] ;
513 -> 515 ;
516 [label="X[1] <= 193601.5\ngini = 0.875\nsamples = 12\nvalue = [2, 0, 0, 1, 1, 1, 1, 0, 0, 2, 1, 1, 2, 0]"] ;
512 -> 516 ;
517 [label="X[0] <= 20.5\ngini = 0.75\nsamples = 4\nvalue = [0, 0, 0, 1, 1, 0, 0, 0, 0, 0, 1, 1, 0, 0]"] ;
516 -> 517 ;
518 [label="gini = 0.0\nsamples = 1\nvalue = [0, 0, 0, 0, 1, 0, 0, 0, 0, 0, 0, 0, 0, 0]"] ;
517 -> 518 ;
519 [label="X[1] <= 190076.5\ngini = 0.667\nsamples = 3\nvalue = [0, 0, 0, 1, 0, 0, 0, 0, 0, 0, 1, 1, 0, 0]"] ;
517 -> 519 ;
520 [label="gini = 0.0\nsamples = 1\nvalue = [0, 0, 0, 0, 0, 0, 0, 0, 0, 0, 0, 1, 0, 0]"] ;
519 -> 520 ;
521 [label="X[0] <= 24.5\ngini = 0.5\nsamples = 2\nvalue = [0, 0, 0, 1, 0, 0, 0, 0, 0, 0, 1, 0, 0, 0]"] ;
519 -> 521 ;
522 [label="gini = 0.0\nsamples = 1\nvalue = [0, 0, 0, 0, 0, 0, 0, 0, 0, 0, 1, 0, 0, 0]"] ;
521 -> 522 ;
523 [label="gini = 0.0\nsamples = 1\nvalue = [0, 0, 0, 1, 0, 0, 0, 0, 0, 0, 0, 0, 0, 0]"] ;
521 -> 523 ;
524 [label="X[0] <= 23.5\ngini = 0.781\nsamples = 8\nvalue = [2, 0, 0, 0, 0, 1, 1, 0, 0, 2, 0, 0, 2, 0]"] ;
516 -> 524 ;
525 [label="X[1] <= 223565.0\ngini = 0.72\nsamples = 5\nvalue = [2, 0, 0, 0, 0, 1, 1, 0, 0, 1, 0, 0, 0, 0]"] ;
524 -> 525 ;
526 [label="X[0] <= 21.5\ngini = 0.5\nsamples = 2\nvalue = [0, 0, 0, 0, 0, 1, 1, 0, 0, 0, 0, 0, 0, 0]"] ;
525 -> 526 ;
527 [label="gini = 0.0\nsamples = 1\nvalue = [0, 0, 0, 0, 0, 1, 0, 0, 0, 0, 0, 0, 0, 0]"] ;
526 -> 527 ;
528 [label="gini = 0.0\nsamples = 1\nvalue = [0, 0, 0, 0, 0, 0, 1, 0, 0, 0, 0, 0, 0, 0]"] ;
526 -> 528 ;
529 [label="X[0] <= 19.0\ngini = 0.444\nsamples = 3\nvalue = [2, 0, 0, 0, 0, 0, 0, 0, 0, 1, 0, 0, 0, 0]"] ;
525 -> 529 ;
530 [label="gini = 0.0\nsamples = 1\nvalue = [0, 0, 0, 0, 0, 0, 0, 0, 0, 1, 0, 0, 0, 0]"] ;
529 -> 530 ;
531 [label="gini = 0.0\nsamples = 2\nvalue = [2, 0, 0, 0, 0, 0, 0, 0, 0, 0, 0, 0, 0, 0]"] ;
529 -> 531 ;
532 [label="X[0] <= 26.0\ngini = 0.444\nsamples = 3\nvalue = [0, 0, 0, 0, 0, 0, 0, 0, 0, 1, 0, 0, 2, 0]"] ;
524 -> 532 ;
533 [label="gini = 0.0\nsamples = 2\nvalue = [0, 0, 0, 0, 0, 0, 0, 0, 0, 0, 0, 0, 2, 0]"] ;
532 -> 533 ;
534 [label="gini = 0.0\nsamples = 1\nvalue = [0, 0, 0, 0, 0, 0, 0, 0, 0, 1, 0, 0, 0, 0]"] ;
532 -> 534 ;
535 [label="gini = 0.0\nsamples = 1\nvalue = [0, 0, 0, 1, 0, 0, 0, 0, 0, 0, 0, 0, 0, 0]"] ;
491 -> 535 ;
536 [label="X[7] <= 0.5\ngini = 0.542\nsamples = 35\nvalue = [23, 0, 0, 4, 0, 0, 1, 1, 0, 0, 1, 3, 2, 0]"] ;
482 -> 536 ;
537 [label="X[1] <= 591054.5\ngini = 0.436\nsamples = 27\nvalue = [20, 0, 0, 2, 0, 0, 1, 1, 0, 0, 1, 2, 0, 0]"] ;
536 -> 537 ;
538 [label="X[1] <= 77962.5\ngini = 0.393\nsamples = 26\nvalue = [20, 0, 0, 2, 0, 0, 1, 1, 0, 0, 0, 2, 0, 0]"] ;
537 -> 538 ;
539 [label="X[6] <= 0.5\ngini = 0.5\nsamples = 2\nvalue = [1, 0, 0, 0, 0, 0, 1, 0, 0, 0, 0, 0, 0, 0]"] ;
538 -> 539 ;
540 [label="gini = 0.0\nsamples = 1\nvalue = [0, 0, 0, 0, 0, 0, 1, 0, 0, 0, 0, 0, 0, 0]"] ;
539 -> 540 ;
541 [label="gini = 0.0\nsamples = 1\nvalue = [1, 0, 0, 0, 0, 0, 0, 0, 0, 0, 0, 0, 0, 0]"] ;
539 -> 541 ;
542 [label="X[1] <= 331187.5\ngini = 0.358\nsamples = 24\nvalue = [19, 0, 0, 2, 0, 0, 0, 1, 0, 0, 0, 2, 0, 0]"] ;
538 -> 542 ;
543 [label="X[8] <= 0.5\ngini = 0.318\nsamples = 22\nvalue = [18, 0, 0, 2, 0, 0, 0, 1, 0, 0, 0, 1, 0, 0]"] ;
542 -> 543 ;
544 [label="X[15] <= 0.5\ngini = 0.27\nsamples = 20\nvalue = [17, 0, 0, 1, 0, 0, 0, 1, 0, 0, 0, 1, 0, 0]"] ;
543 -> 544 ;
545 [label="X[20] <= 0.5\ngini = 0.215\nsamples = 17\nvalue = [15, 0, 0, 1, 0, 0, 0, 1, 0, 0, 0, 0, 0, 0]"] ;
544 -> 545 ;
546 [label="gini = 0.0\nsamples = 12\nvalue = [12, 0, 0, 0, 0, 0, 0, 0, 0, 0, 0, 0, 0, 0]"] ;
545 -> 546 ;
547 [label="X[0] <= 34.5\ngini = 0.56\nsamples = 5\nvalue = [3, 0, 0, 1, 0, 0, 0, 1, 0, 0, 0, 0, 0, 0]"] ;
545 -> 547 ;
548 [label="X[0] <= 32.5\ngini = 0.375\nsamples = 4\nvalue = [3, 0, 0, 1, 0, 0, 0, 0, 0, 0, 0, 0, 0, 0]"] ;
547 -> 548 ;
549 [label="gini = 0.0\nsamples = 2\nvalue = [2, 0, 0, 0, 0, 0, 0, 0, 0, 0, 0, 0, 0, 0]"] ;
548 -> 549 ;
550 [label="X[5] <= 56.0\ngini = 0.5\nsamples = 2\nvalue = [1, 0, 0, 1, 0, 0, 0, 0, 0, 0, 0, 0, 0, 0]"] ;
548 -> 550 ;
551 [label="gini = 0.0\nsamples = 1\nvalue = [0, 0, 0, 1, 0, 0, 0, 0, 0, 0, 0, 0, 0, 0]"] ;
550 -> 551 ;
552 [label="gini = 0.0\nsamples = 1\nvalue = [1, 0, 0, 0, 0, 0, 0, 0, 0, 0, 0, 0, 0, 0]"] ;
550 -> 552 ;
553 [label="gini = 0.0\nsamples = 1\nvalue = [0, 0, 0, 0, 0, 0, 0, 1, 0, 0, 0, 0, 0, 0]"] ;
547 -> 553 ;
554 [label="X[22] <= 0.5\ngini = 0.444\nsamples = 3\nvalue = [2, 0, 0, 0, 0, 0, 0, 0, 0, 0, 0, 1, 0, 0]"] ;
544 -> 554 ;
555 [label="gini = 0.0\nsamples = 2\nvalue = [2, 0, 0, 0, 0, 0, 0, 0, 0, 0, 0, 0, 0, 0]"] ;
554 -> 555 ;
556 [label="gini = 0.0\nsamples = 1\nvalue = [0, 0, 0, 0, 0, 0, 0, 0, 0, 0, 0, 1, 0, 0]"] ;
554 -> 556 ;
557 [label="X[16] <= 0.5\ngini = 0.5\nsamples = 2\nvalue = [1, 0, 0, 1, 0, 0, 0, 0, 0, 0, 0, 0, 0, 0]"] ;
543 -> 557 ;
558 [label="gini = 0.0\nsamples = 1\nvalue = [1, 0, 0, 0, 0, 0, 0, 0, 0, 0, 0, 0, 0, 0]"] ;
557 -> 558 ;
559 [label="gini = 0.0\nsamples = 1\nvalue = [0, 0, 0, 1, 0, 0, 0, 0, 0, 0, 0, 0, 0, 0]"] ;
557 -> 559 ;
560 [label="X[13] <= 0.5\ngini = 0.5\nsamples = 2\nvalue = [1, 0, 0, 0, 0, 0, 0, 0, 0, 0, 0, 1, 0, 0]"] ;
542 -> 560 ;
561 [label="gini = 0.0\nsamples = 1\nvalue = [1, 0, 0, 0, 0, 0, 0, 0, 0, 0, 0, 0, 0, 0]"] ;
560 -> 561 ;
562 [label="gini = 0.0\nsamples = 1\nvalue = [0, 0, 0, 0, 0, 0, 0, 0, 0, 0, 0, 1, 0, 0]"] ;
560 -> 562 ;
563 [label="gini = 0.0\nsamples = 1\nvalue = [0, 0, 0, 0, 0, 0, 0, 0, 0, 0, 1, 0, 0, 0]"] ;
537 -> 563 ;
564 [label="X[0] <= 31.0\ngini = 0.719\nsamples = 8\nvalue = [3, 0, 0, 2, 0, 0, 0, 0, 0, 0, 0, 1, 2, 0]"] ;
536 -> 564 ;
565 [label="gini = 0.0\nsamples = 3\nvalue = [3, 0, 0, 0, 0, 0, 0, 0, 0, 0, 0, 0, 0, 0]"] ;
564 -> 565 ;
566 [label="X[0] <= 34.5\ngini = 0.64\nsamples = 5\nvalue = [0, 0, 0, 2, 0, 0, 0, 0, 0, 0, 0, 1, 2, 0]"] ;
564 -> 566 ;
567 [label="X[17] <= 0.5\ngini = 0.5\nsamples = 4\nvalue = [0, 0, 0, 2, 0, 0, 0, 0, 0, 0, 0, 0, 2, 0]"] ;
566 -> 567 ;
568 [label="gini = 0.0\nsamples = 1\nvalue = [0, 0, 0, 1, 0, 0, 0, 0, 0, 0, 0, 0, 0, 0]"] ;
567 -> 568 ;
569 [label="X[4] <= 742.5\ngini = 0.444\nsamples = 3\nvalue = [0, 0, 0, 1, 0, 0, 0, 0, 0, 0, 0, 0, 2, 0]"] ;
567 -> 569 ;
570 [label="gini = 0.0\nsamples = 2\nvalue = [0, 0, 0, 0, 0, 0, 0, 0, 0, 0, 0, 0, 2, 0]"] ;
569 -> 570 ;
571 [label="gini = 0.0\nsamples = 1\nvalue = [0, 0, 0, 1, 0, 0, 0, 0, 0, 0, 0, 0, 0, 0]"] ;
569 -> 571 ;
572 [label="gini = 0.0\nsamples = 1\nvalue = [0, 0, 0, 0, 0, 0, 0, 0, 0, 0, 0, 1, 0, 0]"] ;
566 -> 572 ;
573 [label="X[0] <= 29.5\ngini = 0.846\nsamples = 26\nvalue = [6, 0, 1, 2, 0, 0, 0, 5, 0, 4, 1, 4, 2, 1]"] ;
481 -> 573 ;
574 [label="X[1] <= 275309.0\ngini = 0.722\nsamples = 13\nvalue = [5, 0, 0, 0, 0, 0, 0, 4, 0, 0, 0, 2, 1, 1]"] ;
573 -> 574 ;
575 [label="X[15] <= 0.5\ngini = 0.645\nsamples = 11\nvalue = [5, 0, 0, 0, 0, 0, 0, 4, 0, 0, 0, 0, 1, 1]"] ;
574 -> 575 ;
576 [label="X[0] <= 23.5\ngini = 0.667\nsamples = 9\nvalue = [3, 0, 0, 0, 0, 0, 0, 4, 0, 0, 0, 0, 1, 1]"] ;
575 -> 576 ;
577 [label="gini = 0.0\nsamples = 1\nvalue = [0, 0, 0, 0, 0, 0, 0, 0, 0, 0, 0, 0, 0, 1]"] ;
576 -> 577 ;
578 [label="X[20] <= 0.5\ngini = 0.594\nsamples = 8\nvalue = [3, 0, 0, 0, 0, 0, 0, 4, 0, 0, 0, 0, 1, 0]"] ;
576 -> 578 ;
579 [label="X[5] <= 42.5\ngini = 0.444\nsamples = 6\nvalue = [2, 0, 0, 0, 0, 0, 0, 4, 0, 0, 0, 0, 0, 0]"] ;
578 -> 579 ;
580 [label="X[6] <= 0.5\ngini = 0.48\nsamples = 5\nvalue = [2, 0, 0, 0, 0, 0, 0, 3, 0, 0, 0, 0, 0, 0]"] ;
579 -> 580 ;
581 [label="X[0] <= 28.5\ngini = 0.375\nsamples = 4\nvalue = [1, 0, 0, 0, 0, 0, 0, 3, 0, 0, 0, 0, 0, 0]"] ;
580 -> 581 ;
582 [label="gini = 0.0\nsamples = 3\nvalue = [0, 0, 0, 0, 0, 0, 0, 3, 0, 0, 0, 0, 0, 0]"] ;
581 -> 582 ;
583 [label="gini = 0.0\nsamples = 1\nvalue = [1, 0, 0, 0, 0, 0, 0, 0, 0, 0, 0, 0, 0, 0]"] ;
581 -> 583 ;
584 [label="gini = 0.0\nsamples = 1\nvalue = [1, 0, 0, 0, 0, 0, 0, 0, 0, 0, 0, 0, 0, 0]"] ;
580 -> 584 ;
585 [label="gini = 0.0\nsamples = 1\nvalue = [0, 0, 0, 0, 0, 0, 0, 1, 0, 0, 0, 0, 0, 0]"] ;
579 -> 585 ;
586 [label="X[2] <= 11.5\ngini = 0.5\nsamples = 2\nvalue = [1, 0, 0, 0, 0, 0, 0, 0, 0, 0, 0, 0, 1, 0]"] ;
578 -> 586 ;
587 [label="gini = 0.0\nsamples = 1\nvalue = [0, 0, 0, 0, 0, 0, 0, 0, 0, 0, 0, 0, 1, 0]"] ;
586 -> 587 ;
588 [label="gini = 0.0\nsamples = 1\nvalue = [1, 0, 0, 0, 0, 0, 0, 0, 0, 0, 0, 0, 0, 0]"] ;
586 -> 588 ;
589 [label="gini = 0.0\nsamples = 2\nvalue = [2, 0, 0, 0, 0, 0, 0, 0, 0, 0, 0, 0, 0, 0]"] ;
575 -> 589 ;
590 [label="gini = 0.0\nsamples = 2\nvalue = [0, 0, 0, 0, 0, 0, 0, 0, 0, 0, 0, 2, 0, 0]"] ;
574 -> 590 ;
591 [label="X[0] <= 31.0\ngini = 0.828\nsamples = 13\nvalue = [1, 0, 1, 2, 0, 0, 0, 1, 0, 4, 1, 2, 1, 0]"] ;
573 -> 591 ;
592 [label="gini = 0.0\nsamples = 2\nvalue = [0, 0, 0, 0, 0, 0, 0, 0, 0, 2, 0, 0, 0, 0]"] ;
591 -> 592 ;
593 [label="X[26] <= 0.5\ngini = 0.86\nsamples = 11\nvalue = [1, 0, 1, 2, 0, 0, 0, 1, 0, 2, 1, 2, 1, 0]"] ;
591 -> 593 ;
594 [label="X[15] <= 0.5\ngini = 0.816\nsamples = 7\nvalue = [1, 0, 1, 1, 0, 0, 0, 1, 0, 0, 0, 2, 1, 0]"] ;
593 -> 594 ;
595 [label="X[1] <= 126441.5\ngini = 0.778\nsamples = 6\nvalue = [1, 0, 0, 1, 0, 0, 0, 1, 0, 0, 0, 2, 1, 0]"] ;
594 -> 595 ;
596 [label="gini = 0.0\nsamples = 1\nvalue = [1, 0, 0, 0, 0, 0, 0, 0, 0, 0, 0, 0, 0, 0]"] ;
595 -> 596 ;
597 [label="X[10] <= 0.5\ngini = 0.72\nsamples = 5\nvalue = [0, 0, 0, 1, 0, 0, 0, 1, 0, 0, 0, 2, 1, 0]"] ;
595 -> 597 ;
598 [label="X[20] <= 0.5\ngini = 0.625\nsamples = 4\nvalue = [0, 0, 0, 1, 0, 0, 0, 0, 0, 0, 0, 2, 1, 0]"] ;
597 -> 598 ;
599 [label="X[0] <= 35.0\ngini = 0.5\nsamples = 2\nvalue = [0, 0, 0, 0, 0, 0, 0, 0, 0, 0, 0, 1, 1, 0]"] ;
598 -> 599 ;
600 [label="gini = 0.0\nsamples = 1\nvalue = [0, 0, 0, 0, 0, 0, 0, 0, 0, 0, 0, 0, 1, 0]"] ;
599 -> 600 ;
601 [label="gini = 0.0\nsamples = 1\nvalue = [0, 0, 0, 0, 0, 0, 0, 0, 0, 0, 0, 1, 0, 0]"] ;
599 -> 601 ;
602 [label="X[6] <= 0.5\ngini = 0.5\nsamples = 2\nvalue = [0, 0, 0, 1, 0, 0, 0, 0, 0, 0, 0, 1, 0, 0]"] ;
598 -> 602 ;
603 [label="gini = 0.0\nsamples = 1\nvalue = [0, 0, 0, 0, 0, 0, 0, 0, 0, 0, 0, 1, 0, 0]"] ;
602 -> 603 ;
604 [label="gini = 0.0\nsamples = 1\nvalue = [0, 0, 0, 1, 0, 0, 0, 0, 0, 0, 0, 0, 0, 0]"] ;
602 -> 604 ;
605 [label="gini = 0.0\nsamples = 1\nvalue = [0, 0, 0, 0, 0, 0, 0, 1, 0, 0, 0, 0, 0, 0]"] ;
597 -> 605 ;
606 [label="gini = 0.0\nsamples = 1\nvalue = [0, 0, 1, 0, 0, 0, 0, 0, 0, 0, 0, 0, 0, 0]"] ;
594 -> 606 ;
607 [label="X[0] <= 35.5\ngini = 0.625\nsamples = 4\nvalue = [0, 0, 0, 1, 0, 0, 0, 0, 0, 2, 1, 0, 0, 0]"] ;
593 -> 607 ;
608 [label="gini = 0.0\nsamples = 2\nvalue = [0, 0, 0, 0, 0, 0, 0, 0, 0, 2, 0, 0, 0, 0]"] ;
607 -> 608 ;
609 [label="X[20] <= 0.5\ngini = 0.5\nsamples = 2\nvalue = [0, 0, 0, 1, 0, 0, 0, 0, 0, 0, 1, 0, 0, 0]"] ;
607 -> 609 ;
610 [label="gini = 0.0\nsamples = 1\nvalue = [0, 0, 0, 1, 0, 0, 0, 0, 0, 0, 0, 0, 0, 0]"] ;
609 -> 610 ;
611 [label="gini = 0.0\nsamples = 1\nvalue = [0, 0, 0, 0, 0, 0, 0, 0, 0, 0, 1, 0, 0, 0]"] ;
609 -> 611 ;
612 [label="X[5] <= 44.5\ngini = 0.803\nsamples = 220\nvalue = [79, 0, 9, 41, 0, 0, 12, 16, 3, 24, 2, 21, 11\n2]"] ;
344 -> 612 ;
613 [label="X[0] <= 38.5\ngini = 0.774\nsamples = 182\nvalue = [75, 0, 4, 30, 0, 0, 11, 13, 3, 19, 2, 14, 10\n1]"] ;
612 -> 613 ;
614 [label="X[26] <= 0.5\ngini = 0.839\nsamples = 21\nvalue = [3, 0, 0, 4, 0, 0, 0, 2, 1, 4, 0, 3, 4, 0]"] ;
613 -> 614 ;
615 [label="X[10] <= 0.5\ngini = 0.816\nsamples = 14\nvalue = [3, 0, 0, 1, 0, 0, 0, 2, 1, 2, 0, 1, 4, 0]"] ;
614 -> 615 ;
616 [label="X[2] <= 9.5\ngini = 0.72\nsamples = 10\nvalue = [3, 0, 0, 1, 0, 0, 0, 0, 0, 1, 0, 1, 4, 0]"] ;
615 -> 616 ;
617 [label="X[0] <= 37.5\ngini = 0.667\nsamples = 3\nvalue = [1, 0, 0, 0, 0, 0, 0, 0, 0, 1, 0, 1, 0, 0]"] ;
616 -> 617 ;
618 [label="X[1] <= 186143.5\ngini = 0.5\nsamples = 2\nvalue = [1, 0, 0, 0, 0, 0, 0, 0, 0, 0, 0, 1, 0, 0]"] ;
617 -> 618 ;
619 [label="gini = 0.0\nsamples = 1\nvalue = [0, 0, 0, 0, 0, 0, 0, 0, 0, 0, 0, 1, 0, 0]"] ;
618 -> 619 ;
620 [label="gini = 0.0\nsamples = 1\nvalue = [1, 0, 0, 0, 0, 0, 0, 0, 0, 0, 0, 0, 0, 0]"] ;
618 -> 620 ;
621 [label="gini = 0.0\nsamples = 1\nvalue = [0, 0, 0, 0, 0, 0, 0, 0, 0, 1, 0, 0, 0, 0]"] ;
617 -> 621 ;
622 [label="X[16] <= 0.5\ngini = 0.571\nsamples = 7\nvalue = [2, 0, 0, 1, 0, 0, 0, 0, 0, 0, 0, 0, 4, 0]"] ;
616 -> 622 ;
623 [label="X[1] <= 171143.5\ngini = 0.32\nsamples = 5\nvalue = [1, 0, 0, 0, 0, 0, 0, 0, 0, 0, 0, 0, 4, 0]"] ;
622 -> 623 ;
624 [label="gini = 0.0\nsamples = 2\nvalue = [0, 0, 0, 0, 0, 0, 0, 0, 0, 0, 0, 0, 2, 0]"] ;
623 -> 624 ;
625 [label="X[2] <= 10.5\ngini = 0.444\nsamples = 3\nvalue = [1, 0, 0, 0, 0, 0, 0, 0, 0, 0, 0, 0, 2, 0]"] ;
623 -> 625 ;
626 [label="gini = 0.0\nsamples = 1\nvalue = [1, 0, 0, 0, 0, 0, 0, 0, 0, 0, 0, 0, 0, 0]"] ;
625 -> 626 ;
627 [label="gini = 0.0\nsamples = 2\nvalue = [0, 0, 0, 0, 0, 0, 0, 0, 0, 0, 0, 0, 2, 0]"] ;
625 -> 627 ;
628 [label="X[1] <= 147273.0\ngini = 0.5\nsamples = 2\nvalue = [1, 0, 0, 1, 0, 0, 0, 0, 0, 0, 0, 0, 0, 0]"] ;
622 -> 628 ;
629 [label="gini = 0.0\nsamples = 1\nvalue = [1, 0, 0, 0, 0, 0, 0, 0, 0, 0, 0, 0, 0, 0]"] ;
628 -> 629 ;
630 [label="gini = 0.0\nsamples = 1\nvalue = [0, 0, 0, 1, 0, 0, 0, 0, 0, 0, 0, 0, 0, 0]"] ;
628 -> 630 ;
631 [label="X[22] <= 0.5\ngini = 0.625\nsamples = 4\nvalue = [0, 0, 0, 0, 0, 0, 0, 2, 1, 1, 0, 0, 0, 0]"] ;
615 -> 631 ;
632 [label="X[18] <= 0.5\ngini = 0.5\nsamples = 2\nvalue = [0, 0, 0, 0, 0, 0, 0, 0, 1, 1, 0, 0, 0, 0]"] ;
631 -> 632 ;
633 [label="gini = 0.0\nsamples = 1\nvalue = [0, 0, 0, 0, 0, 0, 0, 0, 1, 0, 0, 0, 0, 0]"] ;
632 -> 633 ;
634 [label="gini = 0.0\nsamples = 1\nvalue = [0, 0, 0, 0, 0, 0, 0, 0, 0, 1, 0, 0, 0, 0]"] ;
632 -> 634 ;
635 [label="gini = 0.0\nsamples = 2\nvalue = [0, 0, 0, 0, 0, 0, 0, 2, 0, 0, 0, 0, 0, 0]"] ;
631 -> 635 ;
636 [label="X[1] <= 204168.0\ngini = 0.653\nsamples = 7\nvalue = [0, 0, 0, 3, 0, 0, 0, 0, 0, 2, 0, 2, 0, 0]"] ;
614 -> 636 ;
637 [label="X[1] <= 122241.0\ngini = 0.5\nsamples = 4\nvalue = [0, 0, 0, 2, 0, 0, 0, 0, 0, 0, 0, 2, 0, 0]"] ;
636 -> 637 ;
638 [label="gini = 0.0\nsamples = 1\nvalue = [0, 0, 0, 1, 0, 0, 0, 0, 0, 0, 0, 0, 0, 0]"] ;
637 -> 638 ;
639 [label="X[5] <= 39.0\ngini = 0.444\nsamples = 3\nvalue = [0, 0, 0, 1, 0, 0, 0, 0, 0, 0, 0, 2, 0, 0]"] ;
637 -> 639 ;
640 [label="gini = 0.0\nsamples = 1\nvalue = [0, 0, 0, 1, 0, 0, 0, 0, 0, 0, 0, 0, 0, 0]"] ;
639 -> 640 ;
641 [label="gini = 0.0\nsamples = 2\nvalue = [0, 0, 0, 0, 0, 0, 0, 0, 0, 0, 0, 2, 0, 0]"] ;
639 -> 641 ;
642 [label="X[1] <= 410994.0\ngini = 0.444\nsamples = 3\nvalue = [0, 0, 0, 1, 0, 0, 0, 0, 0, 2, 0, 0, 0, 0]"] ;
636 -> 642 ;
643 [label="gini = 0.0\nsamples = 2\nvalue = [0, 0, 0, 0, 0, 0, 0, 0, 0, 2, 0, 0, 0, 0]"] ;
642 -> 643 ;
644 [label="gini = 0.0\nsamples = 1\nvalue = [0, 0, 0, 1, 0, 0, 0, 0, 0, 0, 0, 0, 0, 0]"] ;
642 -> 644 ;
645 [label="X[0] <= 51.5\ngini = 0.749\nsamples = 161\nvalue = [72, 0, 4, 26, 0, 0, 11, 11, 2, 15, 2, 11, 6\n1]"] ;
613 -> 645 ;
646 [label="X[1] <= 346480.0\ngini = 0.716\nsamples = 111\nvalue = [53, 0, 2, 19, 0, 0, 7, 2, 0, 13, 0, 8, 6, 1]"] ;
645 -> 646 ;
647 [label="X[10] <= 0.5\ngini = 0.707\nsamples = 108\nvalue = [53, 0, 1, 17, 0, 0, 7, 2, 0, 13, 0, 8, 6, 1]"] ;
646 -> 647 ;
648 [label="X[6] <= 0.5\ngini = 0.688\nsamples = 100\nvalue = [51, 0, 1, 16, 0, 0, 4, 2, 0, 13, 0, 7, 5, 1]"] ;
647 -> 648 ;
649 [label="X[1] <= 38435.5\ngini = 0.503\nsamples = 38\nvalue = [26, 0, 0, 5, 0, 0, 0, 0, 0, 3, 0, 2, 2, 0]"] ;
648 -> 649 ;
650 [label="gini = 0.0\nsamples = 1\nvalue = [0, 0, 0, 0, 0, 0, 0, 0, 0, 1, 0, 0, 0, 0]"] ;
649 -> 650 ;
651 [label="X[3] <= 11356.0\ngini = 0.479\nsamples = 37\nvalue = [26, 0, 0, 5, 0, 0, 0, 0, 0, 2, 0, 2, 2, 0]"] ;
649 -> 651 ;
652 [label="X[0] <= 41.5\ngini = 0.457\nsamples = 36\nvalue = [26, 0, 0, 4, 0, 0, 0, 0, 0, 2, 0, 2, 2, 0]"] ;
651 -> 652 ;
653 [label="X[5] <= 39.0\ngini = 0.656\nsamples = 8\nvalue = [4, 0, 0, 0, 0, 0, 0, 0, 0, 1, 0, 2, 1, 0]"] ;
652 -> 653 ;
654 [label="gini = 0.0\nsamples = 1\nvalue = [0, 0, 0, 0, 0, 0, 0, 0, 0, 0, 0, 0, 1, 0]"] ;
653 -> 654 ;
655 [label="X[14] <= 0.5\ngini = 0.571\nsamples = 7\nvalue = [4, 0, 0, 0, 0, 0, 0, 0, 0, 1, 0, 2, 0, 0]"] ;
653 -> 655 ;
656 [label="X[1] <= 177186.5\ngini = 0.5\nsamples = 6\nvalue = [4, 0, 0, 0, 0, 0, 0, 0, 0, 1, 0, 1, 0, 0]"] ;
655 -> 656 ;
657 [label="X[22] <= 0.5\ngini = 0.667\nsamples = 3\nvalue = [1, 0, 0, 0, 0, 0, 0, 0, 0, 1, 0, 1, 0, 0]"] ;
656 -> 657 ;
658 [label="X[17] <= 0.5\ngini = 0.5\nsamples = 2\nvalue = [0, 0, 0, 0, 0, 0, 0, 0, 0, 1, 0, 1, 0, 0]"] ;
657 -> 658 ;
659 [label="gini = 0.0\nsamples = 1\nvalue = [0, 0, 0, 0, 0, 0, 0, 0, 0, 0, 0, 1, 0, 0]"] ;
658 -> 659 ;
660 [label="gini = 0.0\nsamples = 1\nvalue = [0, 0, 0, 0, 0, 0, 0, 0, 0, 1, 0, 0, 0, 0]"] ;
658 -> 660 ;
661 [label="gini = 0.0\nsamples = 1\nvalue = [1, 0, 0, 0, 0, 0, 0, 0, 0, 0, 0, 0, 0, 0]"] ;
657 -> 661 ;
662 [label="gini = 0.0\nsamples = 3\nvalue = [3, 0, 0, 0, 0, 0, 0, 0, 0, 0, 0, 0, 0, 0]"] ;
656 -> 662 ;
663 [label="gini = 0.0\nsamples = 1\nvalue = [0, 0, 0, 0, 0, 0, 0, 0, 0, 0, 0, 1, 0, 0]"] ;
655 -> 663 ;
664 [label="X[4] <= 924.0\ngini = 0.36\nsamples = 28\nvalue = [22, 0, 0, 4, 0, 0, 0, 0, 0, 1, 0, 0, 1, 0]"] ;
652 -> 664 ;
665 [label="X[1] <= 219260.5\ngini = 0.322\nsamples = 26\nvalue = [21, 0, 0, 4, 0, 0, 0, 0, 0, 1, 0, 0, 0, 0]"] ;
664 -> 665 ;
666 [label="X[0] <= 43.0\ngini = 0.41\nsamples = 19\nvalue = [14, 0, 0, 4, 0, 0, 0, 0, 0, 1, 0, 0, 0, 0]"] ;
665 -> 666 ;
667 [label="gini = 0.0\nsamples = 1\nvalue = [0, 0, 0, 1, 0, 0, 0, 0, 0, 0, 0, 0, 0, 0]"] ;
666 -> 667 ;
668 [label="X[11] <= 0.5\ngini = 0.364\nsamples = 18\nvalue = [14, 0, 0, 3, 0, 0, 0, 0, 0, 1, 0, 0, 0, 0]"] ;
666 -> 668 ;
669 [label="X[14] <= 0.5\ngini = 0.305\nsamples = 16\nvalue = [13, 0, 0, 3, 0, 0, 0, 0, 0, 0, 0, 0, 0, 0]"] ;
668 -> 669 ;
670 [label="X[1] <= 127966.0\ngini = 0.245\nsamples = 14\nvalue = [12, 0, 0, 2, 0, 0, 0, 0, 0, 0, 0, 0, 0, 0]"] ;
669 -> 670 ;
671 [label="gini = 0.0\nsamples = 6\nvalue = [6, 0, 0, 0, 0, 0, 0, 0, 0, 0, 0, 0, 0, 0]"] ;
670 -> 671 ;
672 [label="X[1] <= 135079.5\ngini = 0.375\nsamples = 8\nvalue = [6, 0, 0, 2, 0, 0, 0, 0, 0, 0, 0, 0, 0, 0]"] ;
670 -> 672 ;
673 [label="gini = 0.0\nsamples = 1\nvalue = [0, 0, 0, 1, 0, 0, 0, 0, 0, 0, 0, 0, 0, 0]"] ;
672 -> 673 ;
674 [label="X[2] <= 9.5\ngini = 0.245\nsamples = 7\nvalue = [6, 0, 0, 1, 0, 0, 0, 0, 0, 0, 0, 0, 0, 0]"] ;
672 -> 674 ;
675 [label="gini = 0.0\nsamples = 5\nvalue = [5, 0, 0, 0, 0, 0, 0, 0, 0, 0, 0, 0, 0, 0]"] ;
674 -> 675 ;
676 [label="X[1] <= 160018.0\ngini = 0.5\nsamples = 2\nvalue = [1, 0, 0, 1, 0, 0, 0, 0, 0, 0, 0, 0, 0, 0]"] ;
674 -> 676 ;
677 [label="gini = 0.0\nsamples = 1\nvalue = [1, 0, 0, 0, 0, 0, 0, 0, 0, 0, 0, 0, 0, 0]"] ;
676 -> 677 ;
678 [label="gini = 0.0\nsamples = 1\nvalue = [0, 0, 0, 1, 0, 0, 0, 0, 0, 0, 0, 0, 0, 0]"] ;
676 -> 678 ;
679 [label="X[1] <= 85850.0\ngini = 0.5\nsamples = 2\nvalue = [1, 0, 0, 1, 0, 0, 0, 0, 0, 0, 0, 0, 0, 0]"] ;
669 -> 679 ;
680 [label="gini = 0.0\nsamples = 1\nvalue = [1, 0, 0, 0, 0, 0, 0, 0, 0, 0, 0, 0, 0, 0]"] ;
679 -> 680 ;
681 [label="gini = 0.0\nsamples = 1\nvalue = [0, 0, 0, 1, 0, 0, 0, 0, 0, 0, 0, 0, 0, 0]"] ;
679 -> 681 ;
682 [label="X[2] <= 9.5\ngini = 0.5\nsamples = 2\nvalue = [1, 0, 0, 0, 0, 0, 0, 0, 0, 1, 0, 0, 0, 0]"] ;
668 -> 682 ;
683 [label="gini = 0.0\nsamples = 1\nvalue = [1, 0, 0, 0, 0, 0, 0, 0, 0, 0, 0, 0, 0, 0]"] ;
682 -> 683 ;
684 [label="gini = 0.0\nsamples = 1\nvalue = [0, 0, 0, 0, 0, 0, 0, 0, 0, 1, 0, 0, 0, 0]"] ;
682 -> 684 ;
685 [label="gini = 0.0\nsamples = 7\nvalue = [7, 0, 0, 0, 0, 0, 0, 0, 0, 0, 0, 0, 0, 0]"] ;
665 -> 685 ;
686 [label="X[1] <= 213673.5\ngini = 0.5\nsamples = 2\nvalue = [1, 0, 0, 0, 0, 0, 0, 0, 0, 0, 0, 0, 1, 0]"] ;
664 -> 686 ;
687 [label="gini = 0.0\nsamples = 1\nvalue = [1, 0, 0, 0, 0, 0, 0, 0, 0, 0, 0, 0, 0, 0]"] ;
686 -> 687 ;
688 [label="gini = 0.0\nsamples = 1\nvalue = [0, 0, 0, 0, 0, 0, 0, 0, 0, 0, 0, 0, 1, 0]"] ;
686 -> 688 ;
689 [label="gini = 0.0\nsamples = 1\nvalue = [0, 0, 0, 1, 0, 0, 0, 0, 0, 0, 0, 0, 0, 0]"] ;
651 -> 689 ;
690 [label="X[2] <= 11.5\ngini = 0.765\nsamples = 62\nvalue = [25, 0, 1, 11, 0, 0, 4, 2, 0, 10, 0, 5, 3, 1]"] ;
648 -> 690 ;
691 [label="X[1] <= 103737.5\ngini = 0.752\nsamples = 59\nvalue = [25, 0, 1, 10, 0, 0, 4, 2, 0, 10, 0, 3, 3, 1]"] ;
690 -> 691 ;
692 [label="X[19] <= 0.5\ngini = 0.34\nsamples = 10\nvalue = [8, 0, 0, 1, 0, 0, 0, 0, 0, 1, 0, 0, 0, 0]"] ;
691 -> 692 ;
693 [label="X[25] <= 0.5\ngini = 0.198\nsamples = 9\nvalue = [8, 0, 0, 1, 0, 0, 0, 0, 0, 0, 0, 0, 0, 0]"] ;
692 -> 693 ;
694 [label="X[5] <= 38.5\ngini = 0.5\nsamples = 2\nvalue = [1, 0, 0, 1, 0, 0, 0, 0, 0, 0, 0, 0, 0, 0]"] ;
693 -> 694 ;
695 [label="gini = 0.0\nsamples = 1\nvalue = [1, 0, 0, 0, 0, 0, 0, 0, 0, 0, 0, 0, 0, 0]"] ;
694 -> 695 ;
696 [label="gini = 0.0\nsamples = 1\nvalue = [0, 0, 0, 1, 0, 0, 0, 0, 0, 0, 0, 0, 0, 0]"] ;
694 -> 696 ;
697 [label="gini = 0.0\nsamples = 7\nvalue = [7, 0, 0, 0, 0, 0, 0, 0, 0, 0, 0, 0, 0, 0]"] ;
693 -> 697 ;
698 [label="gini = 0.0\nsamples = 1\nvalue = [0, 0, 0, 0, 0, 0, 0, 0, 0, 1, 0, 0, 0, 0]"] ;
692 -> 698 ;
699 [label="X[1] <= 110251.5\ngini = 0.796\nsamples = 49\nvalue = [17, 0, 1, 9, 0, 0, 4, 2, 0, 9, 0, 3, 3, 1]"] ;
691 -> 699 ;
700 [label="gini = 0.0\nsamples = 2\nvalue = [0, 0, 0, 0, 0, 0, 0, 0, 0, 2, 0, 0, 0, 0]"] ;
699 -> 700 ;
701 [label="X[0] <= 42.5\ngini = 0.792\nsamples = 47\nvalue = [17, 0, 1, 9, 0, 0, 4, 2, 0, 7, 0, 3, 3, 1]"] ;
699 -> 701 ;
702 [label="X[1] <= 270497.0\ngini = 0.641\nsamples = 16\nvalue = [9, 0, 0, 1, 0, 0, 2, 0, 0, 1, 0, 2, 0, 1]"] ;
701 -> 702 ;
703 [label="X[1] <= 127597.0\ngini = 0.497\nsamples = 13\nvalue = [9, 0, 0, 0, 0, 0, 1, 0, 0, 1, 0, 1, 0, 1]"] ;
702 -> 703 ;
704 [label="gini = 0.0\nsamples = 1\nvalue = [0, 0, 0, 0, 0, 0, 0, 0, 0, 1, 0, 0, 0, 0]"] ;
703 -> 704 ;
705 [label="X[0] <= 39.5\ngini = 0.417\nsamples = 12\nvalue = [9, 0, 0, 0, 0, 0, 1, 0, 0, 0, 0, 1, 0, 1]"] ;
703 -> 705 ;
706 [label="gini = 0.0\nsamples = 6\nvalue = [6, 0, 0, 0, 0, 0, 0, 0, 0, 0, 0, 0, 0, 0]"] ;
705 -> 706 ;
707 [label="X[20] <= 0.5\ngini = 0.667\nsamples = 6\nvalue = [3, 0, 0, 0, 0, 0, 1, 0, 0, 0, 0, 1, 0, 1]"] ;
705 -> 707 ;
708 [label="X[13] <= 0.5\ngini = 0.375\nsamples = 4\nvalue = [3, 0, 0, 0, 0, 0, 1, 0, 0, 0, 0, 0, 0, 0]"] ;
707 -> 708 ;
709 [label="gini = 0.0\nsamples = 3\nvalue = [3, 0, 0, 0, 0, 0, 0, 0, 0, 0, 0, 0, 0, 0]"] ;
708 -> 709 ;
710 [label="gini = 0.0\nsamples = 1\nvalue = [0, 0, 0, 0, 0, 0, 1, 0, 0, 0, 0, 0, 0, 0]"] ;
708 -> 710 ;
711 [label="X[2] <= 9.5\ngini = 0.5\nsamples = 2\nvalue = [0, 0, 0, 0, 0, 0, 0, 0, 0, 0, 0, 1, 0, 1]"] ;
707 -> 711 ;
712 [label="gini = 0.0\nsamples = 1\nvalue = [0, 0, 0, 0, 0, 0, 0, 0, 0, 0, 0, 1, 0, 0]"] ;
711 -> 712 ;
713 [label="gini = 0.0\nsamples = 1\nvalue = [0, 0, 0, 0, 0, 0, 0, 0, 0, 0, 0, 0, 0, 1]"] ;
711 -> 713 ;
714 [label="X[13] <= 0.5\ngini = 0.667\nsamples = 3\nvalue = [0, 0, 0, 1, 0, 0, 1, 0, 0, 0, 0, 1, 0, 0]"] ;
702 -> 714 ;
715 [label="X[1] <= 290529.0\ngini = 0.5\nsamples = 2\nvalue = [0, 0, 0, 1, 0, 0, 0, 0, 0, 0, 0, 1, 0, 0]"] ;
714 -> 715 ;
716 [label="gini = 0.0\nsamples = 1\nvalue = [0, 0, 0, 1, 0, 0, 0, 0, 0, 0, 0, 0, 0, 0]"] ;
715 -> 716 ;
717 [label="gini = 0.0\nsamples = 1\nvalue = [0, 0, 0, 0, 0, 0, 0, 0, 0, 0, 0, 1, 0, 0]"] ;
715 -> 717 ;
718 [label="gini = 0.0\nsamples = 1\nvalue = [0, 0, 0, 0, 0, 0, 1, 0, 0, 0, 0, 0, 0, 0]"] ;
714 -> 718 ;
719 [label="X[5] <= 39.0\ngini = 0.81\nsamples = 31\nvalue = [8, 0, 1, 8, 0, 0, 2, 2, 0, 6, 0, 1, 3, 0]"] ;
701 -> 719 ;
720 [label="gini = 0.0\nsamples = 3\nvalue = [0, 0, 0, 3, 0, 0, 0, 0, 0, 0, 0, 0, 0, 0]"] ;
719 -> 720 ;
721 [label="X[0] <= 47.5\ngini = 0.816\nsamples = 28\nvalue = [8, 0, 1, 5, 0, 0, 2, 2, 0, 6, 0, 1, 3, 0]"] ;
719 -> 721 ;
722 [label="X[1] <= 163440.0\ngini = 0.805\nsamples = 16\nvalue = [2, 0, 1, 5, 0, 0, 1, 0, 0, 3, 0, 1, 3, 0]"] ;
721 -> 722 ;
723 [label="X[1] <= 140056.5\ngini = 0.75\nsamples = 8\nvalue = [1, 0, 1, 1, 0, 0, 0, 0, 0, 3, 0, 0, 2, 0]"] ;
722 -> 723 ;
724 [label="X[13] <= 0.5\ngini = 0.75\nsamples = 4\nvalue = [1, 0, 1, 1, 0, 0, 0, 0, 0, 0, 0, 0, 1, 0]"] ;
723 -> 724 ;
725 [label="X[2] <= 9.5\ngini = 0.5\nsamples = 2\nvalue = [1, 0, 1, 0, 0, 0, 0, 0, 0, 0, 0, 0, 0, 0]"] ;
724 -> 725 ;
726 [label="gini = 0.0\nsamples = 1\nvalue = [0, 0, 1, 0, 0, 0, 0, 0, 0, 0, 0, 0, 0, 0]"] ;
725 -> 726 ;
727 [label="gini = 0.0\nsamples = 1\nvalue = [1, 0, 0, 0, 0, 0, 0, 0, 0, 0, 0, 0, 0, 0]"] ;
725 -> 727 ;
728 [label="X[1] <= 116316.0\ngini = 0.5\nsamples = 2\nvalue = [0, 0, 0, 1, 0, 0, 0, 0, 0, 0, 0, 0, 1, 0]"] ;
724 -> 728 ;
729 [label="gini = 0.0\nsamples = 1\nvalue = [0, 0, 0, 0, 0, 0, 0, 0, 0, 0, 0, 0, 1, 0]"] ;
728 -> 729 ;
730 [label="gini = 0.0\nsamples = 1\nvalue = [0, 0, 0, 1, 0, 0, 0, 0, 0, 0, 0, 0, 0, 0]"] ;
728 -> 730 ;
731 [label="X[2] <= 10.5\ngini = 0.375\nsamples = 4\nvalue = [0, 0, 0, 0, 0, 0, 0, 0, 0, 3, 0, 0, 1, 0]"] ;
723 -> 731 ;
732 [label="gini = 0.0\nsamples = 3\nvalue = [0, 0, 0, 0, 0, 0, 0, 0, 0, 3, 0, 0, 0, 0]"] ;
731 -> 732 ;
733 [label="gini = 0.0\nsamples = 1\nvalue = [0, 0, 0, 0, 0, 0, 0, 0, 0, 0, 0, 0, 1, 0]"] ;
731 -> 733 ;
734 [label="X[22] <= 0.5\ngini = 0.688\nsamples = 8\nvalue = [1, 0, 0, 4, 0, 0, 1, 0, 0, 0, 0, 1, 1, 0]"] ;
722 -> 734 ;
735 [label="X[0] <= 44.0\ngini = 0.5\nsamples = 2\nvalue = [1, 0, 0, 0, 0, 0, 0, 0, 0, 0, 0, 0, 1, 0]"] ;
734 -> 735 ;
736 [label="gini = 0.0\nsamples = 1\nvalue = [0, 0, 0, 0, 0, 0, 0, 0, 0, 0, 0, 0, 1, 0]"] ;
735 -> 736 ;
737 [label="gini = 0.0\nsamples = 1\nvalue = [1, 0, 0, 0, 0, 0, 0, 0, 0, 0, 0, 0, 0, 0]"] ;
735 -> 737 ;
738 [label="X[15] <= 0.5\ngini = 0.5\nsamples = 6\nvalue = [0, 0, 0, 4, 0, 0, 1, 0, 0, 0, 0, 1, 0, 0]"] ;
734 -> 738 ;
739 [label="X[1] <= 177849.0\ngini = 0.32\nsamples = 5\nvalue = [0, 0, 0, 4, 0, 0, 0, 0, 0, 0, 0, 1, 0, 0]"] ;
738 -> 739 ;
740 [label="X[1] <= 169220.5\ngini = 0.5\nsamples = 2\nvalue = [0, 0, 0, 1, 0, 0, 0, 0, 0, 0, 0, 1, 0, 0]"] ;
739 -> 740 ;
741 [label="gini = 0.0\nsamples = 1\nvalue = [0, 0, 0, 1, 0, 0, 0, 0, 0, 0, 0, 0, 0, 0]"] ;
740 -> 741 ;
742 [label="gini = 0.0\nsamples = 1\nvalue = [0, 0, 0, 0, 0, 0, 0, 0, 0, 0, 0, 1, 0, 0]"] ;
740 -> 742 ;
743 [label="gini = 0.0\nsamples = 3\nvalue = [0, 0, 0, 3, 0, 0, 0, 0, 0, 0, 0, 0, 0, 0]"] ;
739 -> 743 ;
744 [label="gini = 0.0\nsamples = 1\nvalue = [0, 0, 0, 0, 0, 0, 1, 0, 0, 0, 0, 0, 0, 0]"] ;
738 -> 744 ;
745 [label="X[1] <= 189730.5\ngini = 0.653\nsamples = 12\nvalue = [6, 0, 0, 0, 0, 0, 1, 2, 0, 3, 0, 0, 0, 0]"] ;
721 -> 745 ;
746 [label="X[18] <= 0.5\ngini = 0.571\nsamples = 7\nvalue = [4, 0, 0, 0, 0, 0, 1, 2, 0, 0, 0, 0, 0, 0]"] ;
745 -> 746 ;
747 [label="X[0] <= 49.5\ngini = 0.444\nsamples = 6\nvalue = [4, 0, 0, 0, 0, 0, 0, 2, 0, 0, 0, 0, 0, 0]"] ;
746 -> 747 ;
748 [label="X[0] <= 48.5\ngini = 0.444\nsamples = 3\nvalue = [1, 0, 0, 0, 0, 0, 0, 2, 0, 0, 0, 0, 0, 0]"] ;
747 -> 748 ;
749 [label="gini = 0.0\nsamples = 1\nvalue = [1, 0, 0, 0, 0, 0, 0, 0, 0, 0, 0, 0, 0, 0]"] ;
748 -> 749 ;
750 [label="gini = 0.0\nsamples = 2\nvalue = [0, 0, 0, 0, 0, 0, 0, 2, 0, 0, 0, 0, 0, 0]"] ;
748 -> 750 ;
751 [label="gini = 0.0\nsamples = 3\nvalue = [3, 0, 0, 0, 0, 0, 0, 0, 0, 0, 0, 0, 0, 0]"] ;
747 -> 751 ;
752 [label="gini = 0.0\nsamples = 1\nvalue = [0, 0, 0, 0, 0, 0, 1, 0, 0, 0, 0, 0, 0, 0]"] ;
746 -> 752 ;
753 [label="X[1] <= 251232.0\ngini = 0.48\nsamples = 5\nvalue = [2, 0, 0, 0, 0, 0, 0, 0, 0, 3, 0, 0, 0, 0]"] ;
745 -> 753 ;
754 [label="gini = 0.0\nsamples = 3\nvalue = [0, 0, 0, 0, 0, 0, 0, 0, 0, 3, 0, 0, 0, 0]"] ;
753 -> 754 ;
755 [label="gini = 0.0\nsamples = 2\nvalue = [2, 0, 0, 0, 0, 0, 0, 0, 0, 0, 0, 0, 0, 0]"] ;
753 -> 755 ;
756 [label="X[3] <= 753.0\ngini = 0.444\nsamples = 3\nvalue = [0, 0, 0, 1, 0, 0, 0, 0, 0, 0, 0, 2, 0, 0]"] ;
690 -> 756 ;
757 [label="X[16] <= 0.5\ngini = 0.5\nsamples = 2\nvalue = [0, 0, 0, 1, 0, 0, 0, 0, 0, 0, 0, 1, 0, 0]"] ;
756 -> 757 ;
758 [label="gini = 0.0\nsamples = 1\nvalue = [0, 0, 0, 0, 0, 0, 0, 0, 0, 0, 0, 1, 0, 0]"] ;
757 -> 758 ;
759 [label="gini = 0.0\nsamples = 1\nvalue = [0, 0, 0, 1, 0, 0, 0, 0, 0, 0, 0, 0, 0, 0]"] ;
757 -> 759 ;
760 [label="gini = 0.0\nsamples = 1\nvalue = [0, 0, 0, 0, 0, 0, 0, 0, 0, 0, 0, 1, 0, 0]"] ;
756 -> 760 ;
761 [label="X[0] <= 45.0\ngini = 0.75\nsamples = 8\nvalue = [2, 0, 0, 1, 0, 0, 3, 0, 0, 0, 0, 1, 1, 0]"] ;
647 -> 761 ;
762 [label="X[13] <= 0.5\ngini = 0.778\nsamples = 6\nvalue = [2, 0, 0, 1, 0, 0, 1, 0, 0, 0, 0, 1, 1, 0]"] ;
761 -> 762 ;
763 [label="X[16] <= 0.5\ngini = 0.5\nsamples = 2\nvalue = [0, 0, 0, 0, 0, 0, 1, 0, 0, 0, 0, 1, 0, 0]"] ;
762 -> 763 ;
764 [label="gini = 0.0\nsamples = 1\nvalue = [0, 0, 0, 0, 0, 0, 0, 0, 0, 0, 0, 1, 0, 0]"] ;
763 -> 764 ;
765 [label="gini = 0.0\nsamples = 1\nvalue = [0, 0, 0, 0, 0, 0, 1, 0, 0, 0, 0, 0, 0, 0]"] ;
763 -> 765 ;
766 [label="X[22] <= 0.5\ngini = 0.625\nsamples = 4\nvalue = [2, 0, 0, 1, 0, 0, 0, 0, 0, 0, 0, 0, 1, 0]"] ;
762 -> 766 ;
767 [label="gini = 0.0\nsamples = 1\nvalue = [0, 0, 0, 1, 0, 0, 0, 0, 0, 0, 0, 0, 0, 0]"] ;
766 -> 767 ;
768 [label="X[5] <= 39.0\ngini = 0.444\nsamples = 3\nvalue = [2, 0, 0, 0, 0, 0, 0, 0, 0, 0, 0, 0, 1, 0]"] ;
766 -> 768 ;
769 [label="X[1] <= 137365.0\ngini = 0.5\nsamples = 2\nvalue = [1, 0, 0, 0, 0, 0, 0, 0, 0, 0, 0, 0, 1, 0]"] ;
768 -> 769 ;
770 [label="gini = 0.0\nsamples = 1\nvalue = [1, 0, 0, 0, 0, 0, 0, 0, 0, 0, 0, 0, 0, 0]"] ;
769 -> 770 ;
771 [label="gini = 0.0\nsamples = 1\nvalue = [0, 0, 0, 0, 0, 0, 0, 0, 0, 0, 0, 0, 1, 0]"] ;
769 -> 771 ;
772 [label="gini = 0.0\nsamples = 1\nvalue = [1, 0, 0, 0, 0, 0, 0, 0, 0, 0, 0, 0, 0, 0]"] ;
768 -> 772 ;
773 [label="gini = 0.0\nsamples = 2\nvalue = [0, 0, 0, 0, 0, 0, 2, 0, 0, 0, 0, 0, 0, 0]"] ;
761 -> 773 ;
774 [label="X[2] <= 9.5\ngini = 0.444\nsamples = 3\nvalue = [0, 0, 1, 2, 0, 0, 0, 0, 0, 0, 0, 0, 0, 0]"] ;
646 -> 774 ;
775 [label="gini = 0.0\nsamples = 1\nvalue = [0, 0, 1, 0, 0, 0, 0, 0, 0, 0, 0, 0, 0, 0]"] ;
774 -> 775 ;
776 [label="gini = 0.0\nsamples = 2\nvalue = [0, 0, 0, 2, 0, 0, 0, 0, 0, 0, 0, 0, 0, 0]"] ;
774 -> 776 ;
777 [label="X[1] <= 336693.5\ngini = 0.787\nsamples = 50\nvalue = [19, 0, 2, 7, 0, 0, 4, 9, 2, 2, 2, 3, 0, 0]"] ;
645 -> 777 ;
778 [label="X[5] <= 39.0\ngini = 0.813\nsamples = 46\nvalue = [15, 0, 2, 7, 0, 0, 4, 9, 2, 2, 2, 3, 0, 0]"] ;
777 -> 778 ;
779 [label="X[22] <= 0.5\ngini = 0.278\nsamples = 6\nvalue = [5, 0, 0, 0, 0, 0, 1, 0, 0, 0, 0, 0, 0, 0]"] ;
778 -> 779 ;
780 [label="gini = 0.0\nsamples = 1\nvalue = [0, 0, 0, 0, 0, 0, 1, 0, 0, 0, 0, 0, 0, 0]"] ;
779 -> 780 ;
781 [label="gini = 0.0\nsamples = 5\nvalue = [5, 0, 0, 0, 0, 0, 0, 0, 0, 0, 0, 0, 0, 0]"] ;
779 -> 781 ;
782 [label="X[1] <= 244809.0\ngini = 0.835\nsamples = 40\nvalue = [10, 0, 2, 7, 0, 0, 3, 9, 2, 2, 2, 3, 0, 0]"] ;
778 -> 782 ;
783 [label="X[0] <= 63.5\ngini = 0.83\nsamples = 33\nvalue = [9, 0, 1, 3, 0, 0, 3, 8, 2, 2, 2, 3, 0, 0]"] ;
782 -> 783 ;
784 [label="X[0] <= 58.0\ngini = 0.839\nsamples = 29\nvalue = [6, 0, 1, 3, 0, 0, 3, 8, 2, 2, 2, 2, 0, 0]"] ;
783 -> 784 ;
785 [label="X[11] <= 0.5\ngini = 0.831\nsamples = 19\nvalue = [6, 0, 1, 2, 0, 0, 1, 3, 1, 2, 1, 2, 0, 0]"] ;
784 -> 785 ;
786 [label="X[10] <= 0.5\ngini = 0.782\nsamples = 15\nvalue = [6, 0, 1, 2, 0, 0, 1, 2, 1, 1, 1, 0, 0, 0]"] ;
785 -> 786 ;
787 [label="X[4] <= 943.5\ngini = 0.734\nsamples = 13\nvalue = [6, 0, 0, 1, 0, 0, 1, 2, 1, 1, 1, 0, 0, 0]"] ;
786 -> 787 ;
788 [label="X[3] <= 2786.0\ngini = 0.694\nsamples = 12\nvalue = [6, 0, 0, 0, 0, 0, 1, 2, 1, 1, 1, 0, 0, 0]"] ;
787 -> 788 ;
789 [label="X[9] <= 0.5\ngini = 0.645\nsamples = 11\nvalue = [6, 0, 0, 0, 0, 0, 1, 2, 1, 0, 1, 0, 0, 0]"] ;
788 -> 789 ;
790 [label="X[2] <= 10.5\ngini = 0.58\nsamples = 10\nvalue = [6, 0, 0, 0, 0, 0, 1, 2, 1, 0, 0, 0, 0, 0]"] ;
789 -> 790 ;
791 [label="X[13] <= 0.5\ngini = 0.519\nsamples = 9\nvalue = [6, 0, 0, 0, 0, 0, 1, 1, 1, 0, 0, 0, 0, 0]"] ;
790 -> 791 ;
792 [label="gini = 0.0\nsamples = 4\nvalue = [4, 0, 0, 0, 0, 0, 0, 0, 0, 0, 0, 0, 0, 0]"] ;
791 -> 792 ;
793 [label="X[1] <= 186908.5\ngini = 0.72\nsamples = 5\nvalue = [2, 0, 0, 0, 0, 0, 1, 1, 1, 0, 0, 0, 0, 0]"] ;
791 -> 793 ;
794 [label="X[0] <= 56.0\ngini = 0.667\nsamples = 3\nvalue = [0, 0, 0, 0, 0, 0, 1, 1, 1, 0, 0, 0, 0, 0]"] ;
793 -> 794 ;
795 [label="X[1] <= 166369.5\ngini = 0.5\nsamples = 2\nvalue = [0, 0, 0, 0, 0, 0, 1, 0, 1, 0, 0, 0, 0, 0]"] ;
794 -> 795 ;
796 [label="gini = 0.0\nsamples = 1\nvalue = [0, 0, 0, 0, 0, 0, 1, 0, 0, 0, 0, 0, 0, 0]"] ;
795 -> 796 ;
797 [label="gini = 0.0\nsamples = 1\nvalue = [0, 0, 0, 0, 0, 0, 0, 0, 1, 0, 0, 0, 0, 0]"] ;
795 -> 797 ;
798 [label="gini = 0.0\nsamples = 1\nvalue = [0, 0, 0, 0, 0, 0, 0, 1, 0, 0, 0, 0, 0, 0]"] ;
794 -> 798 ;
799 [label="gini = 0.0\nsamples = 2\nvalue = [2, 0, 0, 0, 0, 0, 0, 0, 0, 0, 0, 0, 0, 0]"] ;
793 -> 799 ;
800 [label="gini = 0.0\nsamples = 1\nvalue = [0, 0, 0, 0, 0, 0, 0, 1, 0, 0, 0, 0, 0, 0]"] ;
790 -> 800 ;
801 [label="gini = 0.0\nsamples = 1\nvalue = [0, 0, 0, 0, 0, 0, 0, 0, 0, 0, 1, 0, 0, 0]"] ;
789 -> 801 ;
802 [label="gini = 0.0\nsamples = 1\nvalue = [0, 0, 0, 0, 0, 0, 0, 0, 0, 1, 0, 0, 0, 0]"] ;
788 -> 802 ;
803 [label="gini = 0.0\nsamples = 1\nvalue = [0, 0, 0, 1, 0, 0, 0, 0, 0, 0, 0, 0, 0, 0]"] ;
787 -> 803 ;
804 [label="X[0] <= 54.0\ngini = 0.5\nsamples = 2\nvalue = [0, 0, 1, 1, 0, 0, 0, 0, 0, 0, 0, 0, 0, 0]"] ;
786 -> 804 ;
805 [label="gini = 0.0\nsamples = 1\nvalue = [0, 0, 0, 1, 0, 0, 0, 0, 0, 0, 0, 0, 0, 0]"] ;
804 -> 805 ;
806 [label="gini = 0.0\nsamples = 1\nvalue = [0, 0, 1, 0, 0, 0, 0, 0, 0, 0, 0, 0, 0, 0]"] ;
804 -> 806 ;
807 [label="X[0] <= 55.5\ngini = 0.625\nsamples = 4\nvalue = [0, 0, 0, 0, 0, 0, 0, 1, 0, 1, 0, 2, 0, 0]"] ;
785 -> 807 ;
808 [label="gini = 0.0\nsamples = 2\nvalue = [0, 0, 0, 0, 0, 0, 0, 0, 0, 0, 0, 2, 0, 0]"] ;
807 -> 808 ;
809 [label="X[1] <= 201534.5\ngini = 0.5\nsamples = 2\nvalue = [0, 0, 0, 0, 0, 0, 0, 1, 0, 1, 0, 0, 0, 0]"] ;
807 -> 809 ;
810 [label="gini = 0.0\nsamples = 1\nvalue = [0, 0, 0, 0, 0, 0, 0, 0, 0, 1, 0, 0, 0, 0]"] ;
809 -> 810 ;
811 [label="gini = 0.0\nsamples = 1\nvalue = [0, 0, 0, 0, 0, 0, 0, 1, 0, 0, 0, 0, 0, 0]"] ;
809 -> 811 ;
812 [label="X[1] <= 175049.5\ngini = 0.68\nsamples = 10\nvalue = [0, 0, 0, 1, 0, 0, 2, 5, 1, 0, 1, 0, 0, 0]"] ;
784 -> 812 ;
813 [label="X[1] <= 61547.0\ngini = 0.449\nsamples = 7\nvalue = [0, 0, 0, 1, 0, 0, 0, 5, 1, 0, 0, 0, 0, 0]"] ;
812 -> 813 ;
814 [label="X[6] <= 0.5\ngini = 0.5\nsamples = 2\nvalue = [0, 0, 0, 1, 0, 0, 0, 0, 1, 0, 0, 0, 0, 0]"] ;
813 -> 814 ;
815 [label="gini = 0.0\nsamples = 1\nvalue = [0, 0, 0, 0, 0, 0, 0, 0, 1, 0, 0, 0, 0, 0]"] ;
814 -> 815 ;
816 [label="gini = 0.0\nsamples = 1\nvalue = [0, 0, 0, 1, 0, 0, 0, 0, 0, 0, 0, 0, 0, 0]"] ;
814 -> 816 ;
817 [label="gini = 0.0\nsamples = 5\nvalue = [0, 0, 0, 0, 0, 0, 0, 5, 0, 0, 0, 0, 0, 0]"] ;
813 -> 817 ;
818 [label="X[1] <= 222862.0\ngini = 0.444\nsamples = 3\nvalue = [0, 0, 0, 0, 0, 0, 2, 0, 0, 0, 1, 0, 0, 0]"] ;
812 -> 818 ;
819 [label="gini = 0.0\nsamples = 2\nvalue = [0, 0, 0, 0, 0, 0, 2, 0, 0, 0, 0, 0, 0, 0]"] ;
818 -> 819 ;
820 [label="gini = 0.0\nsamples = 1\nvalue = [0, 0, 0, 0, 0, 0, 0, 0, 0, 0, 1, 0, 0, 0]"] ;
818 -> 820 ;
821 [label="X[1] <= 201904.5\ngini = 0.375\nsamples = 4\nvalue = [3, 0, 0, 0, 0, 0, 0, 0, 0, 0, 0, 1, 0, 0]"] ;
783 -> 821 ;
822 [label="gini = 0.0\nsamples = 3\nvalue = [3, 0, 0, 0, 0, 0, 0, 0, 0, 0, 0, 0, 0, 0]"] ;
821 -> 822 ;
823 [label="gini = 0.0\nsamples = 1\nvalue = [0, 0, 0, 0, 0, 0, 0, 0, 0, 0, 0, 1, 0, 0]"] ;
821 -> 823 ;
824 [label="X[1] <= 309693.5\ngini = 0.612\nsamples = 7\nvalue = [1, 0, 1, 4, 0, 0, 0, 1, 0, 0, 0, 0, 0, 0]"] ;
782 -> 824 ;
825 [label="X[10] <= 0.5\ngini = 0.32\nsamples = 5\nvalue = [1, 0, 0, 4, 0, 0, 0, 0, 0, 0, 0, 0, 0, 0]"] ;
824 -> 825 ;
826 [label="gini = 0.0\nsamples = 4\nvalue = [0, 0, 0, 4, 0, 0, 0, 0, 0, 0, 0, 0, 0, 0]"] ;
825 -> 826 ;
827 [label="gini = 0.0\nsamples = 1\nvalue = [1, 0, 0, 0, 0, 0, 0, 0, 0, 0, 0, 0, 0, 0]"] ;
825 -> 827 ;
828 [label="X[13] <= 0.5\ngini = 0.5\nsamples = 2\nvalue = [0, 0, 1, 0, 0, 0, 0, 1, 0, 0, 0, 0, 0, 0]"] ;
824 -> 828 ;
829 [label="gini = 0.0\nsamples = 1\nvalue = [0, 0, 1, 0, 0, 0, 0, 0, 0, 0, 0, 0, 0, 0]"] ;
828 -> 829 ;
830 [label="gini = 0.0\nsamples = 1\nvalue = [0, 0, 0, 0, 0, 0, 0, 1, 0, 0, 0, 0, 0, 0]"] ;
828 -> 830 ;
831 [label="gini = 0.0\nsamples = 4\nvalue = [4, 0, 0, 0, 0, 0, 0, 0, 0, 0, 0, 0, 0, 0]"] ;
777 -> 831 ;
832 [label="X[13] <= 0.5\ngini = 0.828\nsamples = 38\nvalue = [4, 0, 5, 11, 0, 0, 1, 3, 0, 5, 0, 7, 1, 1]"] ;
612 -> 832 ;
833 [label="X[1] <= 194422.5\ngini = 0.731\nsamples = 19\nvalue = [3, 0, 0, 7, 0, 0, 1, 0, 0, 1, 0, 6, 0, 1]"] ;
832 -> 833 ;
834 [label="X[1] <= 78551.0\ngini = 0.71\nsamples = 13\nvalue = [1, 0, 0, 3, 0, 0, 1, 0, 0, 1, 0, 6, 0, 1]"] ;
833 -> 834 ;
835 [label="gini = 0.0\nsamples = 2\nvalue = [0, 0, 0, 2, 0, 0, 0, 0, 0, 0, 0, 0, 0, 0]"] ;
834 -> 835 ;
836 [label="X[5] <= 46.5\ngini = 0.661\nsamples = 11\nvalue = [1, 0, 0, 1, 0, 0, 1, 0, 0, 1, 0, 6, 0, 1]"] ;
834 -> 836 ;
837 [label="X[2] <= 11.0\ngini = 0.5\nsamples = 2\nvalue = [0, 0, 0, 0, 0, 0, 1, 0, 0, 1, 0, 0, 0, 0]"] ;
836 -> 837 ;
838 [label="gini = 0.0\nsamples = 1\nvalue = [0, 0, 0, 0, 0, 0, 0, 0, 0, 1, 0, 0, 0, 0]"] ;
837 -> 838 ;
839 [label="gini = 0.0\nsamples = 1\nvalue = [0, 0, 0, 0, 0, 0, 1, 0, 0, 0, 0, 0, 0, 0]"] ;
837 -> 839 ;
840 [label="X[3] <= 3844.0\ngini = 0.519\nsamples = 9\nvalue = [1, 0, 0, 1, 0, 0, 0, 0, 0, 0, 0, 6, 0, 1]"] ;
836 -> 840 ;
841 [label="X[2] <= 9.5\ngini = 0.406\nsamples = 8\nvalue = [1, 0, 0, 0, 0, 0, 0, 0, 0, 0, 0, 6, 0, 1]"] ;
840 -> 841 ;
842 [label="X[5] <= 59.0\ngini = 0.625\nsamples = 4\nvalue = [1, 0, 0, 0, 0, 0, 0, 0, 0, 0, 0, 2, 0, 1]"] ;
841 -> 842 ;
843 [label="X[1] <= 145549.5\ngini = 0.5\nsamples = 2\nvalue = [1, 0, 0, 0, 0, 0, 0, 0, 0, 0, 0, 0, 0, 1]"] ;
842 -> 843 ;
844 [label="gini = 0.0\nsamples = 1\nvalue = [1, 0, 0, 0, 0, 0, 0, 0, 0, 0, 0, 0, 0, 0]"] ;
843 -> 844 ;
845 [label="gini = 0.0\nsamples = 1\nvalue = [0, 0, 0, 0, 0, 0, 0, 0, 0, 0, 0, 0, 0, 1]"] ;
843 -> 845 ;
846 [label="gini = 0.0\nsamples = 2\nvalue = [0, 0, 0, 0, 0, 0, 0, 0, 0, 0, 0, 2, 0, 0]"] ;
842 -> 846 ;
847 [label="gini = 0.0\nsamples = 4\nvalue = [0, 0, 0, 0, 0, 0, 0, 0, 0, 0, 0, 4, 0, 0]"] ;
841 -> 847 ;
848 [label="gini = 0.0\nsamples = 1\nvalue = [0, 0, 0, 1, 0, 0, 0, 0, 0, 0, 0, 0, 0, 0]"] ;
840 -> 848 ;
849 [label="X[26] <= 0.5\ngini = 0.444\nsamples = 6\nvalue = [2, 0, 0, 4, 0, 0, 0, 0, 0, 0, 0, 0, 0, 0]"] ;
833 -> 849 ;
850 [label="gini = 0.0\nsamples = 4\nvalue = [0, 0, 0, 4, 0, 0, 0, 0, 0, 0, 0, 0, 0, 0]"] ;
849 -> 850 ;
851 [label="gini = 0.0\nsamples = 2\nvalue = [2, 0, 0, 0, 0, 0, 0, 0, 0, 0, 0, 0, 0, 0]"] ;
849 -> 851 ;
852 [label="X[1] <= 55289.0\ngini = 0.809\nsamples = 19\nvalue = [1, 0, 5, 4, 0, 0, 0, 3, 0, 4, 0, 1, 1, 0]"] ;
832 -> 852 ;
853 [label="gini = 0.0\nsamples = 2\nvalue = [0, 0, 0, 0, 0, 0, 0, 2, 0, 0, 0, 0, 0, 0]"] ;
852 -> 853 ;
854 [label="X[22] <= 0.5\ngini = 0.789\nsamples = 17\nvalue = [1, 0, 5, 4, 0, 0, 0, 1, 0, 4, 0, 1, 1, 0]"] ;
852 -> 854 ;
855 [label="gini = 0.0\nsamples = 2\nvalue = [0, 0, 2, 0, 0, 0, 0, 0, 0, 0, 0, 0, 0, 0]"] ;
854 -> 855 ;
856 [label="X[0] <= 51.0\ngini = 0.8\nsamples = 15\nvalue = [1, 0, 3, 4, 0, 0, 0, 1, 0, 4, 0, 1, 1, 0]"] ;
854 -> 856 ;
857 [label="X[5] <= 45.5\ngini = 0.744\nsamples = 11\nvalue = [0, 0, 3, 4, 0, 0, 0, 1, 0, 2, 0, 0, 1, 0]"] ;
856 -> 857 ;
858 [label="X[0] <= 46.0\ngini = 0.444\nsamples = 3\nvalue = [0, 0, 1, 0, 0, 0, 0, 0, 0, 2, 0, 0, 0, 0]"] ;
857 -> 858 ;
859 [label="gini = 0.0\nsamples = 2\nvalue = [0, 0, 0, 0, 0, 0, 0, 0, 0, 2, 0, 0, 0, 0]"] ;
858 -> 859 ;
860 [label="gini = 0.0\nsamples = 1\nvalue = [0, 0, 1, 0, 0, 0, 0, 0, 0, 0, 0, 0, 0, 0]"] ;
858 -> 860 ;
861 [label="X[5] <= 72.5\ngini = 0.656\nsamples = 8\nvalue = [0, 0, 2, 4, 0, 0, 0, 1, 0, 0, 0, 0, 1, 0]"] ;
857 -> 861 ;
862 [label="X[1] <= 179525.0\ngini = 0.612\nsamples = 7\nvalue = [0, 0, 1, 4, 0, 0, 0, 1, 0, 0, 0, 0, 1, 0]"] ;
861 -> 862 ;
863 [label="X[1] <= 159173.0\ngini = 0.375\nsamples = 4\nvalue = [0, 0, 0, 3, 0, 0, 0, 1, 0, 0, 0, 0, 0, 0]"] ;
862 -> 863 ;
864 [label="gini = 0.0\nsamples = 2\nvalue = [0, 0, 0, 2, 0, 0, 0, 0, 0, 0, 0, 0, 0, 0]"] ;
863 -> 864 ;
865 [label="X[5] <= 57.5\ngini = 0.5\nsamples = 2\nvalue = [0, 0, 0, 1, 0, 0, 0, 1, 0, 0, 0, 0, 0, 0]"] ;
863 -> 865 ;
866 [label="gini = 0.0\nsamples = 1\nvalue = [0, 0, 0, 0, 0, 0, 0, 1, 0, 0, 0, 0, 0, 0]"] ;
865 -> 866 ;
867 [label="gini = 0.0\nsamples = 1\nvalue = [0, 0, 0, 1, 0, 0, 0, 0, 0, 0, 0, 0, 0, 0]"] ;
865 -> 867 ;
868 [label="X[1] <= 203023.0\ngini = 0.667\nsamples = 3\nvalue = [0, 0, 1, 1, 0, 0, 0, 0, 0, 0, 0, 0, 1, 0]"] ;
862 -> 868 ;
869 [label="gini = 0.0\nsamples = 1\nvalue = [0, 0, 1, 0, 0, 0, 0, 0, 0, 0, 0, 0, 0, 0]"] ;
868 -> 869 ;
870 [label="X[2] <= 11.0\ngini = 0.5\nsamples = 2\nvalue = [0, 0, 0, 1, 0, 0, 0, 0, 0, 0, 0, 0, 1, 0]"] ;
868 -> 870 ;
871 [label="gini = 0.0\nsamples = 1\nvalue = [0, 0, 0, 0, 0, 0, 0, 0, 0, 0, 0, 0, 1, 0]"] ;
870 -> 871 ;
872 [label="gini = 0.0\nsamples = 1\nvalue = [0, 0, 0, 1, 0, 0, 0, 0, 0, 0, 0, 0, 0, 0]"] ;
870 -> 872 ;
873 [label="gini = 0.0\nsamples = 1\nvalue = [0, 0, 1, 0, 0, 0, 0, 0, 0, 0, 0, 0, 0, 0]"] ;
861 -> 873 ;
874 [label="X[5] <= 55.0\ngini = 0.625\nsamples = 4\nvalue = [1, 0, 0, 0, 0, 0, 0, 0, 0, 2, 0, 1, 0, 0]"] ;
856 -> 874 ;
875 [label="gini = 0.0\nsamples = 2\nvalue = [0, 0, 0, 0, 0, 0, 0, 0, 0, 2, 0, 0, 0, 0]"] ;
874 -> 875 ;
876 [label="X[11] <= 0.5\ngini = 0.5\nsamples = 2\nvalue = [1, 0, 0, 0, 0, 0, 0, 0, 0, 0, 0, 1, 0, 0]"] ;
874 -> 876 ;
877 [label="gini = 0.0\nsamples = 1\nvalue = [1, 0, 0, 0, 0, 0, 0, 0, 0, 0, 0, 0, 0, 0]"] ;
876 -> 877 ;
878 [label="gini = 0.0\nsamples = 1\nvalue = [0, 0, 0, 0, 0, 0, 0, 0, 0, 0, 0, 1, 0, 0]"] ;
876 -> 878 ;
879 [label="X[0] <= 20.5\ngini = 0.886\nsamples = 1486\nvalue = [99, 1, 336, 130, 78, 118, 122, 143, 1, 55, 44\n162, 45, 152]"] ;
1 -> 879 ;
880 [label="X[5] <= 38.0\ngini = 0.788\nsamples = 110\nvalue = [7, 0, 5, 0, 7, 24, 4, 41, 1, 3, 1, 12, 1, 4]"] ;
879 -> 880 ;
