digraph Tree {
node [shape=box, style="filled, rounded", color="black", fontname=helvetica] ;
edge [fontname=helvetica] ;
0 [label=<relationship_Spouse &le; 0.5<br/>gini = 0.349<br/>samples = 2761<br/>value = [2138, 623]<br/>class = Less than or equal to>, fillcolor="#e58139b5"] ;
1 [label=<investment-status &le; 0.89<br/>gini = 0.082<br/>samples = 1492<br/>value = [1428, 64]<br/>class = Less than or equal to>, fillcolor="#e58139f4"] ;
0 -> 1 [labeldistance=2.5, labelangle=45, headlabel="True"] ;
2 [label=<hours-per-week &le; 0.098<br/>gini = 0.065<br/>samples = 1478<br/>value = [1428, 50]<br/>class = Less than or equal to>, fillcolor="#e58139f6"] ;
1 -> 2 ;
3 [label=<education_Graduates &le; 0.5<br/>gini = 0.032<br/>samples = 1172<br/>value = [1153, 19]<br/>class = Less than or equal to>, fillcolor="#e58139fb"] ;
2 -> 3 ;
4 [label=<age &le; -0.377<br/>gini = 0.026<br/>samples = 1135<br/>value = [1120, 15]<br/>class = Less than or equal to>, fillcolor="#e58139fc"] ;
3 -> 4 ;
5 [label=<fnlwgt &le; -1.514<br/>gini = 0.009<br/>samples = 697<br/>value = [694, 3]<br/>class = Less than or equal to>, fillcolor="#e58139fe"] ;
4 -> 5 ;
6 [label=<fnlwgt &le; -1.516<br/>gini = 0.219<br/>samples = 8<br/>value = [7, 1]<br/>class = Less than or equal to>, fillcolor="#e58139db"] ;
5 -> 6 ;
7 [label=<gini = 0.0<br/>samples = 7<br/>value = [7, 0]<br/>class = Less than or equal to>, fillcolor="#e58139ff"] ;
6 -> 7 ;
8 [label=<gini = 0.0<br/>samples = 1<br/>value = [0, 1]<br/>class = More than>, fillcolor="#399de5ff"] ;
6 -> 8 ;
9 [label=<relationship_Other &le; 0.5<br/>gini = 0.006<br/>samples = 689<br/>value = [687, 2]<br/>class = Less than or equal to>, fillcolor="#e58139fe"] ;
5 -> 9 ;
10 [label=<race_Black &le; 0.5<br/>gini = 0.003<br/>samples = 647<br/>value = [646, 1]<br/>class = Less than or equal to>, fillcolor="#e58139ff"] ;
9 -> 10 ;
11 [label=<gini = 0.0<br/>samples = 587<br/>value = [587, 0]<br/>class = Less than or equal to>, fillcolor="#e58139ff"] ;
10 -> 11 ;
12 [label=<gini = 0.033<br/>samples = 60<br/>value = [59, 1]<br/>class = Less than or equal to>, fillcolor="#e58139fb"] ;
10 -> 12 ;
13 [label=<education_Undergrad-complete &le; 0.5<br/>gini = 0.046<br/>samples = 42<br/>value = [41, 1]<br/>class = Less than or equal to>, fillcolor="#e58139f9"] ;
9 -> 13 ;
14 [label=<gini = 0.0<br/>samples = 40<br/>value = [40, 0]<br/>class = Less than or equal to>, fillcolor="#e58139ff"] ;
13 -> 14 ;
15 [label=<gini = 0.5<br/>samples = 2<br/>value = [1, 1]<br/>class = Less than or equal to>, fillcolor="#e5813900"] ;
13 -> 15 ;
16 [label=<fnlwgt &le; 1.178<br/>gini = 0.053<br/>samples = 438<br/>value = [426, 12]<br/>class = Less than or equal to>, fillcolor="#e58139f8"] ;
4 -> 16 ;
17 [label=<education_Undergrad-incomplete &le; 0.5<br/>gini = 0.04<br/>samples = 390<br/>value = [382, 8]<br/>class = Less than or equal to>, fillcolor="#e58139fa"] ;
16 -> 17 ;
18 [label=<hours-per-week &le; -2.392<br/>gini = 0.019<br/>samples = 310<br/>value = [307, 3]<br/>class = Less than or equal to>, fillcolor="#e58139fd"] ;
17 -> 18 ;
19 [label=<gini = 0.198<br/>samples = 9<br/>value = [8, 1]<br/>class = Less than or equal to>, fillcolor="#e58139df"] ;
18 -> 19 ;
20 [label=<gini = 0.013<br/>samples = 301<br/>value = [299, 2]<br/>class = Less than or equal to>, fillcolor="#e58139fd"] ;
18 -> 20 ;
21 [label=<fnlwgt &le; -1.037<br/>gini = 0.117<br/>samples = 80<br/>value = [75, 5]<br/>class = Less than or equal to>, fillcolor="#e58139ee"] ;
17 -> 21 ;
22 [label=<gini = 0.32<br/>samples = 15<br/>value = [12, 3]<br/>class = Less than or equal to>, fillcolor="#e58139bf"] ;
21 -> 22 ;
23 [label=<gini = 0.06<br/>samples = 65<br/>value = [63, 2]<br/>class = Less than or equal to>, fillcolor="#e58139f7"] ;
21 -> 23 ;
24 [label=<fnlwgt &le; 1.188<br/>gini = 0.153<br/>samples = 48<br/>value = [44, 4]<br/>class = Less than or equal to>, fillcolor="#e58139e8"] ;
16 -> 24 ;
25 [label=<gini = 0.0<br/>samples = 1<br/>value = [0, 1]<br/>class = More than>, fillcolor="#399de5ff"] ;
24 -> 25 ;
26 [label=<occupation_Sales &le; 0.5<br/>gini = 0.12<br/>samples = 47<br/>value = [44, 3]<br/>class = Less than or equal to>, fillcolor="#e58139ee"] ;
24 -> 26 ;
27 [label=<gini = 0.089<br/>samples = 43<br/>value = [41, 2]<br/>class = Less than or equal to>, fillcolor="#e58139f3"] ;
26 -> 27 ;
28 [label=<gini = 0.375<br/>samples = 4<br/>value = [3, 1]<br/>class = Less than or equal to>, fillcolor="#e58139aa"] ;
26 -> 28 ;
29 [label=<fnlwgt &le; 2.087<br/>gini = 0.193<br/>samples = 37<br/>value = [33, 4]<br/>class = Less than or equal to>, fillcolor="#e58139e0"] ;
3 -> 29 ;
30 [label=<age &le; 0.199<br/>gini = 0.153<br/>samples = 36<br/>value = [33, 3]<br/>class = Less than or equal to>, fillcolor="#e58139e8"] ;
29 -> 30 ;
31 [label=<gini = 0.0<br/>samples = 23<br/>value = [23, 0]<br/>class = Less than or equal to>, fillcolor="#e58139ff"] ;
30 -> 31 ;
32 [label=<workclass_Private &le; 0.5<br/>gini = 0.355<br/>samples = 13<br/>value = [10, 3]<br/>class = Less than or equal to>, fillcolor="#e58139b3"] ;
30 -> 32 ;
33 [label=<gini = 0.0<br/>samples = 7<br/>value = [7, 0]<br/>class = Less than or equal to>, fillcolor="#e58139ff"] ;
32 -> 33 ;
34 [label=<fnlwgt &le; -0.838<br/>gini = 0.5<br/>samples = 6<br/>value = [3, 3]<br/>class = Less than or equal to>, fillcolor="#e5813900"] ;
32 -> 34 ;
35 [label=<gini = 0.0<br/>samples = 2<br/>value = [2, 0]<br/>class = Less than or equal to>, fillcolor="#e58139ff"] ;
34 -> 35 ;
36 [label=<gini = 0.375<br/>samples = 4<br/>value = [1, 3]<br/>class = More than>, fillcolor="#399de5aa"] ;
34 -> 36 ;
37 [label=<gini = 0.0<br/>samples = 1<br/>value = [0, 1]<br/>class = More than>, fillcolor="#399de5ff"] ;
29 -> 37 ;
38 [label=<investment-status &le; -0.223<br/>gini = 0.182<br/>samples = 306<br/>value = [275, 31]<br/>class = Less than or equal to>, fillcolor="#e58139e2"] ;
2 -> 38 ;
39 [label=<education_Compulsory-education-complete &le; 0.5<br/>gini = 0.494<br/>samples = 9<br/>value = [5, 4]<br/>class = Less than or equal to>, fillcolor="#e5813933"] ;
38 -> 39 ;
40 [label=<education_Graduates &le; 0.5<br/>gini = 0.444<br/>samples = 6<br/>value = [2, 4]<br/>class = More than>, fillcolor="#399de57f"] ;
39 -> 40 ;
41 [label=<hours-per-week &le; 2.099<br/>gini = 0.32<br/>samples = 5<br/>value = [1, 4]<br/>class = More than>, fillcolor="#399de5bf"] ;
40 -> 41 ;
42 [label=<gini = 0.0<br/>samples = 4<br/>value = [0, 4]<br/>class = More than>, fillcolor="#399de5ff"] ;
41 -> 42 ;
43 [label=<gini = 0.0<br/>samples = 1<br/>value = [1, 0]<br/>class = Less than or equal to>, fillcolor="#e58139ff"] ;
41 -> 43 ;
44 [label=<gini = 0.0<br/>samples = 1<br/>value = [1, 0]<br/>class = Less than or equal to>, fillcolor="#e58139ff"] ;
40 -> 44 ;
45 [label=<gini = 0.0<br/>samples = 3<br/>value = [3, 0]<br/>class = Less than or equal to>, fillcolor="#e58139ff"] ;
39 -> 45 ;
46 [label=<education_Graduates &le; 0.5<br/>gini = 0.165<br/>samples = 297<br/>value = [270, 27]<br/>class = Less than or equal to>, fillcolor="#e58139e6"] ;
38 -> 46 ;
47 [label=<age &le; 0.847<br/>gini = 0.136<br/>samples = 272<br/>value = [252, 20]<br/>class = Less than or equal to>, fillcolor="#e58139eb"] ;
46 -> 47 ;
48 [label=<relationship_Not-in-family &le; 0.5<br/>gini = 0.118<br/>samples = 255<br/>value = [239, 16]<br/>class = Less than or equal to>, fillcolor="#e58139ee"] ;
47 -> 48 ;
49 [label=<education_Associates &le; 0.5<br/>gini = 0.02<br/>samples = 97<br/>value = [96, 1]<br/>class = Less than or equal to>, fillcolor="#e58139fc"] ;
48 -> 49 ;
50 [label=<gini = 0.0<br/>samples = 94<br/>value = [94, 0]<br/>class = Less than or equal to>, fillcolor="#e58139ff"] ;
49 -> 50 ;
51 [label=<gini = 0.444<br/>samples = 3<br/>value = [2, 1]<br/>class = Less than or equal to>, fillcolor="#e581397f"] ;
49 -> 51 ;
52 [label=<workclass_Government &le; 0.5<br/>gini = 0.172<br/>samples = 158<br/>value = [143, 15]<br/>class = Less than or equal to>, fillcolor="#e58139e4"] ;
48 -> 52 ;
53 [label=<gini = 0.143<br/>samples = 142<br/>value = [131, 11]<br/>class = Less than or equal to>, fillcolor="#e58139ea"] ;
52 -> 53 ;
54 [label=<gini = 0.375<br/>samples = 16<br/>value = [12, 4]<br/>class = Less than or equal to>, fillcolor="#e58139aa"] ;
52 -> 54 ;
55 [label=<occupation_Exec-managerial &le; 0.5<br/>gini = 0.36<br/>samples = 17<br/>value = [13, 4]<br/>class = Less than or equal to>, fillcolor="#e58139b1"] ;
47 -> 55 ;
56 [label=<education_Undergrad-incomplete &le; 0.5<br/>gini = 0.153<br/>samples = 12<br/>value = [11, 1]<br/>class = Less than or equal to>, fillcolor="#e58139e8"] ;
55 -> 56 ;
57 [label=<gini = 0.0<br/>samples = 10<br/>value = [10, 0]<br/>class = Less than or equal to>, fillcolor="#e58139ff"] ;
56 -> 57 ;
58 [label=<gini = 0.5<br/>samples = 2<br/>value = [1, 1]<br/>class = Less than or equal to>, fillcolor="#e5813900"] ;
56 -> 58 ;
59 [label=<fnlwgt &le; -0.04<br/>gini = 0.48<br/>samples = 5<br/>value = [2, 3]<br/>class = More than>, fillcolor="#399de555"] ;
55 -> 59 ;
60 [label=<gini = 0.0<br/>samples = 3<br/>value = [0, 3]<br/>class = More than>, fillcolor="#399de5ff"] ;
59 -> 60 ;
61 [label=<gini = 0.0<br/>samples = 2<br/>value = [2, 0]<br/>class = Less than or equal to>, fillcolor="#e58139ff"] ;
59 -> 61 ;
62 [label=<occupation_Exec-managerial &le; 0.5<br/>gini = 0.403<br/>samples = 25<br/>value = [18, 7]<br/>class = Less than or equal to>, fillcolor="#e581399c"] ;
46 -> 62 ;
63 [label=<fnlwgt &le; 1.913<br/>gini = 0.298<br/>samples = 22<br/>value = [18, 4]<br/>class = Less than or equal to>, fillcolor="#e58139c6"] ;
62 -> 63 ;
64 [label=<fnlwgt &le; 0.217<br/>gini = 0.245<br/>samples = 21<br/>value = [18, 3]<br/>class = Less than or equal to>, fillcolor="#e58139d4"] ;
63 -> 64 ;
65 [label=<gini = 0.397<br/>samples = 11<br/>value = [8, 3]<br/>class = Less than or equal to>, fillcolor="#e581399f"] ;
64 -> 65 ;
66 [label=<gini = 0.0<br/>samples = 10<br/>value = [10, 0]<br/>class = Less than or equal to>, fillcolor="#e58139ff"] ;
64 -> 66 ;
67 [label=<gini = 0.0<br/>samples = 1<br/>value = [0, 1]<br/>class = More than>, fillcolor="#399de5ff"] ;
63 -> 67 ;
68 [label=<gini = 0.0<br/>samples = 3<br/>value = [0, 3]<br/>class = More than>, fillcolor="#399de5ff"] ;
62 -> 68 ;
69 [label=<gini = 0.0<br/>samples = 14<br/>value = [0, 14]<br/>class = More than>, fillcolor="#399de5ff"] ;
1 -> 69 ;
70 [label=<investment-status &le; 0.501<br/>gini = 0.493<br/>samples = 1269<br/>value = [710, 559]<br/>class = Less than or equal to>, fillcolor="#e5813936"] ;
0 -> 70 [labeldistance=2.5, labelangle=-45, headlabel="False"] ;
71 [label=<education_Graduates &le; 0.5<br/>gini = 0.482<br/>samples = 1191<br/>value = [709, 482]<br/>class = Less than or equal to>, fillcolor="#e5813952"] ;
70 -> 71 ;
72 [label=<education_Undergrad-complete &le; 0.5<br/>gini = 0.463<br/>samples = 1080<br/>value = [686, 394]<br/>class = Less than or equal to>, fillcolor="#e581396d"] ;
71 -> 72 ;
73 [label=<investment-status &le; -0.348<br/>gini = 0.419<br/>samples = 876<br/>value = [614, 262]<br/>class = Less than or equal to>, fillcolor="#e5813992"] ;
72 -> 73 ;
74 [label=<investment-status &le; -0.372<br/>gini = 0.375<br/>samples = 40<br/>value = [10, 30]<br/>class = More than>, fillcolor="#399de5aa"] ;
73 -> 74 ;
75 [label=<investment-status &le; -0.4<br/>gini = 0.278<br/>samples = 12<br/>value = [10, 2]<br/>class = Less than or equal to>, fillcolor="#e58139cc"] ;
74 -> 75 ;
76 [label=<occupation_Other-service &le; 0.5<br/>gini = 0.444<br/>samples = 3<br/>value = [1, 2]<br/>class = More than>, fillcolor="#399de57f"] ;
75 -> 76 ;
77 [label=<gini = 0.0<br/>samples = 2<br/>value = [0, 2]<br/>class = More than>, fillcolor="#399de5ff"] ;
76 -> 77 ;
78 [label=<gini = 0.0<br/>samples = 1<br/>value = [1, 0]<br/>class = Less than or equal to>, fillcolor="#e58139ff"] ;
76 -> 78 ;
79 [label=<gini = 0.0<br/>samples = 9<br/>value = [9, 0]<br/>class = Less than or equal to>, fillcolor="#e58139ff"] ;
75 -> 79 ;
80 [label=<gini = 0.0<br/>samples = 28<br/>value = [0, 28]<br/>class = More than>, fillcolor="#399de5ff"] ;
74 -> 80 ;
81 [label=<education_Compulsory-education-incomplete &le; 0.5<br/>gini = 0.401<br/>samples = 836<br/>value = [604, 232]<br/>class = Less than or equal to>, fillcolor="#e581399d"] ;
73 -> 81 ;
82 [label=<age &le; -0.161<br/>gini = 0.428<br/>samples = 707<br/>value = [488, 219]<br/>class = Less than or equal to>, fillcolor="#e581398d"] ;
81 -> 82 ;
83 [label=<occupation_Other-service &le; 0.5<br/>gini = 0.325<br/>samples = 264<br/>value = [210, 54]<br/>class = Less than or equal to>, fillcolor="#e58139bd"] ;
82 -> 83 ;
84 [label=<gini = 0.368<br/>samples = 218<br/>value = [165, 53]<br/>class = Less than or equal to>, fillcolor="#e58139ad"] ;
83 -> 84 ;
85 [label=<gini = 0.043<br/>samples = 46<br/>value = [45, 1]<br/>class = Less than or equal to>, fillcolor="#e58139f9"] ;
83 -> 85 ;
86 [label=<hours-per-week &le; -0.106<br/>gini = 0.467<br/>samples = 443<br/>value = [278, 165]<br/>class = Less than or equal to>, fillcolor="#e5813968"] ;
82 -> 86 ;
87 [label=<gini = 0.174<br/>samples = 52<br/>value = [47, 5]<br/>class = Less than or equal to>, fillcolor="#e58139e4"] ;
86 -> 87 ;
88 [label=<gini = 0.484<br/>samples = 391<br/>value = [231, 160]<br/>class = Less than or equal to>, fillcolor="#e581394e"] ;
86 -> 88 ;
89 [label=<fnlwgt &le; 2.411<br/>gini = 0.181<br/>samples = 129<br/>value = [116, 13]<br/>class = Less than or equal to>, fillcolor="#e58139e2"] ;
81 -> 89 ;
90 [label=<hours-per-week &le; 3.405<br/>gini = 0.158<br/>samples = 127<br/>value = [116, 11]<br/>class = Less than or equal to>, fillcolor="#e58139e7"] ;
89 -> 90 ;
91 [label=<gini = 0.146<br/>samples = 126<br/>value = [116, 10]<br/>class = Less than or equal to>, fillcolor="#e58139e9"] ;
90 -> 91 ;
92 [label=<gini = 0.0<br/>samples = 1<br/>value = [0, 1]<br/>class = More than>, fillcolor="#399de5ff"] ;
90 -> 92 ;
93 [label=<gini = 0.0<br/>samples = 2<br/>value = [0, 2]<br/>class = More than>, fillcolor="#399de5ff"] ;
89 -> 93 ;
94 [label=<age &le; -0.88<br/>gini = 0.457<br/>samples = 204<br/>value = [72, 132]<br/>class = More than>, fillcolor="#399de574"] ;
72 -> 94 ;
95 [label=<age &le; -0.952<br/>gini = 0.198<br/>samples = 9<br/>value = [8, 1]<br/>class = Less than or equal to>, fillcolor="#e58139df"] ;
94 -> 95 ;
96 [label=<gini = 0.0<br/>samples = 6<br/>value = [6, 0]<br/>class = Less than or equal to>, fillcolor="#e58139ff"] ;
95 -> 96 ;
97 [label=<hours-per-week &le; 0.384<br/>gini = 0.444<br/>samples = 3<br/>value = [2, 1]<br/>class = Less than or equal to>, fillcolor="#e581397f"] ;
95 -> 97 ;
98 [label=<gini = 0.0<br/>samples = 2<br/>value = [2, 0]<br/>class = Less than or equal to>, fillcolor="#e58139ff"] ;
97 -> 98 ;
99 [label=<gini = 0.0<br/>samples = 1<br/>value = [0, 1]<br/>class = More than>, fillcolor="#399de5ff"] ;
97 -> 99 ;
100 [label=<investment-status &le; -0.342<br/>gini = 0.441<br/>samples = 195<br/>value = [64, 131]<br/>class = More than>, fillcolor="#399de582"] ;
94 -> 100 ;
101 [label=<gini = 0.0<br/>samples = 16<br/>value = [0, 16]<br/>class = More than>, fillcolor="#399de5ff"] ;
100 -> 101 ;
102 [label=<age &le; 1.998<br/>gini = 0.459<br/>samples = 179<br/>value = [64, 115]<br/>class = More than>, fillcolor="#399de571"] ;
100 -> 102 ;
103 [label=<occupation_Exec-managerial &le; 0.5<br/>gini = 0.448<br/>samples = 174<br/>value = [59, 115]<br/>class = More than>, fillcolor="#399de57c"] ;
102 -> 103 ;
104 [label=<gini = 0.483<br/>samples = 123<br/>value = [50, 73]<br/>class = More than>, fillcolor="#399de550"] ;
103 -> 104 ;
105 [label=<gini = 0.291<br/>samples = 51<br/>value = [9, 42]<br/>class = More than>, fillcolor="#399de5c8"] ;
103 -> 105 ;
106 [label=<gini = 0.0<br/>samples = 5<br/>value = [5, 0]<br/>class = Less than or equal to>, fillcolor="#e58139ff"] ;
102 -> 106 ;
107 [label=<hours-per-week &le; -1.494<br/>gini = 0.329<br/>samples = 111<br/>value = [23, 88]<br/>class = More than>, fillcolor="#399de5bc"] ;
71 -> 107 ;
108 [label=<occupation_Prof-specialty &le; 0.5<br/>gini = 0.48<br/>samples = 10<br/>value = [6, 4]<br/>class = Less than or equal to>, fillcolor="#e5813955"] ;
107 -> 108 ;
109 [label=<occupation_Sales &le; 0.5<br/>gini = 0.32<br/>samples = 5<br/>value = [1, 4]<br/>class = More than>, fillcolor="#399de5bf"] ;
108 -> 109 ;
110 [label=<gini = 0.0<br/>samples = 4<br/>value = [0, 4]<br/>class = More than>, fillcolor="#399de5ff"] ;
109 -> 110 ;
111 [label=<gini = 0.0<br/>samples = 1<br/>value = [1, 0]<br/>class = Less than or equal to>, fillcolor="#e58139ff"] ;
109 -> 111 ;
112 [label=<gini = 0.0<br/>samples = 5<br/>value = [5, 0]<br/>class = Less than or equal to>, fillcolor="#e58139ff"] ;
108 -> 112 ;
113 [label=<occupation_Other-service &le; 0.5<br/>gini = 0.28<br/>samples = 101<br/>value = [17, 84]<br/>class = More than>, fillcolor="#399de5cb"] ;
107 -> 113 ;
114 [label=<race_Other &le; 0.5<br/>gini = 0.259<br/>samples = 98<br/>value = [15, 83]<br/>class = More than>, fillcolor="#399de5d1"] ;
113 -> 114 ;
115 [label=<fnlwgt &le; -1.527<br/>gini = 0.247<br/>samples = 97<br/>value = [14, 83]<br/>class = More than>, fillcolor="#399de5d4"] ;
114 -> 115 ;
116 [label=<gini = 0.0<br/>samples = 1<br/>value = [1, 0]<br/>class = Less than or equal to>, fillcolor="#e58139ff"] ;
115 -> 116 ;
117 [label=<fnlwgt &le; -0.226<br/>gini = 0.234<br/>samples = 96<br/>value = [13, 83]<br/>class = More than>, fillcolor="#399de5d7"] ;
115 -> 117 ;
118 [label=<gini = 0.049<br/>samples = 40<br/>value = [1, 39]<br/>class = More than>, fillcolor="#399de5f8"] ;
117 -> 118 ;
119 [label=<gini = 0.337<br/>samples = 56<br/>value = [12, 44]<br/>class = More than>, fillcolor="#399de5b9"] ;
117 -> 119 ;
120 [label=<gini = 0.0<br/>samples = 1<br/>value = [1, 0]<br/>class = Less than or equal to>, fillcolor="#e58139ff"] ;
114 -> 120 ;
121 [label=<hours-per-week &le; 1.609<br/>gini = 0.444<br/>samples = 3<br/>value = [2, 1]<br/>class = Less than or equal to>, fillcolor="#e581397f"] ;
113 -> 121 ;
122 [label=<gini = 0.0<br/>samples = 1<br/>value = [0, 1]<br/>class = More than>, fillcolor="#399de5ff"] ;
121 -> 122 ;
123 [label=<gini = 0.0<br/>samples = 2<br/>value = [2, 0]<br/>class = Less than or equal to>, fillcolor="#e58139ff"] ;
121 -> 123 ;
124 [label=<age &le; 2.933<br/>gini = 0.025<br/>samples = 78<br/>value = [1, 77]<br/>class = More than>, fillcolor="#399de5fc"] ;
70 -> 124 ;
125 [label=<gini = 0.0<br/>samples = 77<br/>value = [0, 77]<br/>class = More than>, fillcolor="#399de5ff"] ;
124 -> 125 ;
126 [label=<gini = 0.0<br/>samples = 1<br/>value = [1, 0]<br/>class = Less than or equal to>, fillcolor="#e58139ff"] ;
124 -> 126 ;
}