digraph Tree {
node [shape=box, style="filled, rounded", color="black", fontname=helvetica] ;
edge [fontname=helvetica] ;
0 [label=<relationship_Spouse &le; 0.5<br/>gini = 0.5<br/>samples = 5062<br/>value = [2531, 2531]<br/>class = Less than or equal to>, fillcolor="#e5813900"] ;
1 [label=<investment-status &le; 0.448<br/>gini = 0.277<br/>samples = 2063<br/>value = [1720, 343]<br/>class = Less than or equal to>, fillcolor="#e58139cc"] ;
0 -> 1 [labeldistance=2.5, labelangle=45, headlabel="True"] ;
2 [label=<hours-per-week &le; -0.01<br/>gini = 0.224<br/>samples = 1962<br/>value = [1710, 252]<br/>class = Less than or equal to>, fillcolor="#e58139d9"] ;
1 -> 2 ;
3 [label=<investment-status &le; -0.377<br/>gini = 0.105<br/>samples = 1457<br/>value = [1376, 81]<br/>class = Less than or equal to>, fillcolor="#e58139f0"] ;
2 -> 3 ;
4 [label=<hours-per-week &le; -0.677<br/>gini = 0.219<br/>samples = 8<br/>value = [1, 7]<br/>class = More than>, fillcolor="#399de5db"] ;
3 -> 4 ;
5 [label=<gini = 0.0<br/>samples = 1<br/>value = [1, 0]<br/>class = Less than or equal to>, fillcolor="#e58139ff"] ;
4 -> 5 ;
6 [label=<gini = 0.0<br/>samples = 7<br/>value = [0, 7]<br/>class = More than>, fillcolor="#399de5ff"] ;
4 -> 6 ;
7 [label=<education_Graduates &le; 0.5<br/>gini = 0.097<br/>samples = 1449<br/>value = [1375, 74]<br/>class = Less than or equal to>, fillcolor="#e58139f1"] ;
3 -> 7 ;
8 [label=<native-country_Asia &le; 0.5<br/>gini = 0.076<br/>samples = 1391<br/>value = [1336, 55]<br/>class = Less than or equal to>, fillcolor="#e58139f5"] ;
7 -> 8 ;
9 [label=<age &le; -0.553<br/>gini = 0.066<br/>samples = 1356<br/>value = [1310, 46]<br/>class = Less than or equal to>, fillcolor="#e58139f6"] ;
8 -> 9 ;
10 [label=<marital-status_Married &le; 0.5<br/>gini = 0.021<br/>samples = 748<br/>value = [740, 8]<br/>class = Less than or equal to>, fillcolor="#e58139fc"] ;
9 -> 10 ;
11 [label=<gini = 0.011<br/>samples = 697<br/>value = [693, 4]<br/>class = Less than or equal to>, fillcolor="#e58139fe"] ;
10 -> 11 ;
12 [label=<gini = 0.145<br/>samples = 51<br/>value = [47, 4]<br/>class = Less than or equal to>, fillcolor="#e58139e9"] ;
10 -> 12 ;
13 [label=<age &le; -0.507<br/>gini = 0.117<br/>samples = 608<br/>value = [570, 38]<br/>class = Less than or equal to>, fillcolor="#e58139ee"] ;
9 -> 13 ;
14 [label=<gini = 0.0<br/>samples = 3<br/>value = [0, 3]<br/>class = More than>, fillcolor="#399de5ff"] ;
13 -> 14 ;
15 [label=<gini = 0.109<br/>samples = 605<br/>value = [570, 35]<br/>class = Less than or equal to>, fillcolor="#e58139ef"] ;
13 -> 15 ;
16 [label=<occupation_Exec-managerial &le; 0.5<br/>gini = 0.382<br/>samples = 35<br/>value = [26, 9]<br/>class = Less than or equal to>, fillcolor="#e58139a7"] ;
8 -> 16 ;
17 [label=<marital-status_Married &le; 0.5<br/>gini = 0.278<br/>samples = 30<br/>value = [25, 5]<br/>class = Less than or equal to>, fillcolor="#e58139cc"] ;
16 -> 17 ;
18 [label=<gini = 0.083<br/>samples = 23<br/>value = [22, 1]<br/>class = Less than or equal to>, fillcolor="#e58139f3"] ;
17 -> 18 ;
19 [label=<gini = 0.49<br/>samples = 7<br/>value = [3, 4]<br/>class = More than>, fillcolor="#399de540"] ;
17 -> 19 ;
20 [label=<relationship_Unmarried &le; 0.5<br/>gini = 0.32<br/>samples = 5<br/>value = [1, 4]<br/>class = More than>, fillcolor="#399de5bf"] ;
16 -> 20 ;
21 [label=<gini = 0.0<br/>samples = 4<br/>value = [0, 4]<br/>class = More than>, fillcolor="#399de5ff"] ;
20 -> 21 ;
22 [label=<gini = 0.0<br/>samples = 1<br/>value = [1, 0]<br/>class = Less than or equal to>, fillcolor="#e58139ff"] ;
20 -> 22 ;
23 [label=<occupation_Other-service &le; 0.5<br/>gini = 0.441<br/>samples = 58<br/>value = [39, 19]<br/>class = Less than or equal to>, fillcolor="#e5813983"] ;
7 -> 23 ;
24 [label=<relationship_Unmarried &le; 0.5<br/>gini = 0.353<br/>samples = 48<br/>value = [37, 11]<br/>class = Less than or equal to>, fillcolor="#e58139b3"] ;
23 -> 24 ;
25 [label=<sex_ Male &le; 0.5<br/>gini = 0.229<br/>samples = 38<br/>value = [33, 5]<br/>class = Less than or equal to>, fillcolor="#e58139d8"] ;
24 -> 25 ;
26 [label=<gini = 0.0<br/>samples = 23<br/>value = [23, 0]<br/>class = Less than or equal to>, fillcolor="#e58139ff"] ;
25 -> 26 ;
27 [label=<gini = 0.444<br/>samples = 15<br/>value = [10, 5]<br/>class = Less than or equal to>, fillcolor="#e581397f"] ;
25 -> 27 ;
28 [label=<occupation_Exec-managerial &le; 0.5<br/>gini = 0.48<br/>samples = 10<br/>value = [4, 6]<br/>class = More than>, fillcolor="#399de555"] ;
24 -> 28 ;
29 [label=<gini = 0.32<br/>samples = 5<br/>value = [4, 1]<br/>class = Less than or equal to>, fillcolor="#e58139bf"] ;
28 -> 29 ;
30 [label=<gini = 0.0<br/>samples = 5<br/>value = [0, 5]<br/>class = More than>, fillcolor="#399de5ff"] ;
28 -> 30 ;
31 [label=<marital-status_Never-married &le; 0.5<br/>gini = 0.32<br/>samples = 10<br/>value = [2, 8]<br/>class = More than>, fillcolor="#399de5bf"] ;
23 -> 31 ;
32 [label=<gini = 0.0<br/>samples = 7<br/>value = [0, 7]<br/>class = More than>, fillcolor="#399de5ff"] ;
31 -> 32 ;
33 [label=<hours-per-week &le; -0.228<br/>gini = 0.444<br/>samples = 3<br/>value = [2, 1]<br/>class = Less than or equal to>, fillcolor="#e581397f"] ;
31 -> 33 ;
34 [label=<gini = 0.0<br/>samples = 2<br/>value = [2, 0]<br/>class = Less than or equal to>, fillcolor="#e58139ff"] ;
33 -> 34 ;
35 [label=<gini = 0.0<br/>samples = 1<br/>value = [0, 1]<br/>class = More than>, fillcolor="#399de5ff"] ;
33 -> 35 ;
36 [label=<age &le; -0.484<br/>gini = 0.448<br/>samples = 505<br/>value = [334, 171]<br/>class = Less than or equal to>, fillcolor="#e581397c"] ;
2 -> 36 ;
37 [label=<investment-status &le; -0.175<br/>gini = 0.188<br/>samples = 171<br/>value = [153, 18]<br/>class = Less than or equal to>, fillcolor="#e58139e1"] ;
36 -> 37 ;
38 [label=<hours-per-week &le; 0.874<br/>gini = 0.494<br/>samples = 9<br/>value = [5, 4]<br/>class = Less than or equal to>, fillcolor="#e5813933"] ;
37 -> 38 ;
39 [label=<education_Undergrad-incomplete &le; 0.5<br/>gini = 0.32<br/>samples = 5<br/>value = [1, 4]<br/>class = More than>, fillcolor="#399de5bf"] ;
38 -> 39 ;
40 [label=<gini = 0.0<br/>samples = 4<br/>value = [0, 4]<br/>class = More than>, fillcolor="#399de5ff"] ;
39 -> 40 ;
41 [label=<gini = 0.0<br/>samples = 1<br/>value = [1, 0]<br/>class = Less than or equal to>, fillcolor="#e58139ff"] ;
39 -> 41 ;
42 [label=<gini = 0.0<br/>samples = 4<br/>value = [4, 0]<br/>class = Less than or equal to>, fillcolor="#e58139ff"] ;
38 -> 42 ;
43 [label=<workclass_Private &le; 0.5<br/>gini = 0.158<br/>samples = 162<br/>value = [148, 14]<br/>class = Less than or equal to>, fillcolor="#e58139e7"] ;
37 -> 43 ;
44 [label=<age &le; -0.812<br/>gini = 0.384<br/>samples = 27<br/>value = [20, 7]<br/>class = Less than or equal to>, fillcolor="#e58139a6"] ;
43 -> 44 ;
45 [label=<gini = 0.0<br/>samples = 13<br/>value = [13, 0]<br/>class = Less than or equal to>, fillcolor="#e58139ff"] ;
44 -> 45 ;
46 [label=<fnlwgt &le; 0.749<br/>gini = 0.5<br/>samples = 14<br/>value = [7, 7]<br/>class = Less than or equal to>, fillcolor="#e5813900"] ;
44 -> 46 ;
47 [label=<gini = 0.463<br/>samples = 11<br/>value = [7, 4]<br/>class = Less than or equal to>, fillcolor="#e581396d"] ;
46 -> 47 ;
48 [label=<gini = 0.0<br/>samples = 3<br/>value = [0, 3]<br/>class = More than>, fillcolor="#399de5ff"] ;
46 -> 48 ;
49 [label=<marital-status_Once-Married &le; 0.5<br/>gini = 0.098<br/>samples = 135<br/>value = [128, 7]<br/>class = Less than or equal to>, fillcolor="#e58139f1"] ;
43 -> 49 ;
50 [label=<education_Undergrad-complete &le; 0.5<br/>gini = 0.064<br/>samples = 121<br/>value = [117, 4]<br/>class = Less than or equal to>, fillcolor="#e58139f6"] ;
49 -> 50 ;
51 [label=<gini = 0.021<br/>samples = 95<br/>value = [94, 1]<br/>class = Less than or equal to>, fillcolor="#e58139fc"] ;
50 -> 51 ;
52 [label=<gini = 0.204<br/>samples = 26<br/>value = [23, 3]<br/>class = Less than or equal to>, fillcolor="#e58139de"] ;
50 -> 52 ;
53 [label=<fnlwgt &le; -0.129<br/>gini = 0.337<br/>samples = 14<br/>value = [11, 3]<br/>class = Less than or equal to>, fillcolor="#e58139b9"] ;
49 -> 53 ;
54 [label=<gini = 0.5<br/>samples = 6<br/>value = [3, 3]<br/>class = Less than or equal to>, fillcolor="#e5813900"] ;
53 -> 54 ;
55 [label=<gini = 0.0<br/>samples = 8<br/>value = [8, 0]<br/>class = Less than or equal to>, fillcolor="#e58139ff"] ;
53 -> 55 ;
56 [label=<relationship_Not-in-family &le; 0.5<br/>gini = 0.496<br/>samples = 334<br/>value = [181, 153]<br/>class = Less than or equal to>, fillcolor="#e5813927"] ;
36 -> 56 ;
57 [label=<hours-per-week &le; 3.131<br/>gini = 0.229<br/>samples = 76<br/>value = [66, 10]<br/>class = Less than or equal to>, fillcolor="#e58139d8"] ;
56 -> 57 ;
58 [label=<education_Associates &le; 0.5<br/>gini = 0.173<br/>samples = 73<br/>value = [66, 7]<br/>class = Less than or equal to>, fillcolor="#e58139e4"] ;
57 -> 58 ;
59 [label=<fnlwgt &le; 0.371<br/>gini = 0.086<br/>samples = 67<br/>value = [64, 3]<br/>class = Less than or equal to>, fillcolor="#e58139f3"] ;
58 -> 59 ;
60 [label=<gini = 0.0<br/>samples = 53<br/>value = [53, 0]<br/>class = Less than or equal to>, fillcolor="#e58139ff"] ;
59 -> 60 ;
61 [label=<gini = 0.337<br/>samples = 14<br/>value = [11, 3]<br/>class = Less than or equal to>, fillcolor="#e58139b9"] ;
59 -> 61 ;
62 [label=<workclass_Other &le; 0.5<br/>gini = 0.444<br/>samples = 6<br/>value = [2, 4]<br/>class = More than>, fillcolor="#399de57f"] ;
58 -> 62 ;
63 [label=<gini = 0.0<br/>samples = 4<br/>value = [0, 4]<br/>class = More than>, fillcolor="#399de5ff"] ;
62 -> 63 ;
64 [label=<gini = 0.0<br/>samples = 2<br/>value = [2, 0]<br/>class = Less than or equal to>, fillcolor="#e58139ff"] ;
62 -> 64 ;
65 [label=<gini = 0.0<br/>samples = 3<br/>value = [0, 3]<br/>class = More than>, fillcolor="#399de5ff"] ;
57 -> 65 ;
66 [label=<education_Graduates &le; 0.5<br/>gini = 0.494<br/>samples = 258<br/>value = [115, 143]<br/>class = More than>, fillcolor="#399de532"] ;
56 -> 66 ;
67 [label=<investment-status &le; -0.142<br/>gini = 0.498<br/>samples = 191<br/>value = [102, 89]<br/>class = Less than or equal to>, fillcolor="#e5813921"] ;
66 -> 67 ;
68 [label=<fnlwgt &le; -0.178<br/>gini = 0.227<br/>samples = 23<br/>value = [3, 20]<br/>class = More than>, fillcolor="#399de5d9"] ;
67 -> 68 ;
69 [label=<gini = 0.0<br/>samples = 16<br/>value = [0, 16]<br/>class = More than>, fillcolor="#399de5ff"] ;
68 -> 69 ;
70 [label=<gini = 0.49<br/>samples = 7<br/>value = [3, 4]<br/>class = More than>, fillcolor="#399de540"] ;
68 -> 70 ;
71 [label=<race_Other &le; 0.5<br/>gini = 0.484<br/>samples = 168<br/>value = [99, 69]<br/>class = Less than or equal to>, fillcolor="#e581394d"] ;
67 -> 71 ;
72 [label=<gini = 0.472<br/>samples = 160<br/>value = [99, 61]<br/>class = Less than or equal to>, fillcolor="#e5813962"] ;
71 -> 72 ;
73 [label=<gini = 0.0<br/>samples = 8<br/>value = [0, 8]<br/>class = More than>, fillcolor="#399de5ff"] ;
71 -> 73 ;
74 [label=<fnlwgt &le; -0.837<br/>gini = 0.313<br/>samples = 67<br/>value = [13, 54]<br/>class = More than>, fillcolor="#399de5c2"] ;
66 -> 74 ;
75 [label=<gini = 0.0<br/>samples = 5<br/>value = [5, 0]<br/>class = Less than or equal to>, fillcolor="#e58139ff"] ;
74 -> 75 ;
76 [label=<occupation_Sales &le; 0.5<br/>gini = 0.225<br/>samples = 62<br/>value = [8, 54]<br/>class = More than>, fillcolor="#399de5d9"] ;
74 -> 76 ;
77 [label=<gini = 0.155<br/>samples = 59<br/>value = [5, 54]<br/>class = More than>, fillcolor="#399de5e7"] ;
76 -> 77 ;
78 [label=<gini = 0.0<br/>samples = 3<br/>value = [3, 0]<br/>class = Less than or equal to>, fillcolor="#e58139ff"] ;
76 -> 78 ;
79 [label=<education_Associates &le; 0.5<br/>gini = 0.178<br/>samples = 101<br/>value = [10, 91]<br/>class = More than>, fillcolor="#399de5e3"] ;
1 -> 79 ;
80 [label=<age &le; -0.258<br/>gini = 0.133<br/>samples = 98<br/>value = [7, 91]<br/>class = More than>, fillcolor="#399de5eb"] ;
79 -> 80 ;
81 [label=<race_White &le; 0.5<br/>gini = 0.444<br/>samples = 6<br/>value = [4, 2]<br/>class = Less than or equal to>, fillcolor="#e581397f"] ;
80 -> 81 ;
82 [label=<gini = 0.0<br/>samples = 2<br/>value = [0, 2]<br/>class = More than>, fillcolor="#399de5ff"] ;
81 -> 82 ;
83 [label=<gini = 0.0<br/>samples = 4<br/>value = [4, 0]<br/>class = Less than or equal to>, fillcolor="#e58139ff"] ;
81 -> 83 ;
84 [label=<age &le; 2.07<br/>gini = 0.063<br/>samples = 92<br/>value = [3, 89]<br/>class = More than>, fillcolor="#399de5f6"] ;
80 -> 84 ;
85 [label=<investment-status &le; 0.827<br/>gini = 0.043<br/>samples = 91<br/>value = [2, 89]<br/>class = More than>, fillcolor="#399de5f9"] ;
84 -> 85 ;
86 [label=<investment-status &le; 0.789<br/>gini = 0.133<br/>samples = 28<br/>value = [2, 26]<br/>class = More than>, fillcolor="#399de5eb"] ;
85 -> 86 ;
87 [label=<education_Undergrad-incomplete &le; 0.5<br/>gini = 0.071<br/>samples = 27<br/>value = [1, 26]<br/>class = More than>, fillcolor="#399de5f5"] ;
86 -> 87 ;
88 [label=<gini = 0.0<br/>samples = 26<br/>value = [0, 26]<br/>class = More than>, fillcolor="#399de5ff"] ;
87 -> 88 ;
89 [label=<gini = 0.0<br/>samples = 1<br/>value = [1, 0]<br/>class = Less than or equal to>, fillcolor="#e58139ff"] ;
87 -> 89 ;
90 [label=<gini = 0.0<br/>samples = 1<br/>value = [1, 0]<br/>class = Less than or equal to>, fillcolor="#e58139ff"] ;
86 -> 90 ;
91 [label=<gini = 0.0<br/>samples = 63<br/>value = [0, 63]<br/>class = More than>, fillcolor="#399de5ff"] ;
85 -> 91 ;
92 [label=<gini = 0.0<br/>samples = 1<br/>value = [1, 0]<br/>class = Less than or equal to>, fillcolor="#e58139ff"] ;
84 -> 92 ;
93 [label=<gini = 0.0<br/>samples = 3<br/>value = [3, 0]<br/>class = Less than or equal to>, fillcolor="#e58139ff"] ;
79 -> 93 ;
94 [label=<hours-per-week &le; -0.021<br/>gini = 0.395<br/>samples = 2999<br/>value = [811, 2188]<br/>class = More than>, fillcolor="#399de5a0"] ;
0 -> 94 [labeldistance=2.5, labelangle=-45, headlabel="False"] ;
95 [label=<age &le; -0.267<br/>gini = 0.47<br/>samples = 1515<br/>value = [572, 943]<br/>class = More than>, fillcolor="#399de564"] ;
94 -> 95 ;
96 [label=<age &le; -0.824<br/>gini = 0.473<br/>samples = 333<br/>value = [205, 128]<br/>class = Less than or equal to>, fillcolor="#e5813960"] ;
95 -> 96 ;
97 [label=<investment-status &le; -0.326<br/>gini = 0.193<br/>samples = 74<br/>value = [66, 8]<br/>class = Less than or equal to>, fillcolor="#e58139e0"] ;
96 -> 97 ;
98 [label=<education_Associates &le; 0.5<br/>gini = 0.375<br/>samples = 4<br/>value = [1, 3]<br/>class = More than>, fillcolor="#399de5aa"] ;
97 -> 98 ;
99 [label=<gini = 0.0<br/>samples = 3<br/>value = [0, 3]<br/>class = More than>, fillcolor="#399de5ff"] ;
98 -> 99 ;
100 [label=<gini = 0.0<br/>samples = 1<br/>value = [1, 0]<br/>class = Less than or equal to>, fillcolor="#e58139ff"] ;
98 -> 100 ;
101 [label=<occupation_Exec-managerial &le; 0.5<br/>gini = 0.133<br/>samples = 70<br/>value = [65, 5]<br/>class = Less than or equal to>, fillcolor="#e58139eb"] ;
97 -> 101 ;
102 [label=<native-country_North-America &le; 0.5<br/>gini = 0.087<br/>samples = 66<br/>value = [63, 3]<br/>class = Less than or equal to>, fillcolor="#e58139f3"] ;
101 -> 102 ;
103 [label=<education_Undergrad-complete &le; 0.5<br/>gini = 0.408<br/>samples = 7<br/>value = [5, 2]<br/>class = Less than or equal to>, fillcolor="#e5813999"] ;
102 -> 103 ;
104 [label=<gini = 0.0<br/>samples = 5<br/>value = [5, 0]<br/>class = Less than or equal to>, fillcolor="#e58139ff"] ;
103 -> 104 ;
105 [label=<gini = 0.0<br/>samples = 2<br/>value = [0, 2]<br/>class = More than>, fillcolor="#399de5ff"] ;
103 -> 105 ;
106 [label=<fnlwgt &le; -1.009<br/>gini = 0.033<br/>samples = 59<br/>value = [58, 1]<br/>class = Less than or equal to>, fillcolor="#e58139fb"] ;
102 -> 106 ;
107 [label=<gini = 0.278<br/>samples = 6<br/>value = [5, 1]<br/>class = Less than or equal to>, fillcolor="#e58139cc"] ;
106 -> 107 ;
108 [label=<gini = 0.0<br/>samples = 53<br/>value = [53, 0]<br/>class = Less than or equal to>, fillcolor="#e58139ff"] ;
106 -> 108 ;
109 [label=<age &le; -1.096<br/>gini = 0.5<br/>samples = 4<br/>value = [2, 2]<br/>class = Less than or equal to>, fillcolor="#e5813900"] ;
101 -> 109 ;
110 [label=<gini = 0.0<br/>samples = 1<br/>value = [1, 0]<br/>class = Less than or equal to>, fillcolor="#e58139ff"] ;
109 -> 110 ;
111 [label=<race_White &le; 0.5<br/>gini = 0.444<br/>samples = 3<br/>value = [1, 2]<br/>class = More than>, fillcolor="#399de57f"] ;
109 -> 111 ;
112 [label=<gini = 0.0<br/>samples = 1<br/>value = [1, 0]<br/>class = Less than or equal to>, fillcolor="#e58139ff"] ;
111 -> 112 ;
113 [label=<gini = 0.0<br/>samples = 2<br/>value = [0, 2]<br/>class = More than>, fillcolor="#399de5ff"] ;
111 -> 113 ;
114 [label=<fnlwgt &le; 0.698<br/>gini = 0.497<br/>samples = 259<br/>value = [139, 120]<br/>class = Less than or equal to>, fillcolor="#e5813923"] ;
96 -> 114 ;
115 [label=<age &le; -0.272<br/>gini = 0.499<br/>samples = 222<br/>value = [106, 116]<br/>class = More than>, fillcolor="#399de516"] ;
114 -> 115 ;
116 [label=<investment-status &le; -0.128<br/>gini = 0.491<br/>samples = 197<br/>value = [85, 112]<br/>class = More than>, fillcolor="#399de53d"] ;
115 -> 116 ;
117 [label=<workclass_Government &le; 0.5<br/>gini = 0.083<br/>samples = 23<br/>value = [1, 22]<br/>class = More than>, fillcolor="#399de5f3"] ;
116 -> 117 ;
118 [label=<gini = 0.0<br/>samples = 22<br/>value = [0, 22]<br/>class = More than>, fillcolor="#399de5ff"] ;
117 -> 118 ;
119 [label=<gini = 0.0<br/>samples = 1<br/>value = [1, 0]<br/>class = Less than or equal to>, fillcolor="#e58139ff"] ;
117 -> 119 ;
120 [label=<education_Undergrad-complete &le; 0.5<br/>gini = 0.499<br/>samples = 174<br/>value = [84, 90]<br/>class = More than>, fillcolor="#399de511"] ;
116 -> 120 ;
121 [label=<gini = 0.494<br/>samples = 139<br/>value = [77, 62]<br/>class = Less than or equal to>, fillcolor="#e5813932"] ;
120 -> 121 ;
122 [label=<gini = 0.32<br/>samples = 35<br/>value = [7, 28]<br/>class = More than>, fillcolor="#399de5bf"] ;
120 -> 122 ;
123 [label=<occupation_Prof-specialty &le; 0.5<br/>gini = 0.269<br/>samples = 25<br/>value = [21, 4]<br/>class = Less than or equal to>, fillcolor="#e58139ce"] ;
115 -> 123 ;
124 [label=<occupation_Adm-clerical &le; 0.5<br/>gini = 0.165<br/>samples = 22<br/>value = [20, 2]<br/>class = Less than or equal to>, fillcolor="#e58139e6"] ;
123 -> 124 ;
125 [label=<gini = 0.1<br/>samples = 19<br/>value = [18, 1]<br/>class = Less than or equal to>, fillcolor="#e58139f1"] ;
124 -> 125 ;
126 [label=<gini = 0.444<br/>samples = 3<br/>value = [2, 1]<br/>class = Less than or equal to>, fillcolor="#e581397f"] ;
124 -> 126 ;
127 [label=<education_Compulsory-education-complete &le; 0.5<br/>gini = 0.444<br/>samples = 3<br/>value = [1, 2]<br/>class = More than>, fillcolor="#399de57f"] ;
123 -> 127 ;
128 [label=<gini = 0.0<br/>samples = 2<br/>value = [0, 2]<br/>class = More than>, fillcolor="#399de5ff"] ;
127 -> 128 ;
129 [label=<gini = 0.0<br/>samples = 1<br/>value = [1, 0]<br/>class = Less than or equal to>, fillcolor="#e58139ff"] ;
127 -> 129 ;
130 [label=<education_Associates &le; 0.5<br/>gini = 0.193<br/>samples = 37<br/>value = [33, 4]<br/>class = Less than or equal to>, fillcolor="#e58139e0"] ;
114 -> 130 ;
131 [label=<investment-status &le; -0.243<br/>gini = 0.108<br/>samples = 35<br/>value = [33, 2]<br/>class = Less than or equal to>, fillcolor="#e58139f0"] ;
130 -> 131 ;
132 [label=<gini = 0.0<br/>samples = 1<br/>value = [0, 1]<br/>class = More than>, fillcolor="#399de5ff"] ;
131 -> 132 ;
133 [label=<race_Black &le; 0.5<br/>gini = 0.057<br/>samples = 34<br/>value = [33, 1]<br/>class = Less than or equal to>, fillcolor="#e58139f7"] ;
131 -> 133 ;
134 [label=<gini = 0.0<br/>samples = 31<br/>value = [31, 0]<br/>class = Less than or equal to>, fillcolor="#e58139ff"] ;
133 -> 134 ;
135 [label=<gini = 0.444<br/>samples = 3<br/>value = [2, 1]<br/>class = Less than or equal to>, fillcolor="#e581397f"] ;
133 -> 135 ;
136 [label=<gini = 0.0<br/>samples = 2<br/>value = [0, 2]<br/>class = More than>, fillcolor="#399de5ff"] ;
130 -> 136 ;
137 [label=<education_Compulsory-education-incomplete &le; 0.5<br/>gini = 0.428<br/>samples = 1182<br/>value = [367, 815]<br/>class = More than>, fillcolor="#399de58c"] ;
95 -> 137 ;
138 [label=<education_Compulsory-education-complete &le; 0.5<br/>gini = 0.395<br/>samples = 1060<br/>value = [287, 773]<br/>class = More than>, fillcolor="#399de5a0"] ;
137 -> 138 ;
139 [label=<age &le; 1.313<br/>gini = 0.309<br/>samples = 666<br/>value = [127, 539]<br/>class = More than>, fillcolor="#399de5c3"] ;
138 -> 139 ;
140 [label=<fnlwgt &le; -1.472<br/>gini = 0.25<br/>samples = 545<br/>value = [80, 465]<br/>class = More than>, fillcolor="#399de5d3"] ;
139 -> 140 ;
141 [label=<occupation_Exec-managerial &le; 0.5<br/>gini = 0.499<br/>samples = 21<br/>value = [10, 11]<br/>class = More than>, fillcolor="#399de517"] ;
140 -> 141 ;
142 [label=<gini = 0.426<br/>samples = 13<br/>value = [9, 4]<br/>class = Less than or equal to>, fillcolor="#e581398e"] ;
141 -> 142 ;
143 [label=<gini = 0.219<br/>samples = 8<br/>value = [1, 7]<br/>class = More than>, fillcolor="#399de5db"] ;
141 -> 143 ;
144 [label=<investment-status &le; -0.13<br/>gini = 0.231<br/>samples = 524<br/>value = [70, 454]<br/>class = More than>, fillcolor="#399de5d8"] ;
140 -> 144 ;
145 [label=<gini = 0.0<br/>samples = 78<br/>value = [0, 78]<br/>class = More than>, fillcolor="#399de5ff"] ;
144 -> 145 ;
146 [label=<gini = 0.265<br/>samples = 446<br/>value = [70, 376]<br/>class = More than>, fillcolor="#399de5d0"] ;
144 -> 146 ;
147 [label=<investment-status &le; 0.51<br/>gini = 0.475<br/>samples = 121<br/>value = [47, 74]<br/>class = More than>, fillcolor="#399de55d"] ;
139 -> 147 ;
148 [label=<education_Graduates &le; 0.5<br/>gini = 0.5<br/>samples = 94<br/>value = [47, 47]<br/>class = Less than or equal to>, fillcolor="#e5813900"] ;
147 -> 148 ;
149 [label=<gini = 0.457<br/>samples = 65<br/>value = [42, 23]<br/>class = Less than or equal to>, fillcolor="#e5813973"] ;
148 -> 149 ;
150 [label=<gini = 0.285<br/>samples = 29<br/>value = [5, 24]<br/>class = More than>, fillcolor="#399de5ca"] ;
148 -> 150 ;
151 [label=<gini = 0.0<br/>samples = 27<br/>value = [0, 27]<br/>class = More than>, fillcolor="#399de5ff"] ;
147 -> 151 ;
152 [label=<hours-per-week &le; -0.349<br/>gini = 0.482<br/>samples = 394<br/>value = [160, 234]<br/>class = More than>, fillcolor="#399de551"] ;
138 -> 152 ;
153 [label=<occupation_Exec-managerial &le; 0.5<br/>gini = 0.39<br/>samples = 49<br/>value = [36, 13]<br/>class = Less than or equal to>, fillcolor="#e58139a3"] ;
152 -> 153 ;
154 [label=<investment-status &le; -0.153<br/>gini = 0.255<br/>samples = 40<br/>value = [34, 6]<br/>class = Less than or equal to>, fillcolor="#e58139d2"] ;
153 -> 154 ;
155 [label=<gini = 0.0<br/>samples = 2<br/>value = [0, 2]<br/>class = More than>, fillcolor="#399de5ff"] ;
154 -> 155 ;
156 [label=<gini = 0.188<br/>samples = 38<br/>value = [34, 4]<br/>class = Less than or equal to>, fillcolor="#e58139e1"] ;
154 -> 156 ;
157 [label=<age &le; 1.009<br/>gini = 0.346<br/>samples = 9<br/>value = [2, 7]<br/>class = More than>, fillcolor="#399de5b6"] ;
153 -> 157 ;
158 [label=<gini = 0.0<br/>samples = 1<br/>value = [1, 0]<br/>class = Less than or equal to>, fillcolor="#e58139ff"] ;
157 -> 158 ;
159 [label=<gini = 0.219<br/>samples = 8<br/>value = [1, 7]<br/>class = More than>, fillcolor="#399de5db"] ;
157 -> 159 ;
160 [label=<age &le; 0.309<br/>gini = 0.46<br/>samples = 345<br/>value = [124, 221]<br/>class = More than>, fillcolor="#399de570"] ;
152 -> 160 ;
161 [label=<occupation_Blue-Collar &le; 0.5<br/>gini = 0.49<br/>samples = 93<br/>value = [53, 40]<br/>class = Less than or equal to>, fillcolor="#e581393f"] ;
160 -> 161 ;
162 [label=<gini = 0.437<br/>samples = 31<br/>value = [10, 21]<br/>class = More than>, fillcolor="#399de586"] ;
161 -> 162 ;
163 [label=<gini = 0.425<br/>samples = 62<br/>value = [43, 19]<br/>class = Less than or equal to>, fillcolor="#e581398e"] ;
161 -> 163 ;
164 [label=<fnlwgt &le; -1.351<br/>gini = 0.405<br/>samples = 252<br/>value = [71, 181]<br/>class = More than>, fillcolor="#399de59b"] ;
160 -> 164 ;
165 [label=<gini = 0.0<br/>samples = 6<br/>value = [6, 0]<br/>class = Less than or equal to>, fillcolor="#e58139ff"] ;
164 -> 165 ;
166 [label=<gini = 0.389<br/>samples = 246<br/>value = [65, 181]<br/>class = More than>, fillcolor="#399de5a3"] ;
164 -> 166 ;
167 [label=<investment-status &le; 0.198<br/>gini = 0.451<br/>samples = 122<br/>value = [80, 42]<br/>class = Less than or equal to>, fillcolor="#e5813979"] ;
137 -> 167 ;
168 [label=<fnlwgt &le; -0.152<br/>gini = 0.393<br/>samples = 108<br/>value = [79, 29]<br/>class = Less than or equal to>, fillcolor="#e58139a1"] ;
167 -> 168 ;
169 [label=<hours-per-week &le; -2.483<br/>gini = 0.127<br/>samples = 44<br/>value = [41, 3]<br/>class = Less than or equal to>, fillcolor="#e58139ec"] ;
168 -> 169 ;
170 [label=<fnlwgt &le; -0.442<br/>gini = 0.5<br/>samples = 4<br/>value = [2, 2]<br/>class = Less than or equal to>, fillcolor="#e5813900"] ;
169 -> 170 ;
171 [label=<gini = 0.0<br/>samples = 2<br/>value = [0, 2]<br/>class = More than>, fillcolor="#399de5ff"] ;
170 -> 171 ;
172 [label=<gini = 0.0<br/>samples = 2<br/>value = [2, 0]<br/>class = Less than or equal to>, fillcolor="#e58139ff"] ;
170 -> 172 ;
173 [label=<hours-per-week &le; -0.637<br/>gini = 0.049<br/>samples = 40<br/>value = [39, 1]<br/>class = Less than or equal to>, fillcolor="#e58139f8"] ;
169 -> 173 ;
174 [label=<gini = 0.198<br/>samples = 9<br/>value = [8, 1]<br/>class = Less than or equal to>, fillcolor="#e58139df"] ;
173 -> 174 ;
175 [label=<gini = 0.0<br/>samples = 31<br/>value = [31, 0]<br/>class = Less than or equal to>, fillcolor="#e58139ff"] ;
173 -> 175 ;
176 [label=<fnlwgt &le; -0.009<br/>gini = 0.482<br/>samples = 64<br/>value = [38, 26]<br/>class = Less than or equal to>, fillcolor="#e5813951"] ;
168 -> 176 ;
177 [label=<workclass_Private &le; 0.5<br/>gini = 0.413<br/>samples = 24<br/>value = [7, 17]<br/>class = More than>, fillcolor="#399de596"] ;
176 -> 177 ;
178 [label=<gini = 0.0<br/>samples = 2<br/>value = [2, 0]<br/>class = Less than or equal to>, fillcolor="#e58139ff"] ;
177 -> 178 ;
179 [label=<gini = 0.351<br/>samples = 22<br/>value = [5, 17]<br/>class = More than>, fillcolor="#399de5b4"] ;
177 -> 179 ;
180 [label=<investment-status &le; -0.21<br/>gini = 0.349<br/>samples = 40<br/>value = [31, 9]<br/>class = Less than or equal to>, fillcolor="#e58139b5"] ;
176 -> 180 ;
181 [label=<gini = 0.0<br/>samples = 2<br/>value = [0, 2]<br/>class = More than>, fillcolor="#399de5ff"] ;
180 -> 181 ;
182 [label=<gini = 0.301<br/>samples = 38<br/>value = [31, 7]<br/>class = Less than or equal to>, fillcolor="#e58139c5"] ;
180 -> 182 ;
183 [label=<age &le; 1.942<br/>gini = 0.133<br/>samples = 14<br/>value = [1, 13]<br/>class = More than>, fillcolor="#399de5eb"] ;
167 -> 183 ;
184 [label=<gini = 0.0<br/>samples = 13<br/>value = [0, 13]<br/>class = More than>, fillcolor="#399de5ff"] ;
183 -> 184 ;
185 [label=<gini = 0.0<br/>samples = 1<br/>value = [1, 0]<br/>class = Less than or equal to>, fillcolor="#e58139ff"] ;
183 -> 185 ;
186 [label=<investment-status &le; -0.124<br/>gini = 0.27<br/>samples = 1484<br/>value = [239, 1245]<br/>class = More than>, fillcolor="#399de5ce"] ;
94 -> 186 ;
187 [label=<age &le; -1.037<br/>gini = 0.322<br/>samples = 1164<br/>value = [235, 929]<br/>class = More than>, fillcolor="#399de5be"] ;
186 -> 187 ;
188 [label=<fnlwgt &le; 1.253<br/>gini = 0.133<br/>samples = 14<br/>value = [13, 1]<br/>class = Less than or equal to>, fillcolor="#e58139eb"] ;
187 -> 188 ;
189 [label=<gini = 0.0<br/>samples = 12<br/>value = [12, 0]<br/>class = Less than or equal to>, fillcolor="#e58139ff"] ;
188 -> 189 ;
190 [label=<fnlwgt &le; 1.738<br/>gini = 0.5<br/>samples = 2<br/>value = [1, 1]<br/>class = Less than or equal to>, fillcolor="#e5813900"] ;
188 -> 190 ;
191 [label=<gini = 0.0<br/>samples = 1<br/>value = [0, 1]<br/>class = More than>, fillcolor="#399de5ff"] ;
190 -> 191 ;
192 [label=<gini = 0.0<br/>samples = 1<br/>value = [1, 0]<br/>class = Less than or equal to>, fillcolor="#e58139ff"] ;
190 -> 192 ;
193 [label=<hours-per-week &le; 0.382<br/>gini = 0.312<br/>samples = 1150<br/>value = [222, 928]<br/>class = More than>, fillcolor="#399de5c2"] ;
187 -> 193 ;
194 [label=<fnlwgt &le; -1.531<br/>gini = 0.094<br/>samples = 242<br/>value = [12, 230]<br/>class = More than>, fillcolor="#399de5f2"] ;
193 -> 194 ;
195 [label=<gini = 0.0<br/>samples = 1<br/>value = [1, 0]<br/>class = Less than or equal to>, fillcolor="#e58139ff"] ;
194 -> 195 ;
196 [label=<age &le; 2.032<br/>gini = 0.087<br/>samples = 241<br/>value = [11, 230]<br/>class = More than>, fillcolor="#399de5f3"] ;
194 -> 196 ;
197 [label=<education_Compulsory-education-complete &le; 0.5<br/>gini = 0.08<br/>samples = 239<br/>value = [10, 229]<br/>class = More than>, fillcolor="#399de5f4"] ;
196 -> 197 ;
198 [label=<gini = 0.025<br/>samples = 155<br/>value = [2, 153]<br/>class = More than>, fillcolor="#399de5fc"] ;
197 -> 198 ;
199 [label=<gini = 0.172<br/>samples = 84<br/>value = [8, 76]<br/>class = More than>, fillcolor="#399de5e4"] ;
197 -> 199 ;
200 [label=<education_Undergrad-incomplete &le; 0.5<br/>gini = 0.5<br/>samples = 2<br/>value = [1, 1]<br/>class = Less than or equal to>, fillcolor="#e5813900"] ;
196 -> 200 ;
201 [label=<gini = 0.0<br/>samples = 1<br/>value = [0, 1]<br/>class = More than>, fillcolor="#399de5ff"] ;
200 -> 201 ;
202 [label=<gini = 0.0<br/>samples = 1<br/>value = [1, 0]<br/>class = Less than or equal to>, fillcolor="#e58139ff"] ;
200 -> 202 ;
203 [label=<investment-status &le; -0.127<br/>gini = 0.356<br/>samples = 908<br/>value = [210, 698]<br/>class = More than>, fillcolor="#399de5b2"] ;
193 -> 203 ;
204 [label=<fnlwgt &le; -1.164<br/>gini = 0.086<br/>samples = 155<br/>value = [7, 148]<br/>class = More than>, fillcolor="#399de5f3"] ;
203 -> 204 ;
205 [label=<occupation_Other-service &le; 0.5<br/>gini = 0.49<br/>samples = 7<br/>value = [3, 4]<br/>class = More than>, fillcolor="#399de540"] ;
204 -> 205 ;
206 [label=<gini = 0.32<br/>samples = 5<br/>value = [1, 4]<br/>class = More than>, fillcolor="#399de5bf"] ;
205 -> 206 ;
207 [label=<gini = 0.0<br/>samples = 2<br/>value = [2, 0]<br/>class = Less than or equal to>, fillcolor="#e58139ff"] ;
205 -> 207 ;
208 [label=<fnlwgt &le; 1.558<br/>gini = 0.053<br/>samples = 148<br/>value = [4, 144]<br/>class = More than>, fillcolor="#399de5f8"] ;
204 -> 208 ;
209 [label=<gini = 0.028<br/>samples = 143<br/>value = [2, 141]<br/>class = More than>, fillcolor="#399de5fb"] ;
208 -> 209 ;
210 [label=<gini = 0.48<br/>samples = 5<br/>value = [2, 3]<br/>class = More than>, fillcolor="#399de555"] ;
208 -> 210 ;
211 [label=<education_Undergrad-complete &le; 0.5<br/>gini = 0.394<br/>samples = 753<br/>value = [203, 550]<br/>class = More than>, fillcolor="#399de5a1"] ;
203 -> 211 ;
212 [label=<education_Graduates &le; 0.5<br/>gini = 0.432<br/>samples = 564<br/>value = [178, 386]<br/>class = More than>, fillcolor="#399de589"] ;
211 -> 212 ;
213 [label=<gini = 0.47<br/>samples = 426<br/>value = [161, 265]<br/>class = More than>, fillcolor="#399de564"] ;
212 -> 213 ;
214 [label=<gini = 0.216<br/>samples = 138<br/>value = [17, 121]<br/>class = More than>, fillcolor="#399de5db"] ;
212 -> 214 ;
215 [label=<hours-per-week &le; 3.09<br/>gini = 0.23<br/>samples = 189<br/>value = [25, 164]<br/>class = More than>, fillcolor="#399de5d8"] ;
211 -> 215 ;
216 [label=<gini = 0.216<br/>samples = 187<br/>value = [23, 164]<br/>class = More than>, fillcolor="#399de5db"] ;
215 -> 216 ;
217 [label=<gini = 0.0<br/>samples = 2<br/>value = [2, 0]<br/>class = Less than or equal to>, fillcolor="#e58139ff"] ;
215 -> 217 ;
218 [label=<fnlwgt &le; 5.22<br/>gini = 0.025<br/>samples = 320<br/>value = [4, 316]<br/>class = More than>, fillcolor="#399de5fc"] ;
186 -> 218 ;
219 [label=<age &le; -0.767<br/>gini = 0.019<br/>samples = 319<br/>value = [3, 316]<br/>class = More than>, fillcolor="#399de5fd"] ;
218 -> 219 ;
220 [label=<age &le; -0.794<br/>gini = 0.245<br/>samples = 7<br/>value = [1, 6]<br/>class = More than>, fillcolor="#399de5d4"] ;
219 -> 220 ;
221 [label=<gini = 0.0<br/>samples = 6<br/>value = [0, 6]<br/>class = More than>, fillcolor="#399de5ff"] ;
220 -> 221 ;
222 [label=<gini = 0.0<br/>samples = 1<br/>value = [1, 0]<br/>class = Less than or equal to>, fillcolor="#e58139ff"] ;
220 -> 222 ;
223 [label=<education_Compulsory-education-incomplete &le; 0.5<br/>gini = 0.013<br/>samples = 312<br/>value = [2, 310]<br/>class = More than>, fillcolor="#399de5fd"] ;
219 -> 223 ;
224 [label=<occupation_Exec-managerial &le; 0.5<br/>gini = 0.007<br/>samples = 298<br/>value = [1, 297]<br/>class = More than>, fillcolor="#399de5fe"] ;
223 -> 224 ;
225 [label=<gini = 0.0<br/>samples = 232<br/>value = [0, 232]<br/>class = More than>, fillcolor="#399de5ff"] ;
224 -> 225 ;
226 [label=<investment-status &le; 0.378<br/>gini = 0.03<br/>samples = 66<br/>value = [1, 65]<br/>class = More than>, fillcolor="#399de5fb"] ;
224 -> 226 ;
227 [label=<gini = 0.142<br/>samples = 13<br/>value = [1, 12]<br/>class = More than>, fillcolor="#399de5ea"] ;
226 -> 227 ;
228 [label=<gini = 0.0<br/>samples = 53<br/>value = [0, 53]<br/>class = More than>, fillcolor="#399de5ff"] ;
226 -> 228 ;
229 [label=<fnlwgt &le; -0.37<br/>gini = 0.133<br/>samples = 14<br/>value = [1, 13]<br/>class = More than>, fillcolor="#399de5eb"] ;
223 -> 229 ;
230 [label=<race_White &le; 0.5<br/>gini = 0.444<br/>samples = 3<br/>value = [1, 2]<br/>class = More than>, fillcolor="#399de57f"] ;
229 -> 230 ;
231 [label=<gini = 0.0<br/>samples = 1<br/>value = [1, 0]<br/>class = Less than or equal to>, fillcolor="#e58139ff"] ;
230 -> 231 ;
232 [label=<gini = 0.0<br/>samples = 2<br/>value = [0, 2]<br/>class = More than>, fillcolor="#399de5ff"] ;
230 -> 232 ;
233 [label=<gini = 0.0<br/>samples = 11<br/>value = [0, 11]<br/>class = More than>, fillcolor="#399de5ff"] ;
229 -> 233 ;
234 [label=<gini = 0.0<br/>samples = 1<br/>value = [1, 0]<br/>class = Less than or equal to>, fillcolor="#e58139ff"] ;
218 -> 234 ;
}