digraph Tree {
node [shape=box, style="filled, rounded", color="black", fontname=helvetica] ;
edge [fontname=helvetica] ;
0 [label=<relationship_Spouse &le; 0.002<br/>gini = 0.5<br/>samples = 4620<br/>value = [2310, 2310]<br/>class = Less than or equal to>, fillcolor="#e5813900"] ;
1 [label=<investment-status &le; 0.448<br/>gini = 0.223<br/>samples = 1783<br/>value = [1555, 228]<br/>class = Less than or equal to>, fillcolor="#e58139da"] ;
0 -> 1 [labeldistance=2.5, labelangle=45, headlabel="True"] ;
2 [label=<investment-status &le; -0.127<br/>gini = 0.16<br/>samples = 1696<br/>value = [1547, 149]<br/>class = Less than or equal to>, fillcolor="#e58139e6"] ;
1 -> 2 ;
3 [label=<investment-status &le; -0.309<br/>gini = 0.5<br/>samples = 70<br/>value = [35, 35]<br/>class = Less than or equal to>, fillcolor="#e5813900"] ;
2 -> 3 ;
4 [label=<investment-status &le; -0.417<br/>gini = 0.416<br/>samples = 44<br/>value = [31, 13]<br/>class = Less than or equal to>, fillcolor="#e5813994"] ;
3 -> 4 ;
5 [label=<gini = 0.0<br/>samples = 7<br/>value = [0, 7]<br/>class = More than>, fillcolor="#399de5ff"] ;
4 -> 5 ;
6 [label=<investment-status &le; -0.321<br/>gini = 0.272<br/>samples = 37<br/>value = [31, 6]<br/>class = Less than or equal to>, fillcolor="#e58139ce"] ;
4 -> 6 ;
7 [label=<age &le; 0.847<br/>gini = 0.128<br/>samples = 29<br/>value = [27, 2]<br/>class = Less than or equal to>, fillcolor="#e58139ec"] ;
6 -> 7 ;
8 [label=<gini = 0.0<br/>samples = 23<br/>value = [23, 0]<br/>class = Less than or equal to>, fillcolor="#e58139ff"] ;
7 -> 8 ;
9 [label=<age &le; 0.99<br/>gini = 0.444<br/>samples = 6<br/>value = [4, 2]<br/>class = Less than or equal to>, fillcolor="#e581397f"] ;
7 -> 9 ;
10 [label=<gini = 0.0<br/>samples = 2<br/>value = [0, 2]<br/>class = More than>, fillcolor="#399de5ff"] ;
9 -> 10 ;
11 [label=<gini = 0.0<br/>samples = 4<br/>value = [4, 0]<br/>class = Less than or equal to>, fillcolor="#e58139ff"] ;
9 -> 11 ;
12 [label=<investment-status &le; -0.316<br/>gini = 0.5<br/>samples = 8<br/>value = [4, 4]<br/>class = Less than or equal to>, fillcolor="#e5813900"] ;
6 -> 12 ;
13 [label=<gini = 0.0<br/>samples = 4<br/>value = [0, 4]<br/>class = More than>, fillcolor="#399de5ff"] ;
12 -> 13 ;
14 [label=<gini = 0.0<br/>samples = 4<br/>value = [4, 0]<br/>class = Less than or equal to>, fillcolor="#e58139ff"] ;
12 -> 14 ;
15 [label=<workclass_Private &le; 0.001<br/>gini = 0.26<br/>samples = 26<br/>value = [4, 22]<br/>class = More than>, fillcolor="#399de5d1"] ;
3 -> 15 ;
16 [label=<gini = 0.0<br/>samples = 2<br/>value = [2, 0]<br/>class = Less than or equal to>, fillcolor="#e58139ff"] ;
15 -> 16 ;
17 [label=<native-country_North-America &le; 0.5<br/>gini = 0.153<br/>samples = 24<br/>value = [2, 22]<br/>class = More than>, fillcolor="#399de5e8"] ;
15 -> 17 ;
18 [label=<gini = 0.0<br/>samples = 1<br/>value = [1, 0]<br/>class = Less than or equal to>, fillcolor="#e58139ff"] ;
17 -> 18 ;
19 [label=<education_Graduates &le; 1.0<br/>gini = 0.083<br/>samples = 23<br/>value = [1, 22]<br/>class = More than>, fillcolor="#399de5f3"] ;
17 -> 19 ;
20 [label=<gini = 0.0<br/>samples = 21<br/>value = [0, 21]<br/>class = More than>, fillcolor="#399de5ff"] ;
19 -> 20 ;
21 [label=<investment-status &le; -0.237<br/>gini = 0.5<br/>samples = 2<br/>value = [1, 1]<br/>class = Less than or equal to>, fillcolor="#e5813900"] ;
19 -> 21 ;
22 [label=<gini = 0.0<br/>samples = 1<br/>value = [1, 0]<br/>class = Less than or equal to>, fillcolor="#e58139ff"] ;
21 -> 22 ;
23 [label=<gini = 0.0<br/>samples = 1<br/>value = [0, 1]<br/>class = More than>, fillcolor="#399de5ff"] ;
21 -> 23 ;
24 [label=<education_Graduates &le; 0.018<br/>gini = 0.13<br/>samples = 1626<br/>value = [1512, 114]<br/>class = Less than or equal to>, fillcolor="#e58139ec"] ;
2 -> 24 ;
25 [label=<hours-per-week &le; -0.024<br/>gini = 0.096<br/>samples = 1539<br/>value = [1461, 78]<br/>class = Less than or equal to>, fillcolor="#e58139f1"] ;
24 -> 25 ;
26 [label=<fnlwgt &le; 1.178<br/>gini = 0.044<br/>samples = 1209<br/>value = [1182, 27]<br/>class = Less than or equal to>, fillcolor="#e58139f9"] ;
25 -> 26 ;
27 [label=<fnlwgt &le; -1.514<br/>gini = 0.03<br/>samples = 1057<br/>value = [1041, 16]<br/>class = Less than or equal to>, fillcolor="#e58139fb"] ;
26 -> 27 ;
28 [label=<fnlwgt &le; -1.516<br/>gini = 0.204<br/>samples = 26<br/>value = [23, 3]<br/>class = Less than or equal to>, fillcolor="#e58139de"] ;
27 -> 28 ;
29 [label=<gini = 0.08<br/>samples = 24<br/>value = [23, 1]<br/>class = Less than or equal to>, fillcolor="#e58139f4"] ;
28 -> 29 ;
30 [label=<gini = 0.0<br/>samples = 2<br/>value = [0, 2]<br/>class = More than>, fillcolor="#399de5ff"] ;
28 -> 30 ;
31 [label=<age &le; -0.664<br/>gini = 0.025<br/>samples = 1031<br/>value = [1018, 13]<br/>class = Less than or equal to>, fillcolor="#e58139fc"] ;
27 -> 31 ;
32 [label=<gini = 0.004<br/>samples = 504<br/>value = [503, 1]<br/>class = Less than or equal to>, fillcolor="#e58139fe"] ;
31 -> 32 ;
33 [label=<gini = 0.045<br/>samples = 527<br/>value = [515, 12]<br/>class = Less than or equal to>, fillcolor="#e58139f9"] ;
31 -> 33 ;
34 [label=<fnlwgt &le; 1.647<br/>gini = 0.134<br/>samples = 152<br/>value = [141, 11]<br/>class = Less than or equal to>, fillcolor="#e58139eb"] ;
26 -> 34 ;
35 [label=<fnlwgt &le; 1.637<br/>gini = 0.262<br/>samples = 71<br/>value = [60, 11]<br/>class = Less than or equal to>, fillcolor="#e58139d0"] ;
34 -> 35 ;
36 [label=<gini = 0.227<br/>samples = 69<br/>value = [60, 9]<br/>class = Less than or equal to>, fillcolor="#e58139d9"] ;
35 -> 36 ;
37 [label=<gini = 0.0<br/>samples = 2<br/>value = [0, 2]<br/>class = More than>, fillcolor="#399de5ff"] ;
35 -> 37 ;
38 [label=<gini = 0.0<br/>samples = 81<br/>value = [81, 0]<br/>class = Less than or equal to>, fillcolor="#e58139ff"] ;
34 -> 38 ;
39 [label=<education_Undergrad-complete &le; 0.031<br/>gini = 0.261<br/>samples = 330<br/>value = [279, 51]<br/>class = Less than or equal to>, fillcolor="#e58139d0"] ;
25 -> 39 ;
40 [label=<hours-per-week &le; 0.038<br/>gini = 0.158<br/>samples = 243<br/>value = [222, 21]<br/>class = Less than or equal to>, fillcolor="#e58139e7"] ;
39 -> 40 ;
41 [label=<gini = 0.0<br/>samples = 2<br/>value = [0, 2]<br/>class = More than>, fillcolor="#399de5ff"] ;
40 -> 41 ;
42 [label=<age &le; 0.055<br/>gini = 0.145<br/>samples = 241<br/>value = [222, 19]<br/>class = Less than or equal to>, fillcolor="#e58139e9"] ;
40 -> 42 ;
43 [label=<gini = 0.071<br/>samples = 163<br/>value = [157, 6]<br/>class = Less than or equal to>, fillcolor="#e58139f5"] ;
42 -> 43 ;
44 [label=<gini = 0.278<br/>samples = 78<br/>value = [65, 13]<br/>class = Less than or equal to>, fillcolor="#e58139cc"] ;
42 -> 44 ;
45 [label=<fnlwgt &le; 0.33<br/>gini = 0.452<br/>samples = 87<br/>value = [57, 30]<br/>class = Less than or equal to>, fillcolor="#e5813979"] ;
39 -> 45 ;
46 [label=<relationship_Not-in-family &le; 0.043<br/>gini = 0.496<br/>samples = 66<br/>value = [36, 30]<br/>class = Less than or equal to>, fillcolor="#e581392a"] ;
45 -> 46 ;
47 [label=<gini = 0.0<br/>samples = 13<br/>value = [13, 0]<br/>class = Less than or equal to>, fillcolor="#e58139ff"] ;
46 -> 47 ;
48 [label=<gini = 0.491<br/>samples = 53<br/>value = [23, 30]<br/>class = More than>, fillcolor="#399de53b"] ;
46 -> 48 ;
49 [label=<gini = 0.0<br/>samples = 21<br/>value = [21, 0]<br/>class = Less than or equal to>, fillcolor="#e58139ff"] ;
45 -> 49 ;
50 [label=<sex_ Male &le; 0.374<br/>gini = 0.485<br/>samples = 87<br/>value = [51, 36]<br/>class = Less than or equal to>, fillcolor="#e581394b"] ;
24 -> 50 ;
51 [label=<education_Graduates &le; 0.952<br/>gini = 0.266<br/>samples = 38<br/>value = [32, 6]<br/>class = Less than or equal to>, fillcolor="#e58139cf"] ;
50 -> 51 ;
52 [label=<gini = 0.0<br/>samples = 5<br/>value = [0, 5]<br/>class = More than>, fillcolor="#399de5ff"] ;
51 -> 52 ;
53 [label=<workclass_Other &le; 0.5<br/>gini = 0.059<br/>samples = 33<br/>value = [32, 1]<br/>class = Less than or equal to>, fillcolor="#e58139f7"] ;
51 -> 53 ;
54 [label=<gini = 0.0<br/>samples = 31<br/>value = [31, 0]<br/>class = Less than or equal to>, fillcolor="#e58139ff"] ;
53 -> 54 ;
55 [label=<hours-per-week &le; 1.69<br/>gini = 0.5<br/>samples = 2<br/>value = [1, 1]<br/>class = Less than or equal to>, fillcolor="#e5813900"] ;
53 -> 55 ;
56 [label=<gini = 0.0<br/>samples = 1<br/>value = [1, 0]<br/>class = Less than or equal to>, fillcolor="#e58139ff"] ;
55 -> 56 ;
57 [label=<gini = 0.0<br/>samples = 1<br/>value = [0, 1]<br/>class = More than>, fillcolor="#399de5ff"] ;
55 -> 57 ;
58 [label=<workclass_Private &le; 0.5<br/>gini = 0.475<br/>samples = 49<br/>value = [19, 30]<br/>class = More than>, fillcolor="#399de55e"] ;
50 -> 58 ;
59 [label=<hours-per-week &le; 2.027<br/>gini = 0.278<br/>samples = 12<br/>value = [10, 2]<br/>class = Less than or equal to>, fillcolor="#e58139cc"] ;
58 -> 59 ;
60 [label=<gini = 0.0<br/>samples = 10<br/>value = [10, 0]<br/>class = Less than or equal to>, fillcolor="#e58139ff"] ;
59 -> 60 ;
61 [label=<gini = 0.0<br/>samples = 2<br/>value = [0, 2]<br/>class = More than>, fillcolor="#399de5ff"] ;
59 -> 61 ;
62 [label=<age &le; -0.233<br/>gini = 0.368<br/>samples = 37<br/>value = [9, 28]<br/>class = More than>, fillcolor="#399de5ad"] ;
58 -> 62 ;
63 [label=<marital-status_Once-Married &le; 0.389<br/>gini = 0.444<br/>samples = 9<br/>value = [6, 3]<br/>class = Less than or equal to>, fillcolor="#e581397f"] ;
62 -> 63 ;
64 [label=<gini = 0.245<br/>samples = 7<br/>value = [6, 1]<br/>class = Less than or equal to>, fillcolor="#e58139d4"] ;
63 -> 64 ;
65 [label=<gini = 0.0<br/>samples = 2<br/>value = [0, 2]<br/>class = More than>, fillcolor="#399de5ff"] ;
63 -> 65 ;
66 [label=<fnlwgt &le; -0.878<br/>gini = 0.191<br/>samples = 28<br/>value = [3, 25]<br/>class = More than>, fillcolor="#399de5e0"] ;
62 -> 66 ;
67 [label=<gini = 0.0<br/>samples = 2<br/>value = [2, 0]<br/>class = Less than or equal to>, fillcolor="#e58139ff"] ;
66 -> 67 ;
68 [label=<gini = 0.074<br/>samples = 26<br/>value = [1, 25]<br/>class = More than>, fillcolor="#399de5f5"] ;
66 -> 68 ;
69 [label=<investment-status &le; 0.85<br/>gini = 0.167<br/>samples = 87<br/>value = [8, 79]<br/>class = More than>, fillcolor="#399de5e5"] ;
1 -> 69 ;
70 [label=<marital-status_Once-Married &le; 0.433<br/>gini = 0.435<br/>samples = 25<br/>value = [8, 17]<br/>class = More than>, fillcolor="#399de587"] ;
69 -> 70 ;
71 [label=<sex_ Female &le; 0.855<br/>gini = 0.375<br/>samples = 8<br/>value = [6, 2]<br/>class = Less than or equal to>, fillcolor="#e58139aa"] ;
70 -> 71 ;
72 [label=<age &le; -0.782<br/>gini = 0.444<br/>samples = 3<br/>value = [1, 2]<br/>class = More than>, fillcolor="#399de57f"] ;
71 -> 72 ;
73 [label=<gini = 0.0<br/>samples = 1<br/>value = [1, 0]<br/>class = Less than or equal to>, fillcolor="#e58139ff"] ;
72 -> 73 ;
74 [label=<gini = 0.0<br/>samples = 2<br/>value = [0, 2]<br/>class = More than>, fillcolor="#399de5ff"] ;
72 -> 74 ;
75 [label=<gini = 0.0<br/>samples = 5<br/>value = [5, 0]<br/>class = Less than or equal to>, fillcolor="#e58139ff"] ;
71 -> 75 ;
76 [label=<age &le; 1.005<br/>gini = 0.208<br/>samples = 17<br/>value = [2, 15]<br/>class = More than>, fillcolor="#399de5dd"] ;
70 -> 76 ;
77 [label=<gini = 0.0<br/>samples = 14<br/>value = [0, 14]<br/>class = More than>, fillcolor="#399de5ff"] ;
76 -> 77 ;
78 [label=<workclass_Government &le; 0.5<br/>gini = 0.444<br/>samples = 3<br/>value = [2, 1]<br/>class = Less than or equal to>, fillcolor="#e581397f"] ;
76 -> 78 ;
79 [label=<gini = 0.0<br/>samples = 2<br/>value = [2, 0]<br/>class = Less than or equal to>, fillcolor="#e58139ff"] ;
78 -> 79 ;
80 [label=<gini = 0.0<br/>samples = 1<br/>value = [0, 1]<br/>class = More than>, fillcolor="#399de5ff"] ;
78 -> 80 ;
81 [label=<gini = 0.0<br/>samples = 62<br/>value = [0, 62]<br/>class = More than>, fillcolor="#399de5ff"] ;
69 -> 81 ;
82 [label=<education_Compulsory-education-incomplete &le; 0.989<br/>gini = 0.391<br/>samples = 2837<br/>value = [755, 2082]<br/>class = More than>, fillcolor="#399de5a3"] ;
0 -> 82 [labeldistance=2.5, labelangle=-45, headlabel="False"] ;
83 [label=<education_Compulsory-education-complete &le; 0.998<br/>gini = 0.36<br/>samples = 2685<br/>value = [633, 2052]<br/>class = More than>, fillcolor="#399de5b0"] ;
82 -> 83 ;
84 [label=<age &le; -0.984<br/>gini = 0.271<br/>samples = 1909<br/>value = [308, 1601]<br/>class = More than>, fillcolor="#399de5ce"] ;
83 -> 84 ;
85 [label=<hours-per-week &le; 1.405<br/>gini = 0.108<br/>samples = 35<br/>value = [33, 2]<br/>class = Less than or equal to>, fillcolor="#e58139f0"] ;
84 -> 85 ;
86 [label=<fnlwgt &le; -1.311<br/>gini = 0.061<br/>samples = 32<br/>value = [31, 1]<br/>class = Less than or equal to>, fillcolor="#e58139f7"] ;
85 -> 86 ;
87 [label=<occupation_Exec-managerial &le; 0.5<br/>gini = 0.444<br/>samples = 3<br/>value = [2, 1]<br/>class = Less than or equal to>, fillcolor="#e581397f"] ;
86 -> 87 ;
88 [label=<gini = 0.0<br/>samples = 2<br/>value = [2, 0]<br/>class = Less than or equal to>, fillcolor="#e58139ff"] ;
87 -> 88 ;
89 [label=<gini = 0.0<br/>samples = 1<br/>value = [0, 1]<br/>class = More than>, fillcolor="#399de5ff"] ;
87 -> 89 ;
90 [label=<gini = 0.0<br/>samples = 29<br/>value = [29, 0]<br/>class = Less than or equal to>, fillcolor="#e58139ff"] ;
86 -> 90 ;
91 [label=<fnlwgt &le; -0.163<br/>gini = 0.444<br/>samples = 3<br/>value = [2, 1]<br/>class = Less than or equal to>, fillcolor="#e581397f"] ;
85 -> 91 ;
92 [label=<gini = 0.0<br/>samples = 2<br/>value = [2, 0]<br/>class = Less than or equal to>, fillcolor="#e58139ff"] ;
91 -> 92 ;
93 [label=<gini = 0.0<br/>samples = 1<br/>value = [0, 1]<br/>class = More than>, fillcolor="#399de5ff"] ;
91 -> 93 ;
94 [label=<education_Undergrad-incomplete &le; 0.991<br/>gini = 0.25<br/>samples = 1874<br/>value = [275, 1599]<br/>class = More than>, fillcolor="#399de5d3"] ;
84 -> 94 ;
95 [label=<education_Associates &le; 0.991<br/>gini = 0.181<br/>samples = 1457<br/>value = [147, 1310]<br/>class = More than>, fillcolor="#399de5e2"] ;
94 -> 95 ;
96 [label=<education_Undergrad-complete &le; 0.993<br/>gini = 0.143<br/>samples = 1293<br/>value = [100, 1193]<br/>class = More than>, fillcolor="#399de5ea"] ;
95 -> 96 ;
97 [label=<fnlwgt &le; -1.462<br/>gini = 0.068<br/>samples = 678<br/>value = [24, 654]<br/>class = More than>, fillcolor="#399de5f6"] ;
96 -> 97 ;
98 [label=<gini = 0.444<br/>samples = 6<br/>value = [2, 4]<br/>class = More than>, fillcolor="#399de57f"] ;
97 -> 98 ;
99 [label=<gini = 0.063<br/>samples = 672<br/>value = [22, 650]<br/>class = More than>, fillcolor="#399de5f6"] ;
97 -> 99 ;
100 [label=<hours-per-week &le; -0.43<br/>gini = 0.217<br/>samples = 615<br/>value = [76, 539]<br/>class = More than>, fillcolor="#399de5db"] ;
96 -> 100 ;
101 [label=<gini = 0.488<br/>samples = 38<br/>value = [16, 22]<br/>class = More than>, fillcolor="#399de546"] ;
100 -> 101 ;
102 [label=<gini = 0.186<br/>samples = 577<br/>value = [60, 517]<br/>class = More than>, fillcolor="#399de5e1"] ;
100 -> 102 ;
103 [label=<age &le; -0.252<br/>gini = 0.409<br/>samples = 164<br/>value = [47, 117]<br/>class = More than>, fillcolor="#399de599"] ;
95 -> 103 ;
104 [label=<occupation_Exec-managerial &le; 0.5<br/>gini = 0.457<br/>samples = 34<br/>value = [22, 12]<br/>class = Less than or equal to>, fillcolor="#e5813974"] ;
103 -> 104 ;
105 [label=<gini = 0.346<br/>samples = 27<br/>value = [21, 6]<br/>class = Less than or equal to>, fillcolor="#e58139b6"] ;
104 -> 105 ;
106 [label=<gini = 0.245<br/>samples = 7<br/>value = [1, 6]<br/>class = More than>, fillcolor="#399de5d4"] ;
104 -> 106 ;
107 [label=<race_White &le; 0.193<br/>gini = 0.311<br/>samples = 130<br/>value = [25, 105]<br/>class = More than>, fillcolor="#399de5c2"] ;
103 -> 107 ;
108 [label=<gini = 0.408<br/>samples = 7<br/>value = [5, 2]<br/>class = Less than or equal to>, fillcolor="#e5813999"] ;
107 -> 108 ;
109 [label=<gini = 0.272<br/>samples = 123<br/>value = [20, 103]<br/>class = More than>, fillcolor="#399de5cd"] ;
107 -> 109 ;
110 [label=<investment-status &le; 0.223<br/>gini = 0.425<br/>samples = 417<br/>value = [128, 289]<br/>class = More than>, fillcolor="#399de58e"] ;
94 -> 110 ;
111 [label=<age &le; 1.092<br/>gini = 0.456<br/>samples = 358<br/>value = [126, 232]<br/>class = More than>, fillcolor="#399de575"] ;
110 -> 111 ;
112 [label=<age &le; -0.247<br/>gini = 0.439<br/>samples = 326<br/>value = [106, 220]<br/>class = More than>, fillcolor="#399de584"] ;
111 -> 112 ;
113 [label=<gini = 0.499<br/>samples = 105<br/>value = [50, 55]<br/>class = More than>, fillcolor="#399de517"] ;
112 -> 113 ;
114 [label=<gini = 0.378<br/>samples = 221<br/>value = [56, 165]<br/>class = More than>, fillcolor="#399de5a8"] ;
112 -> 114 ;
115 [label=<fnlwgt &le; -0.406<br/>gini = 0.469<br/>samples = 32<br/>value = [20, 12]<br/>class = Less than or equal to>, fillcolor="#e5813966"] ;
111 -> 115 ;
116 [label=<gini = 0.42<br/>samples = 10<br/>value = [3, 7]<br/>class = More than>, fillcolor="#399de592"] ;
115 -> 116 ;
117 [label=<gini = 0.351<br/>samples = 22<br/>value = [17, 5]<br/>class = Less than or equal to>, fillcolor="#e58139b4"] ;
115 -> 117 ;
118 [label=<fnlwgt &le; -1.148<br/>gini = 0.065<br/>samples = 59<br/>value = [2, 57]<br/>class = More than>, fillcolor="#399de5f6"] ;
110 -> 118 ;
119 [label=<gini = 0.0<br/>samples = 1<br/>value = [1, 0]<br/>class = Less than or equal to>, fillcolor="#e58139ff"] ;
118 -> 119 ;
120 [label=<fnlwgt &le; 0.56<br/>gini = 0.034<br/>samples = 58<br/>value = [1, 57]<br/>class = More than>, fillcolor="#399de5fb"] ;
118 -> 120 ;
121 [label=<gini = 0.0<br/>samples = 50<br/>value = [0, 50]<br/>class = More than>, fillcolor="#399de5ff"] ;
120 -> 121 ;
122 [label=<gini = 0.219<br/>samples = 8<br/>value = [1, 7]<br/>class = More than>, fillcolor="#399de5db"] ;
120 -> 122 ;
123 [label=<age &le; -0.265<br/>gini = 0.487<br/>samples = 776<br/>value = [325, 451]<br/>class = More than>, fillcolor="#399de547"] ;
83 -> 123 ;
124 [label=<age &le; -0.916<br/>gini = 0.446<br/>samples = 167<br/>value = [111, 56]<br/>class = Less than or equal to>, fillcolor="#e581397e"] ;
123 -> 124 ;
125 [label=<fnlwgt &le; 1.571<br/>gini = 0.069<br/>samples = 28<br/>value = [27, 1]<br/>class = Less than or equal to>, fillcolor="#e58139f6"] ;
124 -> 125 ;
126 [label=<gini = 0.0<br/>samples = 24<br/>value = [24, 0]<br/>class = Less than or equal to>, fillcolor="#e58139ff"] ;
125 -> 126 ;
127 [label=<fnlwgt &le; 1.738<br/>gini = 0.375<br/>samples = 4<br/>value = [3, 1]<br/>class = Less than or equal to>, fillcolor="#e58139aa"] ;
125 -> 127 ;
128 [label=<gini = 0.0<br/>samples = 1<br/>value = [0, 1]<br/>class = More than>, fillcolor="#399de5ff"] ;
127 -> 128 ;
129 [label=<gini = 0.0<br/>samples = 3<br/>value = [3, 0]<br/>class = Less than or equal to>, fillcolor="#e58139ff"] ;
127 -> 129 ;
130 [label=<fnlwgt &le; -0.957<br/>gini = 0.478<br/>samples = 139<br/>value = [84, 55]<br/>class = Less than or equal to>, fillcolor="#e5813958"] ;
124 -> 130 ;
131 [label=<fnlwgt &le; -1.225<br/>gini = 0.408<br/>samples = 21<br/>value = [6, 15]<br/>class = More than>, fillcolor="#399de599"] ;
130 -> 131 ;
132 [label=<fnlwgt &le; -1.272<br/>gini = 0.48<br/>samples = 15<br/>value = [6, 9]<br/>class = More than>, fillcolor="#399de555"] ;
131 -> 132 ;
133 [label=<gini = 0.426<br/>samples = 13<br/>value = [4, 9]<br/>class = More than>, fillcolor="#399de58e"] ;
132 -> 133 ;
134 [label=<gini = 0.0<br/>samples = 2<br/>value = [2, 0]<br/>class = Less than or equal to>, fillcolor="#e58139ff"] ;
132 -> 134 ;
135 [label=<gini = 0.0<br/>samples = 6<br/>value = [0, 6]<br/>class = More than>, fillcolor="#399de5ff"] ;
131 -> 135 ;
136 [label=<fnlwgt &le; -0.736<br/>gini = 0.448<br/>samples = 118<br/>value = [78, 40]<br/>class = Less than or equal to>, fillcolor="#e581397c"] ;
130 -> 136 ;
137 [label=<gini = 0.0<br/>samples = 11<br/>value = [11, 0]<br/>class = Less than or equal to>, fillcolor="#e58139ff"] ;
136 -> 137 ;
138 [label=<fnlwgt &le; -0.661<br/>gini = 0.468<br/>samples = 107<br/>value = [67, 40]<br/>class = Less than or equal to>, fillcolor="#e5813967"] ;
136 -> 138 ;
139 [label=<gini = 0.397<br/>samples = 11<br/>value = [3, 8]<br/>class = More than>, fillcolor="#399de59f"] ;
138 -> 139 ;
140 [label=<gini = 0.444<br/>samples = 96<br/>value = [64, 32]<br/>class = Less than or equal to>, fillcolor="#e581397f"] ;
138 -> 140 ;
141 [label=<hours-per-week &le; -0.339<br/>gini = 0.456<br/>samples = 609<br/>value = [214, 395]<br/>class = More than>, fillcolor="#399de575"] ;
123 -> 141 ;
142 [label=<fnlwgt &le; -1.018<br/>gini = 0.31<br/>samples = 47<br/>value = [38, 9]<br/>class = Less than or equal to>, fillcolor="#e58139c3"] ;
141 -> 142 ;
143 [label=<age &le; 0.595<br/>gini = 0.48<br/>samples = 10<br/>value = [4, 6]<br/>class = More than>, fillcolor="#399de555"] ;
142 -> 143 ;
144 [label=<gini = 0.0<br/>samples = 5<br/>value = [0, 5]<br/>class = More than>, fillcolor="#399de5ff"] ;
143 -> 144 ;
145 [label=<fnlwgt &le; -1.13<br/>gini = 0.32<br/>samples = 5<br/>value = [4, 1]<br/>class = Less than or equal to>, fillcolor="#e58139bf"] ;
143 -> 145 ;
146 [label=<gini = 0.0<br/>samples = 4<br/>value = [4, 0]<br/>class = Less than or equal to>, fillcolor="#e58139ff"] ;
145 -> 146 ;
147 [label=<gini = 0.0<br/>samples = 1<br/>value = [0, 1]<br/>class = More than>, fillcolor="#399de5ff"] ;
145 -> 147 ;
148 [label=<occupation_Exec-managerial &le; 0.5<br/>gini = 0.149<br/>samples = 37<br/>value = [34, 3]<br/>class = Less than or equal to>, fillcolor="#e58139e9"] ;
142 -> 148 ;
149 [label=<gini = 0.0<br/>samples = 29<br/>value = [29, 0]<br/>class = Less than or equal to>, fillcolor="#e58139ff"] ;
148 -> 149 ;
150 [label=<fnlwgt &le; -0.404<br/>gini = 0.469<br/>samples = 8<br/>value = [5, 3]<br/>class = Less than or equal to>, fillcolor="#e5813966"] ;
148 -> 150 ;
151 [label=<gini = 0.0<br/>samples = 3<br/>value = [3, 0]<br/>class = Less than or equal to>, fillcolor="#e58139ff"] ;
150 -> 151 ;
152 [label=<gini = 0.48<br/>samples = 5<br/>value = [2, 3]<br/>class = More than>, fillcolor="#399de555"] ;
150 -> 152 ;
153 [label=<investment-status &le; -0.124<br/>gini = 0.43<br/>samples = 562<br/>value = [176, 386]<br/>class = More than>, fillcolor="#399de58b"] ;
141 -> 153 ;
154 [label=<investment-status &le; -0.136<br/>gini = 0.455<br/>samples = 482<br/>value = [169, 313]<br/>class = More than>, fillcolor="#399de575"] ;
153 -> 154 ;
155 [label=<investment-status &le; -0.372<br/>gini = 0.236<br/>samples = 66<br/>value = [9, 57]<br/>class = More than>, fillcolor="#399de5d7"] ;
154 -> 155 ;
156 [label=<gini = 0.32<br/>samples = 5<br/>value = [4, 1]<br/>class = Less than or equal to>, fillcolor="#e58139bf"] ;
155 -> 156 ;
157 [label=<gini = 0.15<br/>samples = 61<br/>value = [5, 56]<br/>class = More than>, fillcolor="#399de5e8"] ;
155 -> 157 ;
158 [label=<race_Black &le; 0.947<br/>gini = 0.473<br/>samples = 416<br/>value = [160, 256]<br/>class = More than>, fillcolor="#399de560"] ;
154 -> 158 ;
159 [label=<gini = 0.465<br/>samples = 397<br/>value = [146, 251]<br/>class = More than>, fillcolor="#399de56b"] ;
158 -> 159 ;
160 [label=<gini = 0.388<br/>samples = 19<br/>value = [14, 5]<br/>class = Less than or equal to>, fillcolor="#e58139a4"] ;
158 -> 160 ;
161 [label=<age &le; 2.034<br/>gini = 0.16<br/>samples = 80<br/>value = [7, 73]<br/>class = More than>, fillcolor="#399de5e7"] ;
153 -> 161 ;
162 [label=<native-country_North-America &le; 0.5<br/>gini = 0.12<br/>samples = 78<br/>value = [5, 73]<br/>class = More than>, fillcolor="#399de5ee"] ;
161 -> 162 ;
163 [label=<gini = 0.0<br/>samples = 1<br/>value = [1, 0]<br/>class = Less than or equal to>, fillcolor="#e58139ff"] ;
162 -> 163 ;
164 [label=<gini = 0.098<br/>samples = 77<br/>value = [4, 73]<br/>class = More than>, fillcolor="#399de5f1"] ;
162 -> 164 ;
165 [label=<gini = 0.0<br/>samples = 2<br/>value = [2, 0]<br/>class = Less than or equal to>, fillcolor="#e58139ff"] ;
161 -> 165 ;
166 [label=<investment-status &le; -0.095<br/>gini = 0.317<br/>samples = 152<br/>value = [122, 30]<br/>class = Less than or equal to>, fillcolor="#e58139c0"] ;
82 -> 166 ;
167 [label=<investment-status &le; -0.135<br/>gini = 0.237<br/>samples = 138<br/>value = [119, 19]<br/>class = Less than or equal to>, fillcolor="#e58139d6"] ;
166 -> 167 ;
168 [label=<race_Black &le; 0.5<br/>gini = 0.408<br/>samples = 7<br/>value = [2, 5]<br/>class = More than>, fillcolor="#399de599"] ;
167 -> 168 ;
169 [label=<hours-per-week &le; -0.432<br/>gini = 0.278<br/>samples = 6<br/>value = [1, 5]<br/>class = More than>, fillcolor="#399de5cc"] ;
168 -> 169 ;
170 [label=<gini = 0.0<br/>samples = 1<br/>value = [1, 0]<br/>class = Less than or equal to>, fillcolor="#e58139ff"] ;
169 -> 170 ;
171 [label=<gini = 0.0<br/>samples = 5<br/>value = [0, 5]<br/>class = More than>, fillcolor="#399de5ff"] ;
169 -> 171 ;
172 [label=<gini = 0.0<br/>samples = 1<br/>value = [1, 0]<br/>class = Less than or equal to>, fillcolor="#e58139ff"] ;
168 -> 172 ;
173 [label=<hours-per-week &le; 0.024<br/>gini = 0.191<br/>samples = 131<br/>value = [117, 14]<br/>class = Less than or equal to>, fillcolor="#e58139e0"] ;
167 -> 173 ;
174 [label=<occupation_Exec-managerial &le; 0.5<br/>gini = 0.041<br/>samples = 95<br/>value = [93, 2]<br/>class = Less than or equal to>, fillcolor="#e58139fa"] ;
173 -> 174 ;
175 [label=<age &le; 0.559<br/>gini = 0.022<br/>samples = 92<br/>value = [91, 1]<br/>class = Less than or equal to>, fillcolor="#e58139fc"] ;
174 -> 175 ;
176 [label=<gini = 0.0<br/>samples = 48<br/>value = [48, 0]<br/>class = Less than or equal to>, fillcolor="#e58139ff"] ;
175 -> 176 ;
177 [label=<age &le; 0.667<br/>gini = 0.044<br/>samples = 44<br/>value = [43, 1]<br/>class = Less than or equal to>, fillcolor="#e58139f9"] ;
175 -> 177 ;
178 [label=<gini = 0.5<br/>samples = 2<br/>value = [1, 1]<br/>class = Less than or equal to>, fillcolor="#e5813900"] ;
177 -> 178 ;
179 [label=<gini = 0.0<br/>samples = 42<br/>value = [42, 0]<br/>class = Less than or equal to>, fillcolor="#e58139ff"] ;
177 -> 179 ;
180 [label=<age &le; 1.638<br/>gini = 0.444<br/>samples = 3<br/>value = [2, 1]<br/>class = Less than or equal to>, fillcolor="#e581397f"] ;
174 -> 180 ;
181 [label=<gini = 0.0<br/>samples = 1<br/>value = [0, 1]<br/>class = More than>, fillcolor="#399de5ff"] ;
180 -> 181 ;
182 [label=<gini = 0.0<br/>samples = 2<br/>value = [2, 0]<br/>class = Less than or equal to>, fillcolor="#e58139ff"] ;
180 -> 182 ;
183 [label=<hours-per-week &le; 0.37<br/>gini = 0.444<br/>samples = 36<br/>value = [24, 12]<br/>class = Less than or equal to>, fillcolor="#e581397f"] ;
173 -> 183 ;
184 [label=<gini = 0.0<br/>samples = 3<br/>value = [0, 3]<br/>class = More than>, fillcolor="#399de5ff"] ;
183 -> 184 ;
185 [label=<hours-per-week &le; 3.405<br/>gini = 0.397<br/>samples = 33<br/>value = [24, 9]<br/>class = Less than or equal to>, fillcolor="#e581399f"] ;
183 -> 185 ;
186 [label=<age &le; -0.197<br/>gini = 0.35<br/>samples = 31<br/>value = [24, 7]<br/>class = Less than or equal to>, fillcolor="#e58139b5"] ;
185 -> 186 ;
187 [label=<gini = 0.0<br/>samples = 9<br/>value = [9, 0]<br/>class = Less than or equal to>, fillcolor="#e58139ff"] ;
186 -> 187 ;
188 [label=<gini = 0.434<br/>samples = 22<br/>value = [15, 7]<br/>class = Less than or equal to>, fillcolor="#e5813988"] ;
186 -> 188 ;
189 [label=<gini = 0.0<br/>samples = 2<br/>value = [0, 2]<br/>class = More than>, fillcolor="#399de5ff"] ;
185 -> 189 ;
190 [label=<race_Black &le; 0.5<br/>gini = 0.337<br/>samples = 14<br/>value = [3, 11]<br/>class = More than>, fillcolor="#399de5b9"] ;
166 -> 190 ;
191 [label=<gini = 0.0<br/>samples = 11<br/>value = [0, 11]<br/>class = More than>, fillcolor="#399de5ff"] ;
190 -> 191 ;
192 [label=<gini = 0.0<br/>samples = 3<br/>value = [3, 0]<br/>class = Less than or equal to>, fillcolor="#e58139ff"] ;
190 -> 192 ;
}